{"learner":{"attributes":{"scikit_learn":"{\"_estimator_type\": \"classifier\"}"},"feature_names":[],"feature_types":[],"gradient_booster":{"model":{"cats":{"enc":[],"feature_segments":[],"sorted_idx":[]},"gbtree_model_param":{"num_parallel_tree":"1","num_trees":"200"},"iteration_indptr":[0,1,2,3,4,5,6,7,8,9,10,11,12,13,14,15,16,17,18,19,20,21,22,23,24,25,26,27,28,29,30,31,32,33,34,35,36,37,38,39,40,41,42,43,44,45,46,47,48,49,50,51,52,53,54,55,56,57,58,59,60,61,62,63,64,65,66,67,68,69,70,71,72,73,74,75,76,77,78,79,80,81,82,83,84,85,86,87,88,89,90,91,92,93,94,95,96,97,98,99,100,101,102,103,104,105,106,107,108,109,110,111,112,113,114,115,116,117,118,119,120,121,122,123,124,125,126,127,128,129,130,131,132,133,134,135,136,137,138,139,140,141,142,143,144,145,146,147,148,149,150,151,152,153,154,155,156,157,158,159,160,161,162,163,164,165,166,167,168,169,170,171,172,173,174,175,176,177,178,179,180,181,182,183,184,185,186,187,188,189,190,191,192,193,194,195,196,197,198,199,200],"tree_info":[0,0,0,0,0,0,0,0,0,0,0,0,0,0,0,0,0,0,0,0,0,0,0,0,0,0,0,0,0,0,0,0,0,0,0,0,0,0,0,0,0,0,0,0,0,0,0,0,0,0,0,0,0,0,0,0,0,0,0,0,0,0,0,0,0,0,0,0,0,0,0,0,0,0,0,0,0,0,0,0,0,0,0,0,0,0,0,0,0,0,0,0,0,0,0,0,0,0,0,0,0,0,0,0,0,0,0,0,0,0,0,0,0,0,0,0,0,0,0,0,0,0,0,0,0,0,0,0,0,0,0,0,0,0,0,0,0,0,0,0,0,0,0,0,0,0,0,0,0,0,0,0,0,0,0,0,0,0,0,0,0,0,0,0,0,0,0,0,0,0,0,0,0,0,0,0,0,0,0,0,0,0,0,0,0,0,0,0,0,0,0,0,0,0,0,0,0,0,0,0],"trees":[{"base_weights":[-1.2998863E-1,1.0630761E0,-1.5575863E0,1.4791076E0,-2.7946246E-1,-7.546583E-1,-1.7247126E0,1.572457E0,1.0487627E-2,3.357892E-1,-6.0678758E-2,-6.742082E-4,-5.46288E-2,-9.270736E-2,-2.0675724E-2,8.3876655E-2,1.9327307E-2,-2.0675724E-2,4.4743124E-2],"categories":[],"categories_nodes":[],"categories_segments":[],"categories_sizes":[],"default_left":[0,0,0,0,0,0,0,0,0,0,0,0,0,0,0,0,0,0,0],"id":0,"left_children":[1,3,5,7,9,11,13,15,-1,17,-1,-1,-1,-1,-1,-1,-1,-1,-1],"loss_changes":[6.466711E1,1.2001633E1,1.0129356E0,1.5658417E0,3.711768E0,1.1748142E0,1.5241585E0,1.189354E0,0E0,2.1502583E0,0E0,0E0,0E0,0E0,0E0,0E0,0E0,0E0,0E0],"parents":[2147483647,0,0,1,1,2,2,3,3,4,4,5,5,6,6,7,7,9,9],"right_children":[2,4,6,8,10,12,14,16,-1,18,-1,-1,-1,-1,-1,-1,-1,-1,-1],"split_conditions":[1.0111749E0,1.2562759E0,1.4072298E0,1.538053E0,9.5962286E-1,-1.53E-1,1.387E0,6.664048E-1,1.0487627E-2,-9.8E-2,-6.0678758E-2,-6.742082E-4,-5.46288E-2,-9.270736E-2,-2.0675724E-2,8.3876655E-2,1.9327307E-2,-2.0675724E-2,4.4743124E-2],"split_indices":[3,2,1,1,1,6,5,3,0,6,0,0,0,0,0,0,0,0,0],"split_type":[0,0,0,0,0,0,0,0,0,0,0,0,0,0,0,0,0,0,0],"sum_hessian":[3.5995457E1,1.9747507E1,1.6247948E1,1.4998106E1,4.7494E0,3.7495265E0,1.2498422E1,1.3748264E1,1.2498422E0,3.2495897E0,1.4998107E0,1.4998107E0,2.249716E0,1.0998611E1,1.4998107E0,1.2248453E1,1.4998107E0,1.4998107E0,1.7497791E0],"tree_param":{"num_deleted":"0","num_feature":"8","num_nodes":"19","size_leaf_vector":"1"}},{"base_weights":[7.5886495E-2,1.2602966E0,-1.0951124E0,1.5072708E0,1.0827839E-1,6.3441324E-1,-1.5485871E0,8.0526926E-2,1.78482E-2,-4.0169533E-2,4.4886503E-2,5.2158613E-2,-1.1890613E-2,-6.625279E-1,-8.482364E-2,-5.92543E-2,1.06401285E-2],"categories":[],"categories_nodes":[],"categories_segments":[],"categories_sizes":[],"default_left":[0,0,0,0,0,0,0,0,0,0,0,0,0,0,0,0,0],"id":1,"left_children":[1,3,5,7,9,11,13,-1,-1,-1,-1,-1,-1,15,-1,-1,-1],"loss_changes":[5.01995E1,4.9479885E0,1.5283995E1,1.1731491E0,3.7791486E0,1.8515081E0,8.071861E-1,0E0,0E0,0E0,0E0,0E0,0E0,1.9668856E0,0E0,0E0,0E0],"parents":[2147483647,0,0,1,1,2,2,3,3,4,4,5,5,6,6,13,13],"right_children":[2,4,6,8,10,12,14,-1,-1,-1,-1,-1,-1,16,-1,-1,-1],"split_conditions":[1.1531618E0,1.538053E0,9.5962286E-1,4.19E-1,2.10913E0,-7.080487E-1,1.270281E0,8.0526926E-2,1.78482E-2,-4.0169533E-2,4.4886503E-2,5.2158613E-2,-1.1890613E-2,1.0999186E0,-8.482364E-2,-5.92543E-2,1.06401285E-2],"split_indices":[2,1,1,7,1,4,1,0,0,0,0,0,0,1,0,0,0],"split_type":[0,0,0,0,0,0,0,0,0,0,0,0,0,0,0,0,0],"sum_hessian":[3.4199238E1,1.6964346E1,1.7234892E1,1.3715572E1,3.2487726E0,3.497318E0,1.3737574E1,1.2218569E1,1.497004E0,1.4994879E0,1.7492846E0,2.247883E0,1.2494351E0,2.7487E0,1.09888735E1,1.499594E0,1.2491058E0],"tree_param":{"num_deleted":"0","num_feature":"8","num_nodes":"17","size_leaf_vector":"1"}},{"base_weights":[-2.701377E-2,1.1231225E0,-1.4651241E0,1.3828264E0,3.4215143E-1,-7.800158E-2,-1.0201531E-2,7.422894E-2,8.515265E-3,-2.44574E-2,4.6619423E-2],"categories":[],"categories_nodes":[],"categories_segments":[],"categories_sizes":[],"default_left":[0,0,0,0,0,0,0,0,0,0,0],"id":2,"left_children":[1,3,5,7,9,-1,-1,-1,-1,-1,-1],"loss_changes":[5.8429153E1,3.5105228E0,1.5595284E0,1.5251446E0,3.5130646E0,0E0,0E0,0E0,0E0,0E0,0E0],"parents":[2147483647,0,0,1,1,2,2,3,3,4,4],"right_children":[2,4,6,8,10,-1,-1,-1,-1,-1,-1],"split_conditions":[9.008517E-1,1.0520595E0,1.415E0,1.4951018E0,3.73E-1,-7.800158E-2,-1.0201531E-2,7.422894E-2,8.515265E-3,-2.44574E-2,4.6619423E-2],"split_indices":[3,1,5,0,6,0,0,0,0,0,0],"split_type":[0,0,0,0,0,0,0,0,0,0,0],"sum_hessian":[3.3330624E1,1.8641232E1,1.4689393E1,1.3410918E1,5.230314E0,1.3440817E1,1.2485769E0,1.2165628E1,1.2452898E0,2.2427943E0,2.9875195E0],"tree_param":{"num_deleted":"0","num_feature":"8","num_nodes":"11","size_leaf_vector":"1"}},{"base_weights":[-8.906375E-3,1.2001988E0,-1.2292793E0,1.438601E0,-6.1321944E-2,1.7895564E-2,-1.386734E0,7.824598E-2,7.1515316E-1,-2.183638E-2,1.6953936E-2,-7.938053E-2,1.3159441E-2,1.1075407E-2,5.2591115E-2],"categories":[],"categories_nodes":[],"categories_segments":[],"categories_sizes":[],"default_left":[0,0,0,1,0,0,0,0,0,0,0,0,0,0,0],"id":3,"left_children":[1,3,5,7,9,-1,11,-1,13,-1,-1,-1,-1,-1,-1],"loss_changes":[5.58794E1,5.810442E0,5.20553E0,3.4695435E-1,7.468181E-1,0E0,6.16753E0,0E0,4.6942592E-1,0E0,0E0,0E0,0E0,0E0,0E0],"parents":[2147483647,0,0,1,1,2,2,3,3,4,4,6,6,8,8],"right_children":[2,4,6,8,10,-1,12,-1,14,-1,-1,-1,-1,-1,-1],"split_conditions":[7.688249E-1,1.294812E0,1.006039E0,5.754937E-1,1.8691589E0,1.7895564E-2,4.019492E0,7.824598E-2,2.148247E0,-2.183638E-2,1.6953936E-2,-7.938053E-2,1.3159441E-2,1.1075407E-2,5.2591115E-2],"split_indices":[3,2,2,4,2,0,0,0,4,0,0,0,0,0,0],"split_type":[0,0,0,0,0,0,0,0,0,0,0,0,0,0,0],"sum_hessian":[3.5870102E1,1.8026537E1,1.7843565E1,1.5043285E1,2.9832516E0,1.4954883E0,1.6348078E1,1.1816848E1,3.2264376E0,1.4928583E0,1.4903932E0,1.4607407E1,1.7406704E0,1.9804785E0,1.2459589E0],"tree_param":{"num_deleted":"0","num_feature":"8","num_nodes":"15","size_leaf_vector":"1"}},{"base_weights":[-1.377308E-1,1.1552907E0,-1.2045152E0,7.1402594E-2,-3.2453462E-1,1.3362042E-2,-1.3755063E0,1.0457738E-2,-3.5664603E-2,-1.4527467E0,-8.116691E-3,-2.3681832E-2,-7.6534085E-2],"categories":[],"categories_nodes":[],"categories_segments":[],"categories_sizes":[],"default_left":[0,0,0,0,0,0,0,0,0,0,0,0,0],"id":4,"left_children":[1,3,5,-1,7,-1,9,-1,-1,11,-1,-1,-1],"loss_changes":[5.2245632E1,7.396717E0,5.574518E0,0E0,8.7289E-1,0E0,1.5164337E0,0E0,0E0,6.069107E-1,0E0,0E0,0E0],"parents":[2147483647,0,0,1,1,2,2,4,4,6,6,9,9],"right_children":[2,4,6,-1,8,-1,10,-1,-1,12,-1,-1,-1],"split_conditions":[6.664048E-1,1.3120391E0,1.0111749E0,7.1402594E-2,1.19E-1,1.3362042E-2,4.7180924E0,1.0457738E-2,-3.5664603E-2,9.540151E-1,-8.116691E-3,-2.3681832E-2,-7.6534085E-2],"split_indices":[3,2,2,0,7,0,0,0,0,3,0,0,0],"split_type":[0,0,0,0,0,0,0,0,0,0,0,0,0],"sum_hessian":[3.5867462E1,1.61769E1,1.9690563E1,1.3688774E1,2.4881263E0,1.9909699E0,1.7699594E1,1.2433022E0,1.2448239E0,1.6454489E1,1.245104E0,1.7349793E0,1.471951E1],"tree_param":{"num_deleted":"0","num_feature":"8","num_nodes":"13","size_leaf_vector":"1"}},{"base_weights":[3.475013E-2,1.2284111E0,-1.0974816E0,1.4630622E0,1.9368668E-1,2.9877646E-2,-1.3147964E0,7.855382E-2,1.868877E-2,-2.6930353E-2,5.338518E-2,-7.109823E-2,-5.08879E-1,1.7723545E-2,-5.399802E-2],"categories":[],"categories_nodes":[],"categories_segments":[],"categories_sizes":[],"default_left":[0,0,0,0,0,0,0,0,0,0,0,0,0,0,0],"id":5,"left_children":[1,3,5,7,9,-1,11,-1,-1,-1,-1,-1,13,-1,-1],"loss_changes":[5.3348724E1,4.3788166E0,8.253836E0,1.2364349E0,3.5846236E0,0E0,8.554592E-1,0E0,0E0,0E0,0E0,0E0,2.2086337E0,0E0,0E0],"parents":[2147483647,0,0,1,1,2,2,3,3,4,4,6,6,12,12],"right_children":[2,4,6,8,10,-1,12,-1,-1,-1,-1,-1,14,-1,-1],"split_conditions":[7.688249E-1,1.2090918E0,1.0111749E0,4.19E-1,2.148247E0,2.9877646E-2,7.25E-1,7.855382E-2,1.868877E-2,-2.6930353E-2,5.338518E-2,-7.109823E-2,2.21E-1,1.7723545E-2,-5.399802E-2],"split_indices":[3,1,2,7,4,0,5,0,0,0,0,0,7,0,0],"split_type":[0,0,0,0,0,0,0,0,0,0,0,0,0,0,0],"sum_hessian":[3.7476162E1,1.8201838E1,1.9274324E1,1.4499688E1,3.7021503E0,1.9914562E0,1.728287E1,1.27892065E1,1.7104816E0,2.2232013E0,1.4789491E0,1.4579705E1,2.703164E0,1.2272022E0,1.475962E0],"tree_param":{"num_deleted":"0","num_feature":"8","num_nodes":"15","size_leaf_vector":"1"}},{"base_weights":[-4.524848E-2,1.0388442E0,-1.0646747E0,1.2726165E0,-8.224459E-2,-1.0374063E-1,-1.2583785E0,1.4138101E0,4.0990368E-1,2.3324896E-2,-3.5633862E-2,1.977075E-2,-3.6092278E-2,-6.7064844E-2,-1.4322193E-2,7.3763736E-2,2.343015E-2,4.4941995E-3,2.7304078E-2],"categories":[],"categories_nodes":[],"categories_segments":[],"categories_sizes":[],"default_left":[0,0,0,0,0,0,0,0,0,0,0,0,0,0,0,0,0,0,0],"id":6,"left_children":[1,3,5,7,9,11,13,15,17,-1,-1,-1,-1,-1,-1,-1,-1,-1,-1],"loss_changes":[4.000471E1,4.7078056E0,3.337862E0,1.1981716E0,1.7058065E0,1.5861498E0,8.583393E-1,1.358223E-2,1.01739705E-1,0E0,0E0,0E0,0E0,0E0,0E0,0E0,0E0,0E0,0E0],"parents":[2147483647,0,0,1,1,2,2,3,3,4,4,5,5,6,6,7,7,8,8],"right_children":[2,4,6,8,10,12,14,16,18,-1,-1,-1,-1,-1,-1,-1,-1,-1,-1],"split_conditions":[6.664048E-1,1.3120391E0,1.1531618E0,1.151828E0,1.19E-1,-3.24E-1,4.2908745E0,3.57E-1,3.1229436E-1,2.3324896E-2,-3.5633862E-2,1.977075E-2,-3.6092278E-2,-6.7064844E-2,-1.4322193E-2,7.3763736E-2,2.343015E-2,4.4941995E-3,2.7304078E-2],"split_indices":[3,2,2,1,7,7,0,7,0,0,0,0,0,0,0,0,0,0,0],"split_type":[0,0,0,0,0,0,0,0,0,0,0,0,0,0,0,0,0,0,0],"sum_hessian":[3.4197567E1,1.6563902E1,1.7633667E1,1.35940695E1,2.9698317E0,3.2158585E0,1.4417809E1,1.1133189E1,2.46088E0,1.7268119E0,1.2430198E0,1.9784354E0,1.2374231E0,1.2934317E1,1.4834912E0,9.926874E0,1.2063153E0,1.2301234E0,1.2307568E0],"tree_param":{"num_deleted":"0","num_feature":"8","num_nodes":"19","size_leaf_vector":"1"}},{"base_weights":[1.010642E-1,1.1353551E0,-1.0889311E0,7.208394E-2,4.8161003E-1,-1.2450273E0,-3.152849E-3,5.931748E-2,-1.32881E-1,-1.342902E0,-1.13283675E-2,-3.5748094E-2,2.4812948E-2,-2.1524558E-2,-6.993171E-2],"categories":[],"categories_nodes":[],"categories_segments":[],"categories_sizes":[],"default_left":[0,0,0,0,0,0,0,0,0,0,0,0,0,0,0],"id":7,"left_children":[1,3,5,-1,7,9,-1,-1,11,13,-1,-1,-1,-1,-1],"loss_changes":[4.3515564E1,3.0840092E0,2.5610962E0,0E0,3.414896E0,1.116539E0,0E0,0E0,2.1555803E0,4.8826218E-2,0E0,0E0,0E0,0E0,0E0],"parents":[2147483647,0,0,1,1,2,2,4,4,5,5,8,8,9,9],"right_children":[2,4,6,-1,8,10,-1,-1,12,14,-1,-1,-1,-1,-1],"split_conditions":[9.008517E-1,9.2E-2,4.7180924E0,7.208394E-2,3.145395E-1,6.75E-1,-3.152849E-3,5.931748E-2,2.89E-1,-7.07E-1,-1.13283675E-2,-3.5748094E-2,2.4812948E-2,-2.1524558E-2,-6.993171E-2],"split_indices":[3,7,0,0,3,5,0,0,5,5,0,0,0,0,0],"split_type":[0,0,0,0,0,0,0,0,0,0,0,0,0,0,0],"sum_hessian":[3.3350986E1,1.7867374E1,1.5483611E1,1.1345827E1,6.5215473E0,1.3253364E1,2.2302475E0,2.6042252E0,3.9173222E0,1.1800743E1,1.45262E0,1.9639044E0,1.9534177E0,1.1815469E0,1.0619197E1],"tree_param":{"num_deleted":"0","num_feature":"8","num_nodes":"15","size_leaf_vector":"1"}},{"base_weights":[6.115618E-3,1.1198504E0,-9.9866647E-1,6.6647075E-2,-7.63229E-2,2.115323E-2,-1.1706781E0,8.280042E-3,-1.4238404E-2,-6.476807E-2,-2.8069331E-3],"categories":[],"categories_nodes":[],"categories_segments":[],"categories_sizes":[],"default_left":[0,0,0,0,0,0,0,0,0,0,0],"id":8,"left_children":[1,3,5,-1,7,-1,9,-1,-1,-1,-1],"loss_changes":[3.9311077E1,4.3478622E0,5.012398E0,0E0,2.2187588E-1,0E0,2.2539291E0,0E0,0E0,0E0,0E0],"parents":[2147483647,0,0,1,1,2,2,4,4,6,6],"right_children":[2,4,6,-1,8,-1,10,-1,-1,-1,-1],"split_conditions":[6.664048E-1,1.3120391E0,1.0111749E0,6.6647075E-2,-4.6E-2,2.115323E-2,4.7180924E0,8.280042E-3,-1.4238404E-2,-6.476807E-2,-2.8069331E-3],"split_indices":[3,2,2,0,6,0,0,0,0,0,0],"split_type":[0,0,0,0,0,0,0,0,0,0,0],"sum_hessian":[3.3129265E1,1.5658418E1,1.7470848E1,1.3193703E1,2.4647152E0,1.7280934E0,1.5742754E1,1.2358811E0,1.2288343E0,1.4012896E1,1.7298582E0],"tree_param":{"num_deleted":"0","num_feature":"8","num_nodes":"11","size_leaf_vector":"1"}},{"base_weights":[1.3335105E-2,8.798783E-1,-1.0372386E0,1.1064926E0,9.792609E-2,-7.6499106E-3,-1.1429895E0,6.599479E-2,4.4424942E-1,-4.4642422E-1,4.9368832E-2,-6.1804277E-1,-6.273612E-2,-1.568047E-2,4.473555E-2,4.7779605E-3,-3.4972362E-2,-5.1407404E-2,2.4648195E-3],"categories":[],"categories_nodes":[],"categories_segments":[],"categories_sizes":[],"default_left":[0,0,0,0,0,0,0,0,0,0,0,1,0,0,0,0,0,0,0],"id":9,"left_children":[1,3,5,7,9,-1,11,-1,13,15,-1,17,-1,-1,-1,-1,-1,-1,-1],"loss_changes":[3.3336124E1,3.446023E0,1.3733959E0,1.5977249E0,3.154094E0,0E0,8.287811E-2,0E0,2.0809643E0,6.380104E-1,0E0,1.2928948E0,0E0,0E0,0E0,0E0,0E0,0E0,0E0],"parents":[2147483647,0,0,1,1,2,2,3,3,4,4,6,6,8,8,9,9,11,11],"right_children":[2,4,6,8,10,-1,12,-1,14,16,-1,18,-1,-1,-1,-1,-1,-1,-1],"split_conditions":[9.008517E-1,1.0611459E0,1.0111749E0,5.0145006E-1,2.148247E0,-7.6499106E-3,1.4072298E0,6.599479E-2,-9.8E-2,-8E-2,4.9368832E-2,-1.3580126E-1,-6.273612E-2,-1.568047E-2,4.473555E-2,4.7779605E-3,-3.4972362E-2,-5.1407404E-2,2.4648195E-3],"split_indices":[3,1,3,3,4,0,1,0,6,7,0,4,0,0,0,0,0,0,0],"split_type":[0,0,0,0,0,0,0,0,0,0,0,0,0,0,0,0,0,0,0],"sum_hessian":[3.4615814E1,1.905839E1,1.5557425E1,1.4454386E1,4.604003E0,1.9232098E0,1.3634215E1,1.018067E1,4.273716E0,3.1650558E0,1.4389474E0,3.5389278E0,1.0095287E1,1.7064987E0,2.5672174E0,1.2053936E0,1.9596621E0,1.8570387E0,1.681889E0],"tree_param":{"num_deleted":"0","num_feature":"8","num_nodes":"19","size_leaf_vector":"1"}},{"base_weights":[3.644513E-3,1.0071192E0,-9.7952914E-1,1.1762092E0,3.271495E-2,2.9585663E-2,-1.1271937E0,1.2975528E0,5.25338E-1,-2.1986848E-2,2.7216757E-2,-2.3978902E-2,-5.9304815E-2,6.8216465E-2,1.6799955E-2,-2.5058712E-3,4.732507E-2],"categories":[],"categories_nodes":[],"categories_segments":[],"categories_sizes":[],"default_left":[0,0,0,1,0,0,0,0,0,0,0,0,0,0,0,0,0],"id":10,"left_children":[1,3,5,7,9,-1,11,13,15,-1,-1,-1,-1,-1,-1,-1,-1],"loss_changes":[3.6008278E1,2.9372177E0,4.9447174E0,5.3157043E-1,1.1335325E0,0E0,8.7200165E-2,3.2925606E-1,1.0396941E0,0E0,0E0,0E0,0E0,0E0,0E0,0E0,0E0],"parents":[2147483647,0,0,1,1,2,2,3,3,4,4,6,6,7,7,8,8],"right_children":[2,4,6,8,10,-1,12,14,16,-1,-1,-1,-1,-1,-1,-1,-1],"split_conditions":[7.688249E-1,1.3120391E0,1.0111749E0,5.754937E-1,1.8691589E0,2.9585663E-2,-5.18E-1,5.43E-1,2.148247E0,-2.1986848E-2,2.7216757E-2,-2.3978902E-2,-5.9304815E-2,6.8216465E-2,1.6799955E-2,-2.5058712E-3,4.732507E-2],"split_indices":[3,2,2,4,2,0,6,5,4,0,0,0,0,0,0,0,0],"split_type":[0,0,0,0,0,0,0,0,0,0,0,0,0,0,0,0,0],"sum_hessian":[3.4497807E1,1.7060587E1,1.7437218E1,1.4361335E1,2.6992521E0,1.2396305E0,1.6197588E1,1.12671995E1,3.0941355E0,1.476391E0,1.2228613E0,2.1125586E0,1.4085029E1,1.0143865E1,1.123335E0,1.6798626E0,1.4142729E0],"tree_param":{"num_deleted":"0","num_feature":"8","num_nodes":"17","size_leaf_vector":"1"}},{"base_weights":[3.509404E-2,1.0354205E0,-6.692392E-1,5.8561325E-2,7.6863857E-4,-1.0223665E0,3.2786325E-1,-1.1568023E0,5.1147165E-3,4.4758126E-2,-2.3340504E-1,-6.897762E-2,7.749413E-3,1.4547928E-2,-3.8957976E-2],"categories":[],"categories_nodes":[],"categories_segments":[],"categories_sizes":[],"default_left":[0,0,1,0,0,0,0,0,0,0,0,0,0,0,0],"id":11,"left_children":[1,3,5,-1,-1,7,9,11,-1,-1,13,-1,-1,-1,-1],"loss_changes":[2.3274796E1,1.8708887E0,7.1714563E0,0E0,0E0,2.3228312E0,2.0668178E0,4.043108E0,0E0,0E0,1.293055E0,0E0,0E0,0E0,0E0],"parents":[2147483647,0,0,1,1,2,2,5,5,6,6,7,7,10,10],"right_children":[2,4,6,-1,-1,8,10,12,-1,-1,14,-1,-1,-1,-1],"split_conditions":[9.6130514E-1,1.5469724E0,7.80996E-1,5.8561325E-2,7.6863857E-4,4.7180924E0,1.3175735E0,4.3E-1,5.1147165E-3,4.4758126E-2,6.567432E0,-6.897762E-2,7.749413E-3,1.4547928E-2,-3.8957976E-2],"split_indices":[1,0,4,0,0,0,0,6,0,0,1,0,0,0,0],"split_type":[0,0,0,0,0,0,0,0,0,0,0,0,0,0,0],"sum_hessian":[3.1050856E1,1.2635404E1,1.8415451E1,1.1020024E1,1.6153793E0,1.3580524E1,4.8349276E0,1.2104982E1,1.4755418E0,2.1086884E0,2.7262392E0,1.0303697E1,1.8012861E0,1.628468E0,1.0977712E0],"tree_param":{"num_deleted":"0","num_feature":"8","num_nodes":"15","size_leaf_vector":"1"}},{"base_weights":[3.98683E-2,1.0560768E0,-8.069533E-1,1.1381481E0,6.1772885E-3,-1.5896545E-1,-1.1161082E0,1.222898E0,1.4906245E-2,-3.9440338E-2,2.848517E-1,-8.640136E-3,-1.1984904E0,2.0928882E-2,6.389965E-2,-1.0313608E-2,4.4382345E-2,-6.562458E-2,-1.2468778E-2],"categories":[],"categories_nodes":[],"categories_segments":[],"categories_sizes":[],"default_left":[0,0,0,0,0,0,0,0,0,0,0,0,0,0,0,0,0,0,0],"id":12,"left_children":[1,3,5,7,-1,9,11,13,-1,-1,15,-1,17,-1,-1,-1,-1,-1,-1],"loss_changes":[2.9886946E1,1.0662708E0,3.6229315E0,6.585884E-1,0E0,2.2634892E0,7.7805424E-1,2.9283524E-2,0E0,0E0,1.6672726E0,0E0,9.159527E-1,0E0,0E0,0E0,0E0,0E0,0E0],"parents":[2147483647,0,0,1,1,2,2,3,3,5,5,6,6,7,7,10,10,12,12],"right_children":[2,4,6,8,-1,10,12,14,-1,-1,16,-1,18,-1,-1,-1,-1,-1,-1],"split_conditions":[6.664048E-1,4.19E-1,-1.53E-1,8.83E-1,6.1772885E-3,-1.41E-1,9.325729E-1,2.2911256E-2,1.4906245E-2,-3.9440338E-2,-3.03E-1,-8.640136E-3,4.2908745E0,2.0928882E-2,6.389965E-2,-1.0313608E-2,4.4382345E-2,-6.562458E-2,-1.2468778E-2],"split_indices":[3,7,6,6,0,5,3,0,0,0,6,0,0,0,0,0,0,0,0],"split_type":[0,0,0,0,0,0,0,0,0,0,0,0,0,0,0,0,0,0,0],"sum_hessian":[3.2739853E1,1.4769252E1,1.7970602E1,1.3371908E1,1.3973438E0,6.293544E0,1.1677058E1,1.1732432E1,1.6394758E0,2.2802346E0,4.0133095E0,1.186683E0,1.0490375E1,1.3032933E0,1.0429139E1,2.5739808E0,1.4393284E0,9.023658E0,1.4667174E0],"tree_param":{"num_deleted":"0","num_feature":"8","num_nodes":"19","size_leaf_vector":"1"}},{"base_weights":[2.7230674E-2,9.3305945E-1,-8.34166E-1,1.1312982E0,-5.272033E-2,-1.0329732E0,2.2926487E-2,1.1770626E0,1.6557453E-2,2.9383449E-2,-3.6229428E-2,2.7263865E-2,-6.0618866E-2,6.363501E-2,2.6839778E-2],"categories":[],"categories_nodes":[],"categories_segments":[],"categories_sizes":[],"default_left":[0,0,0,0,0,0,0,0,0,0,0,0,0,0,0],"id":13,"left_children":[1,3,5,7,9,11,-1,13,-1,-1,-1,-1,-1,-1,-1],"loss_changes":[2.591041E1,3.2199106E0,4.852229E0,1.0487938E-1,2.0018842E0,4.92918E0,0E0,7.5279236E-2,0E0,0E0,0E0,0E0,0E0,0E0,0E0],"parents":[2147483647,0,0,1,1,2,2,3,3,4,4,5,5,7,7],"right_children":[2,4,6,8,10,12,-1,14,-1,-1,-1,-1,-1,-1,-1],"split_conditions":[6.574867E-1,1.3120391E0,4.7180924E0,4.08E-1,1.19E-1,1.006039E0,2.2926487E-2,1.2090918E0,1.6557453E-2,2.9383449E-2,-3.6229428E-2,2.7263865E-2,-6.0618866E-2,6.363501E-2,2.6839778E-2],"split_indices":[3,2,0,7,7,2,0,1,0,0,0,0,0,0,0],"split_type":[0,0,0,0,0,0,0,0,0,0,0,0,0,0,0],"sum_hessian":[3.1209148E1,1.5171688E1,1.603746E1,1.2508609E1,2.6630788E0,1.4073911E1,1.9635497E0,1.1386316E1,1.122293E0,1.4276445E0,1.2354343E0,1.2283672E0,1.2845543E1,9.047165E0,2.3391507E0],"tree_param":{"num_deleted":"0","num_feature":"8","num_nodes":"15","size_leaf_vector":"1"}},{"base_weights":[7.314953E-2,8.349205E-1,-9.2687786E-1,1.0854112E0,-1.2639534E-1,-1.1509639E0,3.679918E-2,5.7955235E-2,1.9553272E-2,4.4052455E-1,-4.706838E-2,-5.981361E-1,-6.316309E-2,6.2606256E-3,2.7838925E-2,-4.730206E-2,8.450166E-3],"categories":[],"categories_nodes":[],"categories_segments":[],"categories_sizes":[],"default_left":[0,0,0,0,0,0,0,0,0,0,0,0,0,0,0,0,0],"id":14,"left_children":[1,3,5,7,9,11,-1,-1,-1,13,-1,15,-1,-1,-1,-1,-1],"loss_changes":[2.4010233E1,4.4330034E0,5.9380817E0,2.7619362E-1,2.5322967E0,1.6075134E-2,0E0,0E0,0E0,5.433762E-2,0E0,1.2269013E0,0E0,0E0,0E0,0E0,0E0],"parents":[2147483647,0,0,1,1,2,2,3,3,4,4,5,5,9,9,11,11],"right_children":[2,4,6,8,10,12,-1,-1,-1,14,-1,16,-1,-1,-1,-1,-1],"split_conditions":[9.540151E-1,1.2562759E0,4.7180924E0,1.538053E0,9.5962286E-1,1.4072298E0,3.679918E-2,5.7955235E-2,1.9553272E-2,7.9030377E-1,-4.706838E-2,1.3036577E0,-6.316309E-2,6.2606256E-3,2.7838925E-2,-4.730206E-2,8.450166E-3],"split_indices":[3,2,0,1,1,1,0,0,0,1,0,1,0,0,0,0,0],"split_type":[0,0,0,0,0,0,0,0,0,0,0,0,0,0,0,0,0],"sum_hessian":[2.9502247E1,1.6839703E1,1.2662543E1,1.3256388E1,3.5833147E0,1.1430077E1,1.2324674E0,1.1379312E1,1.8770766E0,2.3842306E0,1.1990839E0,2.9979405E0,8.432136E0,1.201769E0,1.1824616E0,1.9021094E0,1.0958312E0],"tree_param":{"num_deleted":"0","num_feature":"8","num_nodes":"17","size_leaf_vector":"1"}},{"base_weights":[3.4018457E-2,9.7532916E-1,-6.194548E-1,1.0689998E0,5.0097643E-3,3.1037936E-1,-8.13784E-1,6.063163E-1,6.258418E-2,-1.6578188E-2,4.5225717E-2,-9.8558605E-1,9.83047E-3,5.047346E-2,-1.5147368E-2,-2.3052912E-2,-5.9333682E-2],"categories":[],"categories_nodes":[],"categories_segments":[],"categories_sizes":[],"default_left":[0,0,0,0,0,0,0,1,0,0,0,0,0,0,0,0,0],"id":15,"left_children":[1,3,5,7,-1,9,11,13,-1,-1,-1,15,-1,-1,-1,-1,-1],"loss_changes":[1.9856672E1,9.760418E-1,3.7012029E0,2.4120617E-1,0E0,1.8343241E0,2.9819937E0,2.244563E0,0E0,0E0,0E0,9.1839695E-1,0E0,0E0,0E0,0E0,0E0],"parents":[2147483647,0,0,1,1,2,2,3,3,5,5,6,6,7,7,11,11],"right_children":[2,4,6,8,-1,10,12,14,-1,-1,-1,16,-1,-1,-1,-1,-1],"split_conditions":[1.006039E0,3.14E-1,7.688249E-1,3.4887853E-1,5.0097643E-3,0E0,4.7180924E0,5.754937E-1,6.258418E-2,-1.6578188E-2,4.5225717E-2,-3.6541936E-1,9.83047E-3,5.047346E-2,-1.5147368E-2,-2.3052912E-2,-5.9333682E-2],"split_indices":[2,7,0,0,0,5,0,4,0,0,0,4,0,0,0,0,0],"split_type":[0,0,0,0,0,0,0,0,0,0,0,0,0,0,0,0,0],"sum_hessian":[3.0298702E1,1.2213276E1,1.8085426E1,1.0832304E1,1.3809716E0,3.0231164E0,1.506231E1,4.288854E0,6.54345E0,1.665518E0,1.3575983E0,1.2894371E1,2.1679392E0,2.8950365E0,1.3938174E0,4.4859085E0,8.408463E0],"tree_param":{"num_deleted":"0","num_feature":"8","num_nodes":"17","size_leaf_vector":"1"}},{"base_weights":[-8.349605E-2,9.871659E-1,-8.052617E-1,6.0982626E-2,3.0636042E-1,2.2653708E-1,-1.0881476E0,-2.9712955E-2,5.3542625E-2,-2.3920927E-2,4.8760347E-2,-6.118977E-2,-3.3589944E-3],"categories":[],"categories_nodes":[],"categories_segments":[],"categories_sizes":[],"default_left":[0,0,0,0,0,0,0,0,0,0,0,0,0],"id":16,"left_children":[1,3,5,-1,7,9,11,-1,-1,-1,-1,-1,-1],"loss_changes":[2.3314182E1,1.5547495E0,5.4879484E0,0E0,3.691242E0,2.9427168E0,1.8934803E0,0E0,0E0,0E0,0E0,0E0,0E0],"parents":[2147483647,0,0,1,1,2,2,4,4,5,5,6,6],"right_children":[2,4,6,-1,8,10,12,-1,-1,-1,-1,-1,-1],"split_conditions":[9.6130514E-1,5.0145006E-1,1.006039E0,6.0982626E-2,1.15E-1,2.0651534E0,4.7180924E0,-2.9712955E-2,5.3542625E-2,-2.3920927E-2,4.8760347E-2,-6.118977E-2,-3.3589944E-3],"split_indices":[1,3,2,0,5,1,0,0,0,0,0,0,0],"split_type":[0,0,0,0,0,0,0,0,0,0,0,0,0],"sum_hessian":[2.8141068E1,1.1183634E1,1.6957434E1,7.7467356E0,3.4368987E0,3.6916602E0,1.3265773E1,1.6801968E0,1.756702E0,2.087254E0,1.6044059E0,1.15346E1,1.7311726E0],"tree_param":{"num_deleted":"0","num_feature":"8","num_nodes":"13","size_leaf_vector":"1"}},{"base_weights":[-1.1406464E-1,8.638497E-1,-6.897212E-1,1.0613999E0,-2.3497213E-2,-2.272969E-1,-5.8841344E-2,5.8282293E-2,1.961374E-2,-4.211137E-1,3.6449034E-2,2.520432E-2,-3.14907E-2],"categories":[],"categories_nodes":[],"categories_segments":[],"categories_sizes":[],"default_left":[0,0,0,1,0,0,0,0,0,0,0,0,0],"id":17,"left_children":[1,3,5,7,-1,9,-1,-1,-1,11,-1,-1,-1],"loss_changes":[1.724242E1,3.5028667E0,4.0504694E0,2.5682068E-1,0E0,2.3593488E0,0E0,0E0,0E0,2.2176914E0,0E0,0E0,0E0],"parents":[2147483647,0,0,1,1,2,2,3,3,5,5,9,9],"right_children":[2,4,6,8,-1,10,-1,-1,-1,12,-1,-1,-1],"split_conditions":[1.006039E0,3.57E-1,1.5532868E0,5.754937E-1,-2.3497213E-2,3.326913E0,-5.8841344E-2,5.8282293E-2,1.961374E-2,5.5250514E-1,3.6449034E-2,2.520432E-2,-3.14907E-2],"split_indices":[2,7,1,4,0,0,0,0,0,0,0,0,0],"split_type":[0,0,0,0,0,0,0,0,0,0,0,0,0],"sum_hessian":[2.8570684E1,1.0401012E1,1.8169672E1,9.237114E0,1.163898E0,1.0073354E1,8.096318E0,7.349984E0,1.8871303E0,8.841088E0,1.2322654E0,1.3667438E0,7.4743447E0],"tree_param":{"num_deleted":"0","num_feature":"8","num_nodes":"13","size_leaf_vector":"1"}},{"base_weights":[-1.1280257E-1,8.152093E-1,-9.048531E-1,1.0274916E0,-1.6657126E-1,-1.0343966E0,-2.19886E-3,5.397431E-2,1.24299135E-2,4.748781E-3,-1.7375385E-2,-1.5331698E-2,-5.388237E-2],"categories":[],"categories_nodes":[],"categories_segments":[],"categories_sizes":[],"default_left":[0,0,0,0,0,0,0,0,0,0,0,0,0],"id":18,"left_children":[1,3,5,7,9,11,-1,-1,-1,-1,-1,-1,-1],"loss_changes":[2.2667053E1,3.1440268E0,1.802453E0,2.1226692E-1,1.9373474E-1,1.2151337E-1,0E0,0E0,0E0,0E0,0E0,0E0,0E0],"parents":[2147483647,0,0,1,1,2,2,3,3,4,4,5,5],"right_children":[2,4,6,8,10,12,-1,-1,-1,-1,-1,-1,-1],"split_conditions":[6.664048E-1,1.3120391E0,4.7180924E0,5.720672E-1,1.19E-1,-1.697694E0,-2.19886E-3,5.397431E-2,1.24299135E-2,4.748781E-3,-1.7375385E-2,-1.5331698E-2,-5.388237E-2],"split_indices":[3,2,0,3,7,4,0,0,0,0,0,0,0],"split_type":[0,0,0,0,0,0,0,0,0,0,0,0,0],"sum_hessian":[2.8834616E1,1.3264236E1,1.557038E1,1.0867819E1,2.3964179E0,1.3358627E1,2.211753E0,9.825968E0,1.0418508E0,1.1741916E0,1.2222263E0,1.2031637E0,1.2155463E1],"tree_param":{"num_deleted":"0","num_feature":"8","num_nodes":"13","size_leaf_vector":"1"}},{"base_weights":[1.0671765E-1,8.3423096E-1,-4.3168172E-1,9.4363624E-1,4.1929632E-3,3.366315E-2,-6.20808E-1,5.5593807E-2,3.257919E-1,-1.3130239E-2,-1.0472665E0,-1.8101001E-2,4.4582743E-2,-1.6217124E-2,4.6691522E-2,-1.4926068E-2,-5.6086857E-2],"categories":[],"categories_nodes":[],"categories_segments":[],"categories_sizes":[],"default_left":[0,0,0,0,0,0,0,0,0,0,0,0,0,0,0,0,0],"id":19,"left_children":[1,3,5,7,-1,-1,9,-1,11,13,15,-1,-1,-1,-1,-1,-1],"loss_changes":[1.1659459E1,9.5608044E-1,4.0201526E0,7.715864E-1,0E0,0E0,3.9352999E0,0E0,1.7819252E0,2.4532826E0,1.637249E-1,0E0,0E0,0E0,0E0,0E0,0E0],"parents":[2147483647,0,0,1,1,2,2,3,3,6,6,8,8,9,9,10,10],"right_children":[2,4,6,8,-1,-1,10,-1,12,14,16,-1,-1,-1,-1,-1,-1],"split_conditions":[9.6130514E-1,1.5469724E0,2.4136353E-1,2.65E-1,4.1929632E-3,3.366315E-2,-2.4E-2,5.5593807E-2,4.37E-1,-1.08E-1,6.3372225E-1,-1.8101001E-2,4.4582743E-2,-1.6217124E-2,4.6691522E-2,-1.4926068E-2,-5.6086857E-2],"split_indices":[1,0,0,7,0,0,7,0,7,7,0,0,0,0,0,0,0],"split_type":[0,0,0,0,0,0,0,0,0,0,0,0,0,0,0,0,0],"sum_hessian":[2.7847456E1,1.1609981E1,1.6237474E1,9.907844E0,1.7021366E0,1.99896E0,1.4238515E1,7.158869E0,2.7489753E0,6.2967763E0,7.941739E0,1.4033831E0,1.345592E0,5.234112E0,1.0626644E0,1.1715256E0,6.770213E0],"tree_param":{"num_deleted":"0","num_feature":"8","num_nodes":"17","size_leaf_vector":"1"}},{"base_weights":[6.5285906E-2,7.309717E-1,-7.793871E-1,9.744861E-1,8.4367834E-2,-6.0396325E-2,-1.0987483E0,1.1301852E0,6.7573907E-3,-3.351783E-1,4.2982645E-2,-3.678822E-2,3.2063195E-1,-5.8099564E-2,-1.5895491E-2,5.9687715E-2,1.7226575E-2,-4.8375536E-2,1.9184513E-2,-1.5738849E-2,3.546603E-2],"categories":[],"categories_nodes":[],"categories_segments":[],"categories_sizes":[],"default_left":[0,0,0,0,0,0,0,0,0,0,0,0,0,0,0,0,0,0,0,0,0],"id":20,"left_children":[1,3,5,7,9,11,13,15,-1,17,-1,-1,19,-1,-1,-1,-1,-1,-1,-1,-1],"loss_changes":[1.6954618E1,2.5650434E0,2.9938087E0,1.4309235E0,2.140303E0,1.5630244E0,8.343315E-2,9.2453E-2,0E0,2.3778052E0,0E0,0E0,1.209584E0,0E0,0E0,0E0,0E0,0E0,0E0,0E0,0E0],"parents":[2147483647,0,0,1,1,2,2,3,3,4,4,5,5,6,6,7,7,9,9,12,12],"right_children":[2,4,6,8,10,12,14,16,-1,18,-1,-1,20,-1,-1,-1,-1,-1,-1,-1,-1],"split_conditions":[9.008517E-1,5.22241E-1,1.4072298E0,1.2090918E0,3.03E-1,1.3466728E0,8.62E-1,1.134932E0,6.7573907E-3,-4.4506975E-2,4.2982645E-2,-3.678822E-2,-4.7388822E-1,-5.8099564E-2,-1.5895491E-2,5.9687715E-2,1.7226575E-2,-4.8375536E-2,1.9184513E-2,-1.5738849E-2,3.546603E-2],"split_indices":[3,3,1,1,6,0,5,0,0,4,0,0,4,0,0,0,0,0,0,0,0],"split_type":[0,0,0,0,0,0,0,0,0,0,0,0,0,0,0,0,0,0,0,0,0],"sum_hessian":[2.813977E1,1.5812538E1,1.2327232E1,1.1118258E1,4.6942787E0,4.1571617E0,8.170071E0,9.086225E0,2.0320342E0,3.4142992E0,1.2799798E0,1.1636351E0,2.9935265E0,7.106367E0,1.0637034E0,7.9255123E0,1.1607126E0,1.6324664E0,1.7818327E0,1.2083434E0,1.785183E0],"tree_param":{"num_deleted":"0","num_feature":"8","num_nodes":"21","size_leaf_vector":"1"}},{"base_weights":[1.9242117E-2,8.4255266E-1,-5.24861E-1,9.897885E-1,6.390585E-3,-6.981237E-1,3.5693046E-1,5.541543E-2,4.3997142E-1,-5.0222103E-2,-9.7595E-1,-8.39393E-3,3.6342274E-2,3.847427E-2,-6.2970268E-3,-2.697893E-2,3.8350403E-2,-1.7890172E-2,-5.584333E-2],"categories":[],"categories_nodes":[],"categories_segments":[],"categories_sizes":[],"default_left":[0,0,0,0,0,0,0,0,0,0,0,0,0,0,0,0,0,0,0],"id":21,"left_children":[1,3,5,7,-1,9,11,-1,13,15,17,-1,-1,-1,-1,-1,-1,-1,-1],"loss_changes":[1.2458221E1,1.0370908E0,2.8107781E0,1.0016537E-1,0E0,2.534278E0,7.850113E-1,0E0,7.0442873E-1,2.5579412E0,4.705801E-1,0E0,0E0,0E0,0E0,0E0,0E0,0E0,0E0],"parents":[2147483647,0,0,1,1,2,2,3,3,5,5,6,6,8,8,9,9,10,10],"right_children":[2,4,6,8,-1,10,12,-1,14,16,18,-1,-1,-1,-1,-1,-1,-1,-1],"split_conditions":[5.1551366E-1,1.2090918E0,4.7180924E0,2.12E-1,6.390585E-3,1.0062165E0,7E-3,5.541543E-2,1.552453E-1,1.0877247E0,1.4072298E0,-8.39393E-3,3.6342274E-2,3.847427E-2,-6.2970268E-3,-2.697893E-2,3.8350403E-2,-1.7890172E-2,-5.584333E-2],"split_indices":[3,1,0,7,0,3,5,0,3,0,1,0,0,0,0,0,0,0,0],"split_type":[0,0,0,0,0,0,0,0,0,0,0,0,0,0,0,0,0,0,0],"sum_hessian":[2.5823473E1,1.00570755E1,1.5766397E1,8.020119E0,2.0369565E0,1.3351297E1,2.4150996E0,5.7622213E0,2.2578974E0,4.3613143E0,8.989984E0,1.2243083E0,1.1907915E0,1.19965E0,1.0582474E0,2.9403708E0,1.4209435E0,2.3259695E0,6.6640143E0],"tree_param":{"num_deleted":"0","num_feature":"8","num_nodes":"19","size_leaf_vector":"1"}},{"base_weights":[7.60201E-2,7.679414E-1,-7.678561E-1,9.2456686E-1,1.0391293E-1,-9.0396434E-1,1.1840112E-2,5.7359315E-2,3.620319E-1,-2.2021687E-2,2.2823958E-2,-3.493647E-1,-5.2329876E-2,-1.6409801E-2,3.8611885E-2,1.8540747E-2,-4.2485245E-2],"categories":[],"categories_nodes":[],"categories_segments":[],"categories_sizes":[],"default_left":[0,0,0,0,0,0,0,0,0,0,0,0,0,0,0,0,0],"id":22,"left_children":[1,3,5,7,9,11,-1,-1,13,-1,-1,15,-1,-1,-1,-1,-1],"loss_changes":[1.7085152E1,1.5703697E0,2.0228596E0,1.1924324E0,1.004163E0,5.723057E-1,0E0,0E0,1.697777E0,0E0,0E0,1.7300065E0,0E0,0E0,0E0,0E0,0E0],"parents":[2147483647,0,0,1,1,2,2,3,3,4,4,5,5,8,8,11,11],"right_children":[2,4,6,8,10,12,-1,-1,14,-1,-1,16,-1,-1,-1,-1,-1],"split_conditions":[9.008517E-1,1.151828E0,1.415E0,5.0145006E-1,1.3818761E0,1.3154323E0,1.1840112E-2,5.7359315E-2,-9.8E-2,-2.2021687E-2,2.2823958E-2,1.3777041E0,-5.2329876E-2,-1.6409801E-2,3.8611885E-2,1.8540747E-2,-4.2485245E-2],"split_indices":[3,1,5,3,1,2,0,0,6,0,0,1,0,0,0,0,0],"split_type":[0,0,0,0,0,0,0,0,0,0,0,0,0,0,0,0,0],"sum_hessian":[2.7250723E1,1.5022925E1,1.22277975E1,1.1838257E1,3.1846685E0,1.0857132E1,1.3706656E0,7.7370543E0,4.101202E0,1.1538903E0,2.0307784E0,2.9266908E0,7.930441E0,1.6033194E0,2.4978828E0,1.3058913E0,1.6207995E0],"tree_param":{"num_deleted":"0","num_feature":"8","num_nodes":"17","size_leaf_vector":"1"}},{"base_weights":[-8.03601E-3,7.067468E-1,-6.919418E-1,-1.0099517E-3,8.0201113E-1,-8.2918864E-1,7.2760335E-3,9.151944E-1,2.662499E-1,-8.390955E-2,-9.7561806E-1,5.3876795E-2,2.385041E-2,2.6136061E-2,-9.011484E-3,-2.5386775E-2,1.9312646E-2,-5.2280266E-2,-7.7684456E-3],"categories":[],"categories_nodes":[],"categories_segments":[],"categories_sizes":[],"default_left":[0,0,0,0,1,0,0,0,0,0,0,0,0,0,0,0,0,0,0],"id":23,"left_children":[1,3,5,-1,7,9,-1,11,13,15,17,-1,-1,-1,-1,-1,-1,-1,-1],"loss_changes":[1.42263155E1,1.0020242E0,1.8293777E0,0E0,5.2102184E-1,1.3283548E0,0E0,1.9742203E-1,5.0755364E-1,8.369758E-1,4.5215416E-1,0E0,0E0,0E0,0E0,0E0,0E0,0E0,0E0],"parents":[2147483647,0,0,1,1,2,2,4,4,5,5,7,7,8,8,9,9,10,10],"right_children":[2,4,6,-1,8,10,-1,12,14,16,18,-1,-1,-1,-1,-1,-1,-1,-1],"split_conditions":[7.688249E-1,-1.0966954E0,4.7180924E0,-1.0099517E-3,5.754937E-1,9.540151E-1,7.2760335E-3,9.6E-2,-1.86E-1,8.634762E-1,5.77E-1,5.3876795E-2,2.385041E-2,2.6136061E-2,-9.011484E-3,-2.5386775E-2,1.9312646E-2,-5.2280266E-2,-7.7684456E-3],"split_indices":[3,4,0,0,4,3,0,7,5,3,6,0,0,0,0,0,0,0,0],"split_type":[0,0,0,0,0,0,0,0,0,0,0,0,0,0,0,0,0,0,0],"sum_hessian":[2.7101574E1,1.3235313E1,1.3866261E1,1.6247898E0,1.1610523E1,1.1922269E1,1.9439918E0,9.000825E0,2.609699E0,2.2160935E0,9.706175E0,5.502973E0,3.4978516E0,1.5490919E0,1.060607E0,1.1234497E0,1.0926439E0,8.689967E0,1.0162075E0],"tree_param":{"num_deleted":"0","num_feature":"8","num_nodes":"19","size_leaf_vector":"1"}},{"base_weights":[2.5023704E-2,6.1350656E-1,-7.2166914E-1,7.737259E-1,-7.3696226E-3,-9.4505155E-1,1.3617505E-1,8.55523E-1,-3.7306605E-4,-3.1009642E-2,2.1942105E-2,-1.0159793E0,-8.364514E-3,3.6400653E-2,-2.5964225E-2,5.0428428E-2,1.2017026E-2,-1.009566E-2,-5.506436E-2],"categories":[],"categories_nodes":[],"categories_segments":[],"categories_sizes":[],"default_left":[0,0,0,0,0,0,0,1,0,0,0,0,0,0,0,0,0,0,0],"id":24,"left_children":[1,3,5,7,9,11,13,15,-1,-1,-1,17,-1,-1,-1,-1,-1,-1,-1],"loss_changes":[1.2385091E1,1.5714192E0,2.512188E0,8.0642796E-1,1.4258718E0,3.813753E-1,1.7139827E0,8.254976E-1,0E0,0E0,0E0,4.0001297E-1,0E0,0E0,0E0,0E0,0E0,0E0,0E0],"parents":[2147483647,0,0,1,1,2,2,3,3,4,4,5,5,6,6,7,7,11,11],"right_children":[2,4,6,8,10,12,14,16,-1,-1,-1,18,-1,-1,-1,-1,-1,-1,-1],"split_conditions":[8.7152684E-1,1.2562759E0,4.7180924E0,6.664048E-1,1.5020585E0,5.73E-1,5.458226E0,5.754937E-1,-3.7306605E-4,-3.1009642E-2,2.1942105E-2,-1.5625011E0,-8.364514E-3,3.6400653E-2,-2.5964225E-2,5.0428428E-2,1.2017026E-2,-1.009566E-2,-5.506436E-2],"split_indices":[3,2,0,3,2,6,0,4,0,0,0,4,0,0,0,0,0,0,0],"split_type":[0,0,0,0,0,0,0,0,0,0,0,0,0,0,0,0,0,0,0],"sum_hessian":[2.6177763E1,1.4739584E1,1.1438179E1,1.1520494E1,3.2190886E0,8.994385E0,2.4437945E0,1.0342399E1,1.1780962E0,1.1920419E0,2.0270467E0,7.9620047E0,1.0323799E0,1.2260545E0,1.2177399E0,7.7699275E0,2.5724711E0,1.074573E0,6.8874316E0],"tree_param":{"num_deleted":"0","num_feature":"8","num_nodes":"19","size_leaf_vector":"1"}},{"base_weights":[9.6346356E-2,7.775624E-1,-5.4907376E-1,9.2815506E-1,8.449826E-2,1.8350024E-2,-6.993402E-1,9.809042E-1,1.0134978E-2,2.4775133E-2,-1.9169018E-2,-8.083458E-1,6.863913E-5,1.2218453E-2,5.2178193E-2,-1.1011979E-2,-4.5639794E-2],"categories":[],"categories_nodes":[],"categories_segments":[],"categories_sizes":[],"default_left":[0,0,0,0,0,0,0,0,0,0,0,0,0,0,0,0,0],"id":25,"left_children":[1,3,5,7,9,-1,11,13,-1,-1,-1,15,-1,-1,-1,-1,-1],"loss_changes":[1.2191732E1,1.3234739E0,2.2287374E0,2.195921E-1,8.625869E-1,0E0,9.674568E-1,2.033844E-1,0E0,0E0,0E0,4.7160625E-1,0E0,0E0,0E0,0E0,0E0],"parents":[2147483647,0,0,1,1,2,2,3,3,4,4,6,6,7,7,11,11],"right_children":[2,4,6,8,10,-1,12,14,-1,-1,-1,16,-1,-1,-1,-1,-1],"split_conditions":[7.688249E-1,1.3120391E0,1.0111749E0,4.08E-1,1.19E-1,1.8350024E-2,4.7180924E0,2.2911256E-2,1.0134978E-2,2.4775133E-2,-1.9169018E-2,-4.21E-1,6.863913E-5,1.2218453E-2,5.2178193E-2,-1.1011979E-2,-4.5639794E-2],"split_indices":[3,2,2,7,7,0,0,0,0,0,0,6,0,0,0,0,0],"split_type":[0,0,0,0,0,0,0,0,0,0,0,0,0,0,0,0,0],"sum_hessian":[2.5758204E1,1.2431984E1,1.3326219E1,9.934218E0,2.4977655E0,1.6746522E0,1.1651566E1,8.932592E0,1.0016263E0,1.2982695E0,1.199496E0,9.9500885E0,1.7014778E0,1.0845186E0,7.848074E0,1.9694823E0,7.980606E0],"tree_param":{"num_deleted":"0","num_feature":"8","num_nodes":"17","size_leaf_vector":"1"}},{"base_weights":[-2.9868959E-2,8.3352494E-1,-4.903247E-1,9.763359E-1,1.8878744E-4,5.2481107E-2,-4.8949998E-2,5.2214265E-2,1.4486994E-2,-3.7733698E-1,4.6365792E-1,9.759438E-3,-3.7534907E-2,-1.6557124E-2,3.751638E-2],"categories":[],"categories_nodes":[],"categories_segments":[],"categories_sizes":[],"default_left":[0,0,0,0,0,0,0,0,0,0,0,0,0,0,0],"id":26,"left_children":[1,3,5,7,-1,9,-1,-1,-1,11,13,-1,-1,-1,-1],"loss_changes":[1.0209118E1,1.0562301E0,4.483036E0,5.3272247E-2,0E0,1.7415527E0,0E0,0E0,0E0,1.190788E0,1.3829218E0,0E0,0E0,0E0,0E0],"parents":[2147483647,0,0,1,1,2,2,3,3,5,5,9,9,10,10],"right_children":[2,4,6,8,-1,10,-1,-1,-1,12,14,-1,-1,-1,-1],"split_conditions":[5.0145006E-1,1.2090918E0,1.3846849E0,1.3120391E0,1.8878744E-4,1.4700142E0,-4.8949998E-2,5.2214265E-2,1.4486994E-2,9.724296E-1,-6.84E-1,9.759438E-3,-3.7534907E-2,-1.6557124E-2,3.751638E-2],"split_indices":[3,1,2,2,0,0,0,0,0,2,6,0,0,0,0],"split_type":[0,0,0,0,0,0,0,0,0,0,0,0,0,0,0],"sum_hessian":[2.3651756E1,7.944647E0,1.57071085E1,6.6273303E0,1.3173163E0,7.8642926E0,7.842816E0,5.5564704E0,1.0708603E0,3.8852253E0,3.9790676E0,1.7219445E0,2.163281E0,1.0136253E0,2.9654422E0],"tree_param":{"num_deleted":"0","num_feature":"8","num_nodes":"15","size_leaf_vector":"1"}},{"base_weights":[-3.9860163E-2,4.4124827E-1,-8.318942E-1,7.9603505E-1,-1.1757617E-1,1.37832705E-2,-1.0744702E0,9.665858E-1,1.5974647E-1,-3.611919E-1,2.6662905E-2,-5.74072E-2,-1.596695E-2,5.3050894E-2,8.343871E-3,-1.998336E-2,3.6104295E-2,2.0074382E-2,-3.757541E-2],"categories":[],"categories_nodes":[],"categories_segments":[],"categories_sizes":[],"default_left":[0,0,0,1,0,0,0,0,0,0,0,0,0,0,0,0,0,0,0],"id":27,"left_children":[1,3,5,7,9,-1,11,13,15,17,-1,-1,-1,-1,-1,-1,-1,-1,-1],"loss_changes":[1.0106876E1,3.3757749E0,2.9843516E0,9.584141E-1,1.3500555E0,0E0,1.013422E-1,4.1870117E-1,1.3473516E0,2.0604398E0,0E0,0E0,0E0,0E0,0E0,0E0,0E0,0E0,0E0],"parents":[2147483647,0,0,1,1,2,2,3,3,4,4,6,6,7,7,8,8,9,9],"right_children":[2,4,6,8,10,-1,12,14,16,18,-1,-1,-1,-1,-1,-1,-1,-1,-1],"split_conditions":[1.3846849E0,6.664048E-1,8.5105264E-1,5.754937E-1,5.57E-1,1.37832705E-2,7.35E-1,5.43E-1,2.0651534E0,-3.57E-1,2.6662905E-2,-5.74072E-2,-1.596695E-2,5.3050894E-2,8.343871E-3,-1.998336E-2,3.6104295E-2,2.0074382E-2,-3.757541E-2],"split_indices":[2,3,1,4,5,0,5,5,1,7,0,0,0,0,0,0,0,0,0],"split_type":[0,0,0,0,0,0,0,0,0,0,0,0,0,0,0,0,0,0,0],"sum_hessian":[2.4560154E1,1.5554633E1,9.005521E0,9.254591E0,6.300042E0,1.5934942E0,7.4120264E0,6.888972E0,2.3656187E0,4.907961E0,1.3920811E0,6.2789664E0,1.1330597E0,5.869166E0,1.0198059E0,1.3309104E0,1.0347083E0,1.6517717E0,3.2561893E0],"tree_param":{"num_deleted":"0","num_feature":"8","num_nodes":"19","size_leaf_vector":"1"}},{"base_weights":[1.4153339E-1,8.326239E-1,-4.7757587E-1,1.0088803E0,3.3650154E-1,-6.745655E-1,3.9345744E-1,1.742305E-2,5.507958E-2,4.0969025E-2,-1.04474975E-2,-2.4866436E-2,-9.096207E-1,4.0213507E-2,-1.1228266E-2,-2.5942808E-2,2.6226765E-2,-4.9838953E-2,-8.008064E-3],"categories":[],"categories_nodes":[],"categories_segments":[],"categories_sizes":[],"default_left":[0,0,0,0,0,0,0,0,0,0,0,0,0,0,0,0,0,0,0],"id":28,"left_children":[1,3,5,7,9,11,13,-1,-1,-1,-1,15,17,-1,-1,-1,-1,-1,-1],"loss_changes":[1.1015378E1,7.177839E-1,2.6204298E0,1.3173294E-1,1.401206E0,1.7430749E0,9.836974E-1,0E0,0E0,0E0,0E0,1.3848443E0,3.9311886E-1,0E0,0E0,0E0,0E0,0E0,0E0],"parents":[2147483647,0,0,1,1,2,2,3,3,4,4,5,5,6,6,11,11,12,12],"right_children":[2,4,6,8,10,12,14,-1,-1,-1,-1,16,18,-1,-1,-1,-1,-1,-1],"split_conditions":[6.664048E-1,1.24E-1,7.35E-1,1.552453E-1,3.145395E-1,-3.38E-1,1.3846849E0,1.742305E-2,5.507958E-2,4.0969025E-2,-1.04474975E-2,-5.23E-1,2.4255583E0,4.0213507E-2,-1.1228266E-2,-2.5942808E-2,2.6226765E-2,-4.9838953E-2,-8.008064E-3],"split_indices":[3,7,5,2,3,7,2,0,0,0,0,7,2,0,0,0,0,0,0],"split_type":[0,0,0,0,0,0,0,0,0,0,0,0,0,0,0,0,0,0,0],"sum_hessian":[2.3815884E1,1.1090766E1,1.2725117E1,7.4208455E0,3.6699204E0,1.056201E1,2.163107E0,1.4993E0,5.9215455E0,1.6802328E0,1.9896877E0,3.099818E0,7.4621916E0,1.1183535E0,1.0447533E0,1.6614962E0,1.4383218E0,6.389167E0,1.0730247E0],"tree_param":{"num_deleted":"0","num_feature":"8","num_nodes":"19","size_leaf_vector":"1"}},{"base_weights":[5.468327E-2,7.094148E-1,-5.0705487E-1,-9.365563E-3,8.377251E-1,1.4316642E-2,-7.9803556E-1,9.888516E-1,1.364967E-1,-5.989145E-1,4.749341E-1,6.2868645E-4,-4.5322407E-2,5.359906E-2,1.3082272E-2,-8.163276E-3,1.880775E-2,-8.918497E-3,-3.6089577E-2,-2.2315355E-3,4.468518E-2],"categories":[],"categories_nodes":[],"categories_segments":[],"categories_sizes":[],"default_left":[0,0,0,0,1,0,0,0,0,0,0,0,0,0,0,0,0,0,0,0,0],"id":29,"left_children":[1,3,5,-1,7,9,11,13,15,17,19,-1,-1,-1,-1,-1,-1,-1,-1,-1,-1],"loss_changes":[9.934041E0,1.5880122E0,2.2255132E0,0E0,1.0374928E0,2.0385482E0,8.360939E-1,2.600832E-1,2.856841E-1,3.1756878E-2,9.3282574E-1,0E0,0E0,0E0,0E0,0E0,0E0,0E0,0E0,0E0,0E0],"parents":[2147483647,0,0,1,1,2,2,4,4,5,5,6,6,7,7,8,8,9,9,10,10],"right_children":[2,4,6,-1,8,10,12,14,16,18,20,-1,-1,-1,-1,-1,-1,-1,-1,-1,-1],"split_conditions":[6.664048E-1,-1.0966954E0,-1.53E-1,-9.365563E-3,7.7898335E-1,-1.41E-1,1.177384E0,1.0315627E0,3.4887853E-1,-5.21E-1,-3.03E-1,6.2868645E-4,-4.5322407E-2,5.359906E-2,1.3082272E-2,-8.163276E-3,1.880775E-2,-8.918497E-3,-3.6089577E-2,-2.2315355E-3,4.468518E-2],"split_indices":[3,4,6,0,4,5,0,0,0,7,6,0,0,0,0,0,0,0,0,0,0],"split_type":[0,0,0,0,0,0,0,0,0,0,0,0,0,0,0,0,0,0,0,0,0],"sum_hessian":[2.5032217E1,1.1437914E1,1.3594304E1,1.3741964E0,1.0063717E1,5.2099867E0,8.384317E0,7.941928E0,2.1217897E0,2.1059895E0,3.1039972E0,1.0933408E0,7.290977E0,6.70172E0,1.2402074E0,1.0843066E0,1.037483E0,1.0305529E0,1.0754365E0,1.7840104E0,1.3199867E0],"tree_param":{"num_deleted":"0","num_feature":"8","num_nodes":"21","size_leaf_vector":"1"}},{"base_weights":[8.207013E-3,4.154497E-1,-7.6065904E-1,8.772373E-1,-5.6459863E-2,-1.0438253E0,8.292671E-3,5.1418055E-2,1.4179616E-2,4.6390783E-2,-3.11345E-1,-1.3068817E-2,-5.7751197E-2,-2.8372748E-2,2.9644495E-2],"categories":[],"categories_nodes":[],"categories_segments":[],"categories_sizes":[],"default_left":[0,0,0,0,0,0,0,0,0,0,0,0,0,0,0],"id":30,"left_children":[1,3,5,7,9,11,-1,-1,-1,-1,13,-1,-1,-1,-1],"loss_changes":[7.649666E0,3.5271971E0,2.393518E0,4.3739033E-1,2.5046656E0,2.7402687E-1,0E0,0E0,0E0,0E0,2.1345055E0,0E0,0E0,0E0,0E0],"parents":[2147483647,0,0,1,1,2,2,3,3,4,4,5,5,10,10],"right_children":[2,4,6,8,10,12,-1,-1,-1,-1,14,-1,-1,-1,-1],"split_conditions":[1.5532868E0,5.5250514E-1,4.218441E0,8.5105264E-1,-4.21E-1,-2.44E-1,8.292671E-3,5.1418055E-2,1.4179616E-2,4.6390783E-2,4.47E-1,-1.3068817E-2,-5.7751197E-2,-2.8372748E-2,2.9644495E-2],"split_indices":[1,3,1,1,6,7,0,0,0,0,6,0,0,0,0],"split_type":[0,0,0,0,0,0,0,0,0,0,0,0,0,0,0],"sum_hessian":[2.242158E1,1.4958317E1,7.463262E0,7.1261277E0,7.8321896E0,5.6192546E0,1.8440073E0,5.096446E0,2.0296814E0,1.0679634E0,6.764226E0,1.1161315E0,4.5031233E0,5.5614753E0,1.2027508E0],"tree_param":{"num_deleted":"0","num_feature":"8","num_nodes":"15","size_leaf_vector":"1"}},{"base_weights":[5.5878818E-2,5.679434E-1,-5.787799E-1,5.2061267E-2,2.5003886E-1,-5.3283055E-3,-8.64165E-1,5.024368E-1,-3.215088E-1,-2.8271666E-2,4.8214883E-1,-2.8208658E-1,-5.1943954E-2,2.6104052E-3,4.650392E-2,-3.72152E-2,1.8878842E-2,-1.0651827E-2,4.722588E-2,-3.101701E-2,9.456218E-3],"categories":[],"categories_nodes":[],"categories_segments":[],"categories_sizes":[],"default_left":[0,0,0,0,0,0,0,0,0,0,0,0,0,0,0,0,0,0,0,0,0],"id":31,"left_children":[1,3,5,-1,7,9,11,13,15,-1,17,19,-1,-1,-1,-1,-1,-1,-1,-1,-1],"loss_changes":[8.449915E0,1.8965034E0,1.9026542E0,0E0,1.5884224E0,1.6047232E0,4.976802E-1,1.3476163E0,1.3568358E0,0E0,1.2131726E0,6.2222874E-1,0E0,0E0,0E0,0E0,0E0,0E0,0E0,0E0,0E0],"parents":[2147483647,0,0,1,1,2,2,4,4,5,5,6,6,7,7,8,8,10,10,11,11],"right_children":[2,4,6,-1,8,10,12,14,16,-1,18,20,-1,-1,-1,-1,-1,-1,-1,-1,-1],"split_conditions":[9.008517E-1,-1.82E-1,-1.53E-1,5.2061267E-2,1.151828E0,-5.33E-1,-9.9E-2,-4.4506975E-2,2.0651534E0,-2.8271666E-2,-4.37E-1,1.71E-1,-5.1943954E-2,2.6104052E-3,4.650392E-2,-3.72152E-2,1.8878842E-2,-1.0651827E-2,4.722588E-2,-3.101701E-2,9.456218E-3],"split_indices":[3,7,6,0,1,6,7,4,1,0,7,6,0,0,0,0,0,0,0,0,0],"split_type":[0,0,0,0,0,0,0,0,0,0,0,0,0,0,0,0,0,0,0,0,0],"sum_hessian":[2.3989368E1,1.3335193E1,1.0654175E1,4.443956E0,8.891236E0,3.8788016E0,6.7753735E0,6.2514763E0,2.6397603E0,1.7305286E0,2.148273E0,2.1677716E0,4.607602E0,3.5919213E0,2.659555E0,1.604627E0,1.0351332E0,1.0734932E0,1.0747797E0,1.0776858E0,1.0900856E0],"tree_param":{"num_deleted":"0","num_feature":"8","num_nodes":"21","size_leaf_vector":"1"}},{"base_weights":[5.608316E-2,5.193395E-1,-7.530488E-1,9.2630064E-1,8.628005E-2,1.6420534E-2,-9.420281E-1,5.0166626E-2,1.6695738E-2,6.299361E-1,-3.4110996E-1,-1.7330198E-2,-5.40882E-2,1.19051E-3,4.445381E-2,-3.8336422E-2,3.211036E-2],"categories":[],"categories_nodes":[],"categories_segments":[],"categories_sizes":[],"default_left":[0,0,0,0,0,0,0,0,0,0,0,0,0,0,0,0,0],"id":32,"left_children":[1,3,5,7,9,-1,11,-1,-1,13,15,-1,-1,-1,-1,-1,-1],"loss_changes":[9.07307E0,2.6202254E0,2.116263E0,2.0714283E-2,2.1957364E0,0E0,2.7274227E-1,0E0,0E0,6.233758E-1,2.7614758E0,0E0,0E0,0E0,0E0,0E0,0E0],"parents":[2147483647,0,0,1,1,2,2,3,3,4,4,6,6,9,9,10,10],"right_children":[2,4,6,8,10,-1,12,-1,-1,14,16,-1,-1,-1,-1,-1,-1],"split_conditions":[1.3846849E0,1.0611459E0,8.5105264E-1,9.724296E-1,-1.95E-1,1.6420534E-2,-9.6E-2,5.0166626E-2,1.6695738E-2,-4.37E-1,2.0651534E0,-1.7330198E-2,-5.40882E-2,1.19051E-3,4.445381E-2,-3.8336422E-2,3.211036E-2],"split_indices":[2,1,1,2,7,0,7,0,0,7,1,0,0,0,0,0,0],"split_type":[0,0,0,0,0,0,0,0,0,0,0,0,0,0,0,0,0],"sum_hessian":[2.2162111E1,1.4320993E1,7.841118E0,6.7957864E0,7.5252075E0,1.0566256E0,6.784492E0,5.3998885E0,1.3958977E0,3.103511E0,4.421696E0,1.9511081E0,4.833384E0,1.2564857E0,1.8470255E0,3.2396924E0,1.1820037E0],"tree_param":{"num_deleted":"0","num_feature":"8","num_nodes":"17","size_leaf_vector":"1"}},{"base_weights":[8.94273E-2,5.684597E-1,-4.119119E-1,4.785863E-2,6.356772E-3,1.9892406E-1,-7.4988914E-1,-4.4189632E-1,4.362066E-1,-1.1372249E-2,2.8455157E-2,-9.277362E-1,9.584099E-3,-2.0276941E-3,-3.367861E-2,-8.9193685E-3,4.2488422E-2,-5.0906457E-2,-1.0279879E-2],"categories":[],"categories_nodes":[],"categories_segments":[],"categories_sizes":[],"default_left":[0,0,0,0,0,0,0,0,0,0,0,0,0,0,0,0,0,0,0],"id":33,"left_children":[1,3,5,-1,7,9,11,13,15,-1,-1,17,-1,-1,-1,-1,-1,-1,-1],"loss_changes":[5.8348203E0,2.691445E0,2.6213765E0,0E0,1.3592377E0,9.274326E-1,1.5039091E0,2.944259E-1,1.0649934E0,0E0,0E0,2.366476E-1,0E0,0E0,0E0,0E0,0E0,0E0,0E0],"parents":[2147483647,0,0,1,1,2,2,4,4,5,5,6,6,7,7,8,8,11,11],"right_children":[2,4,6,-1,8,10,12,14,16,-1,-1,18,-1,-1,-1,-1,-1,-1,-1],"split_conditions":[1.2278345E0,7.688249E-1,1.1531618E0,4.785863E-2,1.4471998E0,2.0651534E0,7.35E-1,7.544859E-1,1.15E-1,-1.1372249E-2,2.8455157E-2,3.326913E0,9.584099E-3,-2.0276941E-3,-3.367861E-2,-8.9193685E-3,4.2488422E-2,-5.0906457E-2,-1.0279879E-2],"split_indices":[1,0,2,0,0,1,5,1,5,0,0,0,0,0,0,0,0,0,0],"split_type":[0,0,0,0,0,0,0,0,0,0,0,0,0,0,0,0,0,0,0],"sum_hessian":[2.232078E1,1.1345863E1,1.0974917E1,6.2919374E0,5.053926E0,4.055936E0,6.918982E0,2.4602842E0,2.5936418E0,2.064102E0,1.9918337E0,5.8320904E0,1.0868915E0,1.3304801E0,1.129804E0,1.2719917E0,1.3216499E0,4.818998E0,1.0130925E0],"tree_param":{"num_deleted":"0","num_feature":"8","num_nodes":"19","size_leaf_vector":"1"}},{"base_weights":[6.9353975E-2,4.0743613E-1,-6.7324907E-1,6.0581815E-1,-3.6762437E-1,1.6193864E-1,-5.0973352E-2,4.6607584E-2,3.9880887E-1,1.6607922E-2,-3.6367342E-2,2.034316E-2,-8.005253E-3,-1.5074722E-2,2.7843444E-2],"categories":[],"categories_nodes":[],"categories_segments":[],"categories_sizes":[],"default_left":[0,0,0,0,0,0,0,0,0,0,0,0,0,0,0],"id":34,"left_children":[1,3,5,7,9,11,-1,-1,13,-1,-1,-1,-1,-1,-1],"loss_changes":[6.131804E0,2.7835686E0,2.3846292E0,5.495882E-1,1.2526731E0,3.1063533E-1,0E0,0E0,1.285052E0,0E0,0E0,0E0,0E0,0E0,0E0],"parents":[2147483647,0,0,1,1,2,2,3,3,4,4,5,5,8,8],"right_children":[2,4,6,8,10,12,-1,-1,14,-1,-1,-1,-1,-1,-1],"split_conditions":[1.5532868E0,1.8456486E0,1.0902976E0,6.297895E-1,-9.6E-2,2.06E-1,-5.0973352E-2,4.6607584E-2,8.0871373E-1,1.6607922E-2,-3.6367342E-2,2.034316E-2,-8.005253E-3,-1.5074722E-2,2.7843444E-2],"split_indices":[1,2,2,2,7,6,0,0,2,0,0,0,0,0,0],"split_type":[0,0,0,0,0,0,0,0,0,0,0,0,0,0,0],"sum_hessian":[2.2330988E1,1.5655093E1,6.6758957E0,1.2638534E1,3.0165591E0,2.1123936E0,4.5635023E0,3.5458467E0,9.092687E0,1.0501959E0,1.9663631E0,1.050259E0,1.0621346E0,1.5072356E0,7.5854516E0],"tree_param":{"num_deleted":"0","num_feature":"8","num_nodes":"15","size_leaf_vector":"1"}},{"base_weights":[1.5293148E-1,6.027391E-1,-2.9097226E-1,7.9247767E-1,-6.7244787E-3,-5.0635403E-1,3.375202E-2,4.693544E-2,2.6938126E-3,1.7036283E-2,-1.5579964E-2,-8.916754E-2,-8.625277E-1,-2.2565689E-2,3.3211406E-2,-4.7478314E-2,-1.1904664E-2],"categories":[],"categories_nodes":[],"categories_segments":[],"categories_sizes":[],"default_left":[0,0,0,0,0,0,0,0,0,0,0,0,1,0,0,0,0],"id":35,"left_children":[1,3,5,7,9,11,-1,-1,-1,-1,-1,13,15,-1,-1,-1,-1],"loss_changes":[4.722098E0,1.3508873E0,2.866666E0,9.0871906E-1,5.0383276E-1,1.4824266E0,0E0,0E0,0E0,0E0,0E0,1.9227384E0,7.532501E-2,0E0,0E0,0E0,0E0],"parents":[2147483647,0,0,1,1,2,2,3,3,4,4,5,5,11,11,12,12],"right_children":[2,4,6,8,10,12,-1,-1,-1,-1,-1,14,16,-1,-1,-1,-1],"split_conditions":[6.664048E-1,1.2090918E0,4.7180924E0,1.0757087E0,2.4136353E-1,1.5469724E0,3.375202E-2,4.693544E-2,2.6938126E-3,1.7036283E-2,-1.5579964E-2,1.4058567E0,1.14084E0,-2.2565689E-2,3.3211406E-2,-4.7478314E-2,-1.1904664E-2],"split_indices":[3,1,0,0,0,0,0,0,0,0,0,0,4,0,0,0,0],"split_type":[0,0,0,0,0,0,0,0,0,0,0,0,0,0,0,0,0],"sum_hessian":[2.1771015E1,1.0635873E1,1.1135142E1,7.8818145E0,2.7540586E0,9.49416E0,1.640983E0,6.3530803E0,1.5287343E0,1.2321961E0,1.5218625E0,4.9484196E0,4.5457397E0,3.6127732E0,1.3356466E0,3.532649E0,1.0130907E0],"tree_param":{"num_deleted":"0","num_feature":"8","num_nodes":"17","size_leaf_vector":"1"}},{"base_weights":[5.7250727E-2,7.5999653E-1,-3.7401038E-1,-2.0206602E-4,9.014246E-1,4.2527485E-1,-6.1977947E-1,8.3927205E-3,4.976758E-2,3.6936253E-2,7.7208754E-4,-2.9974806E-1,-4.9239688E-2,-2.8636832E-2,1.6305942E-2],"categories":[],"categories_nodes":[],"categories_segments":[],"categories_sizes":[],"default_left":[0,0,0,0,0,0,0,0,0,0,0,0,0,0,0],"id":36,"left_children":[1,3,5,-1,7,9,11,-1,-1,-1,-1,13,-1,-1,-1],"loss_changes":[7.10975E0,9.647708E-1,3.1368515E0,0E0,3.503704E-1,5.066664E-1,1.0591598E0,0E0,0E0,0E0,0E0,1.4878619E0,0E0,0E0,0E0],"parents":[2147483647,0,0,1,1,2,2,4,4,5,5,6,6,11,11],"right_children":[2,4,6,-1,8,10,12,-1,-1,-1,-1,14,-1,-1,-1],"split_conditions":[1.006039E0,-3.02E-1,5.1551366E-1,-2.0206602E-4,2.6204526E-1,1.19E-1,2.445684E-1,8.3927205E-3,4.976758E-2,3.6936253E-2,7.7208754E-4,-1.1206636E-1,-4.9239688E-2,-2.8636832E-2,1.6305942E-2],"split_indices":[2,5,3,0,2,7,4,0,0,0,0,4,0,0,0],"split_type":[0,0,0,0,0,0,0,0,0,0,0,0,0,0,0],"sum_hessian":[2.1521439E1,7.894682E0,1.3626757E1,1.3848304E0,6.509852E0,3.0328856E0,1.0593871E1,1.0552694E0,5.454582E0,1.2637992E0,1.7690864E0,6.6151447E0,3.9787264E0,4.665189E0,1.9499559E0],"tree_param":{"num_deleted":"0","num_feature":"8","num_nodes":"15","size_leaf_vector":"1"}},{"base_weights":[2.0985503E-2,6.765843E-1,-3.4293383E-1,9.191051E-1,-2.2525046E-2,-5.469005E-1,5.989685E-1,9.040972E-3,5.0926007E-2,-4.894726E-2,-7.2088045E-1,3.677517E-2,8.052681E-3,-2.5049925E-2,1.3451937E-2,-5.1930785E-2,-1.1218443E-2],"categories":[],"categories_nodes":[],"categories_segments":[],"categories_sizes":[],"default_left":[0,0,0,0,0,0,0,0,0,0,0,0,0,0,0,0,0],"id":37,"left_children":[1,3,5,7,-1,9,11,-1,-1,13,15,-1,-1,-1,-1,-1,-1],"loss_changes":[5.326088E0,2.58923E0,3.0927954E0,3.2062054E-1,0E0,1.0349982E0,6.326854E-2,0E0,0E0,7.488166E-1,1.199811E0,0E0,0E0,0E0,0E0,0E0,0E0],"parents":[2147483647,0,0,1,1,2,2,3,3,5,5,6,6,9,9,10,10],"right_children":[2,4,6,8,-1,10,12,-1,-1,14,16,-1,-1,-1,-1,-1,-1],"split_conditions":[5.1551366E-1,1.538053E0,7.35E-1,4.4549666E-2,-2.2525046E-2,-3.14E-1,-2.4E-2,9.040972E-3,5.0926007E-2,-8.65E-1,7E-3,3.677517E-2,8.052681E-3,-2.5049925E-2,1.3451937E-2,-5.1930785E-2,-1.1218443E-2],"split_indices":[3,1,5,0,0,7,7,0,0,7,5,0,0,0,0,0,0],"split_type":[0,0,0,0,0,0,0,0,0,0,0,0,0,0,0,0,0],"sum_hessian":[2.0351143E1,6.957708E0,1.3393435E1,5.8775373E0,1.080171E0,1.1354098E1,2.0393364E0,1.0320514E0,4.8454857E0,3.2716238E0,8.082475E0,1.036587E0,1.0027494E0,1.1133463E0,2.1582775E0,4.262759E0,3.8197157E0],"tree_param":{"num_deleted":"0","num_feature":"8","num_nodes":"17","size_leaf_vector":"1"}},{"base_weights":[1.0097281E-1,5.116611E-1,-5.3826064E-1,6.9855386E-1,-1.563451E-2,2.3865135E-2,-7.9806006E-1,4.654097E-2,3.748078E-1,-3.2054283E-2,4.8541373E-1,-4.979193E-2,1.1152753E-2,-1.3990453E-2,4.749467E-2,3.6226574E-2,7.731149E-4],"categories":[],"categories_nodes":[],"categories_segments":[],"categories_sizes":[],"default_left":[0,0,0,0,0,0,0,0,0,0,0,0,0,0,0,0,0],"id":38,"left_children":[1,3,5,7,9,-1,11,-1,13,-1,15,-1,-1,-1,-1,-1,-1],"loss_changes":[5.8371954E0,1.3325794E0,2.6959636E0,3.9733315E-1,1.7175412E0,0E0,1.708756E0,0E0,2.4566278E0,0E0,3.3274168E-1,0E0,0E0,0E0,0E0,0E0,0E0],"parents":[2147483647,0,0,1,1,2,2,3,3,4,4,6,6,8,8,10,10],"right_children":[2,4,6,8,10,-1,12,-1,14,-1,16,-1,-1,-1,-1,-1,-1],"split_conditions":[1.3846849E0,1.4196134E0,8.5105264E-1,7.572638E-1,2.0651534E0,2.3865135E-2,3.9745421E0,4.654097E-2,1.4471998E0,-3.2054283E-2,1.006039E0,-4.979193E-2,1.1152753E-2,-1.3990453E-2,4.749467E-2,3.6226574E-2,7.731149E-4],"split_indices":[2,1,1,0,1,0,0,0,0,0,2,0,0,0,0,0,0],"split_type":[0,0,0,0,0,0,0,0,0,0,0,0,0,0,0,0,0],"sum_hessian":[2.018569E1,1.24113455E1,7.7743454E0,8.923681E0,3.4876642E0,1.4131405E0,6.3612046E0,4.1041117E0,4.8195696E0,1.4269433E0,2.060721E0,5.3497686E0,1.0114363E0,2.4940517E0,2.325518E0,1.0067546E0,1.0539663E0],"tree_param":{"num_deleted":"0","num_feature":"8","num_nodes":"17","size_leaf_vector":"1"}},{"base_weights":[1.2748165E-2,4.8728922E-1,-7.184369E-1,8.041652E-1,5.767359E-2,-1.3812082E-3,-8.1578124E-1,6.1199684E-3,9.003387E-1,4.0954474E-2,-2.3214084E-1,-8.8672364E-1,-1.0635913E-2,9.825974E-3,5.062409E-2,-2.2922358E-2,1.920979E-2,-4.9774647E-2,-1.1294308E-2],"categories":[],"categories_nodes":[],"categories_segments":[],"categories_sizes":[],"default_left":[0,0,0,0,0,0,0,0,0,0,0,0,0,0,0,0,0,0,0],"id":39,"left_children":[1,3,5,7,9,-1,11,-1,13,-1,15,17,-1,-1,-1,-1,-1,-1,-1],"loss_changes":[7.3096066E0,1.6906068E0,5.354953E-1,3.6620808E-1,1.6230423E0,0E0,1.2105179E-1,0E0,2.9119635E-1,0E0,9.408257E-1,2.1796608E-1,0E0,0E0,0E0,0E0,0E0,0E0,0E0],"parents":[2147483647,0,0,1,1,2,2,3,3,4,4,6,6,8,8,10,10,11,11],"right_children":[2,4,6,8,10,-1,12,-1,14,-1,16,18,-1,-1,-1,-1,-1,-1,-1],"split_conditions":[1.3479241E0,9.325729E-1,5.5250514E-1,-4.2509418E-2,-3.6541936E-1,-1.3812082E-3,3.1535168E0,6.1199684E-3,-3.02E-1,4.0954474E-2,1.9863113E0,2.7789848E0,-1.0635913E-2,9.825974E-3,5.062409E-2,-2.2922358E-2,1.920979E-2,-4.9774647E-2,-1.1294308E-2],"split_indices":[2,2,0,4,4,0,0,0,5,0,1,2,0,0,0,0,0,0,0],"split_type":[0,0,0,0,0,0,0,0,0,0,0,0,0,0,0,0,0,0,0],"sum_hessian":[1.9057564E1,1.1759306E1,7.2982583E0,6.2658873E0,5.4934187E0,1.0599569E0,6.2383013E0,1.0555907E0,5.2102966E0,1.011003E0,4.4824157E0,5.160831E0,1.0774705E0,1.0943661E0,4.1159306E0,3.4659595E0,1.0164562E0,3.9966059E0,1.164225E0],"tree_param":{"num_deleted":"0","num_feature":"8","num_nodes":"19","size_leaf_vector":"1"}},{"base_weights":[-3.5488013E-2,4.2203307E-1,-6.007876E-1,4.6615224E-2,1.4238513E-1,-2.0866802E-1,-4.0919468E-2,3.9422825E-1,-2.558518E-2,1.2688163E-2,-2.9784683E-2,-1.2300207E-2,3.3792492E-2],"categories":[],"categories_nodes":[],"categories_segments":[],"categories_sizes":[],"default_left":[0,0,0,0,0,0,0,0,0,0,0,0,0],"id":40,"left_children":[1,3,5,-1,7,9,-1,11,-1,-1,-1,-1,-1],"loss_changes":[5.6461344E0,1.5954392E0,6.6022706E-1,0E0,1.6848806E0,1.0134562E0,0E0,1.4402015E0,0E0,0E0,0E0,0E0,0E0],"parents":[2147483647,0,0,1,1,2,2,4,4,5,5,7,7],"right_children":[2,4,6,-1,8,10,-1,12,-1,-1,-1,-1,-1],"split_conditions":[9.008517E-1,-2.44E-1,1.3846849E0,4.6615224E-2,1.3120391E0,2.445684E-1,-4.0919468E-2,-7.7E-2,-2.558518E-2,1.2688163E-2,-2.9784683E-2,-1.2300207E-2,3.3792492E-2],"split_indices":[3,7,2,0,2,4,0,7,0,0,0,0,0],"split_type":[0,0,0,0,0,0,0,0,0,0,0,0,0],"sum_hessian":[1.9850044E1,1.11109295E1,8.739115E0,3.1072688E0,8.00366E0,3.8180013E0,4.921114E0,6.065539E0,1.9381219E0,1.8964196E0,1.9215815E0,1.8916272E0,4.1739116E0],"tree_param":{"num_deleted":"0","num_feature":"8","num_nodes":"13","size_leaf_vector":"1"}},{"base_weights":[1.9093686E-1,7.220354E-1,-2.632893E-1,4.613306E-2,3.258387E-2,-4.633131E-1,2.790883E-2,1.9707996E-2,-1.6983742E-2,-5.5018812E-2,-7.443658E-1,-2.2500565E-2,3.3584587E-2,-4.7050115E-2,-9.468879E-3],"categories":[],"categories_nodes":[],"categories_segments":[],"categories_sizes":[],"default_left":[0,0,0,0,0,0,0,0,0,0,0,0,0,0,0],"id":41,"left_children":[1,3,5,-1,7,9,-1,-1,-1,11,13,-1,-1,-1,-1],"loss_changes":[5.1661806E0,1.3221917E0,2.2058833E0,0E0,5.7001394E-1,1.115385E0,0E0,0E0,0E0,1.7915242E0,4.644246E-1,0E0,0E0,0E0,0E0],"parents":[2147483647,0,0,1,1,2,2,4,4,5,5,9,9,10,10],"right_children":[2,4,6,-1,8,10,-1,-1,-1,12,14,-1,-1,-1,-1],"split_conditions":[6.664048E-1,1.3120391E0,7.35E-1,4.613306E-2,1.19E-1,-1.53E-1,2.790883E-2,1.9707996E-2,-1.6983742E-2,-3.03E-1,4.03E-1,-2.2500565E-2,3.3584587E-2,-4.7050115E-2,-9.468879E-3],"split_indices":[3,2,5,0,7,6,0,0,0,6,7,0,0,0,0],"split_type":[0,0,0,0,0,0,0,0,0,0,0,0,0,0,0],"sum_hessian":[1.9627176E1,8.77616E0,1.0851016E1,6.53598E0,2.2401805E0,9.076834E0,1.774182E0,1.1065509E0,1.1336297E0,4.1882253E0,4.888609E0,2.9600763E0,1.2281489E0,3.096102E0,1.7925069E0],"tree_param":{"num_deleted":"0","num_feature":"8","num_nodes":"15","size_leaf_vector":"1"}},{"base_weights":[8.361729E-2,5.793811E-1,-3.0115306E-1,8.0859077E-1,-1.8136712E-2,1.6221052E-2,-3.931337E-2,3.9010975E-1,4.8420873E-2,-2.5806892E-1,3.5957213E-2,3.5308823E-2,-1.1290124E-2,1.6287476E-2,-3.3005062E-2],"categories":[],"categories_nodes":[],"categories_segments":[],"categories_sizes":[],"default_left":[0,0,0,0,0,0,0,0,0,0,0,0,0,0,0],"id":42,"left_children":[1,3,5,7,-1,9,-1,11,-1,13,-1,-1,-1,-1,-1],"loss_changes":[4.009642E0,2.2642984E0,1.8568743E0,1.3394499E-1,0E0,1.7705328E0,0E0,8.970739E-1,0E0,1.7756419E0,0E0,0E0,0E0,0E0,0E0],"parents":[2147483647,0,0,1,1,2,2,3,3,5,5,7,7,9,9],"right_children":[2,4,6,8,-1,10,-1,12,-1,14,-1,-1,-1,-1,-1],"split_conditions":[1.0135181E0,3.57E-1,1.5532868E0,1.311033E-1,-1.8136712E-2,1.2663347E0,-3.931337E-2,1.0611459E0,4.8420873E-2,8.5105264E-1,3.5957213E-2,3.5308823E-2,-1.1290124E-2,1.6287476E-2,-3.3005062E-2],"split_indices":[2,7,1,3,0,3,0,1,0,1,0,0,0,0,0],"split_type":[0,0,0,0,0,0,0,0,0,0,0,0,0,0,0],"sum_hessian":[1.9105137E1,8.12743E0,1.0977708E1,6.6510158E0,1.4764144E0,7.2204604E0,3.757247E0,2.789079E0,3.8619366E0,5.6490064E0,1.5714542E0,1.7463523E0,1.0427265E0,2.381056E0,3.2679503E0],"tree_param":{"num_deleted":"0","num_feature":"8","num_nodes":"15","size_leaf_vector":"1"}},{"base_weights":[-7.862242E-2,3.3261156E-1,-7.097499E-1,6.704625E-1,6.673189E-3,-1.4368555E-1,-4.8994895E-2,4.4608857E-2,-5.8680275E-3,-2.5872242E-1,2.666522E-2,2.1629011E-2,-3.3785667E-2,1.899766E-2,-3.6103718E-2],"categories":[],"categories_nodes":[],"categories_segments":[],"categories_sizes":[],"default_left":[0,0,0,0,0,0,0,0,0,0,0,0,0,0,0],"id":43,"left_children":[1,3,5,7,9,11,-1,-1,-1,13,-1,-1,-1,-1,-1],"loss_changes":[5.1842747E0,1.341668E0,1.0582156E0,1.1514266E0,1.1487606E0,1.4281728E0,0E0,0E0,0E0,1.8966517E0,0E0,0E0,0E0,0E0,0E0],"parents":[2147483647,0,0,1,1,2,2,3,3,4,4,5,5,9,9],"right_children":[2,4,6,8,10,12,-1,-1,-1,14,-1,-1,-1,-1,-1],"split_conditions":[1.3846849E0,5.720672E-1,1.270281E0,1.2090918E0,3.11E-1,1.19E-1,-4.8994895E-2,4.4608857E-2,-5.8680275E-3,-3.24E-1,2.666522E-2,2.1629011E-2,-3.3785667E-2,1.899766E-2,-3.6103718E-2],"split_indices":[2,3,1,1,6,7,0,0,0,7,0,0,0,0,0],"split_type":[0,0,0,0,0,0,0,0,0,0,0,0,0,0,0],"sum_hessian":[1.8065207E1,1.1224479E1,6.8407273E0,4.992494E0,6.231984E0,2.704866E0,4.1358614E0,3.7926745E0,1.1998196E0,4.4820023E0,1.749982E0,1.3881804E0,1.3166856E0,1.9601533E0,2.521849E0],"tree_param":{"num_deleted":"0","num_feature":"8","num_nodes":"15","size_leaf_vector":"1"}},{"base_weights":[-2.6256116E-2,4.2583463E-1,-4.775163E-1,6.2489754E-1,-1.5658272E-2,4.1243847E-2,-6.721131E-1,8.155509E-1,1.7217757E-1,3.60928E-2,-2.6072705E-2,-8.101291E-1,2.5591725E-3,6.964063E-3,4.6839487E-2,-2.0181224E-2,3.3615857E-2,-4.644994E-2,-5.9713493E-3],"categories":[],"categories_nodes":[],"categories_segments":[],"categories_sizes":[],"default_left":[0,0,0,0,0,0,0,0,0,0,0,0,0,0,0,0,0,0,0],"id":44,"left_children":[1,3,5,7,-1,9,11,13,15,-1,-1,17,-1,-1,-1,-1,-1,-1,-1],"loss_changes":[4.0646586E0,1.6643325E0,1.0315194E0,5.672333E-1,0E0,1.7760903E0,7.6909137E-1,3.205955E-1,1.3360817E0,0E0,0E0,3.9648247E-1,0E0,0E0,0E0,0E0,0E0,0E0,0E0],"parents":[2147483647,0,0,1,1,2,2,3,3,5,5,6,6,7,7,8,8,11,11],"right_children":[2,4,6,8,-1,10,12,14,16,-1,-1,18,-1,-1,-1,-1,-1,-1,-1],"split_conditions":[1.1531618E0,3.57E-1,7.688249E-1,8.885317E-1,-1.5658272E-2,0E0,4.019492E0,4.4549666E-2,1.6247238E0,3.60928E-2,-2.6072705E-2,2.7210462E0,2.5591725E-3,6.964063E-3,4.6839487E-2,-2.0181224E-2,3.3615857E-2,-4.644994E-2,-5.9713493E-3],"split_indices":[2,7,3,2,0,7,0,0,0,0,0,2,0,0,0,0,0,0,0],"split_type":[0,0,0,0,0,0,0,0,0,0,0,0,0,0,0,0,0,0,0],"sum_hessian":[1.792704E1,8.983424E0,8.943616E0,7.1987214E0,1.7847031E0,2.654705E0,6.288911E0,4.501545E0,2.6971767E0,1.0734563E0,1.5812488E0,5.180367E0,1.1085439E0,1.0110015E0,3.4905434E0,1.3434557E0,1.3537209E0,4.125383E0,1.054984E0],"tree_param":{"num_deleted":"0","num_feature":"8","num_nodes":"19","size_leaf_vector":"1"}},{"base_weights":[4.3716993E-2,3.31014E-1,-4.839326E-1,4.1064385E-2,1.0636953E-1,-6.32761E-1,9.370376E-3,3.6261816E-2,-1.0873419E-1,-2.265093E-1,-4.1393973E-2,2.286659E-2,-1.6908279E-2,-3.190177E-2,1.6659413E-2],"categories":[],"categories_nodes":[],"categories_segments":[],"categories_sizes":[],"default_left":[0,0,0,0,0,0,0,0,0,0,0,0,0,0,0],"id":45,"left_children":[1,3,5,-1,7,9,-1,-1,11,13,-1,-1,-1,-1,-1],"loss_changes":[2.9610453E0,1.2955855E0,8.0996287E-1,0E0,1.3780843E0,2.7956343E-1,0E0,0E0,1.2081964E0,9.7003365E-1,0E0,0E0,0E0,0E0,0E0],"parents":[2147483647,0,0,1,1,2,2,4,4,5,5,8,8,9,9],"right_children":[2,4,6,-1,8,10,-1,-1,12,14,-1,-1,-1,-1,-1],"split_conditions":[1.0111749E0,-2.44E-1,4.2908745E0,4.1064385E-2,-3.82E-1,1.535819E0,9.370376E-3,3.6261816E-2,2.4136353E-1,1.3466728E0,-4.1393973E-2,2.286659E-2,-1.6908279E-2,-3.190177E-2,1.6659413E-2],"split_indices":[3,7,0,0,6,0,0,0,0,0,0,0,0,0,0],"split_type":[0,0,0,0,0,0,0,0,0,0,0,0,0,0,0],"sum_hessian":[1.7476267E1,1.1556561E1,5.919705E0,2.7967877E0,8.759773E0,4.8925486E0,1.0271562E0,1.6476932E0,7.1120806E0,2.2885308E0,2.604018E0,1.7647249E0,5.347356E0,1.2381774E0,1.0503533E0],"tree_param":{"num_deleted":"0","num_feature":"8","num_nodes":"15","size_leaf_vector":"1"}},{"base_weights":[1.6194187E-2,3.7345484E-1,-5.6995285E-1,4.8976552E-1,-9.508833E-3,1.8597635E-2,-7.89986E-1,7.466103E-1,7.321006E-2,-4.851829E-2,-3.1151405E-1,1.1479716E-2,4.1115485E-2,-9.33125E-3,2.3867248E-2,1.2839E-2,-3.408308E-2],"categories":[],"categories_nodes":[],"categories_segments":[],"categories_sizes":[],"default_left":[0,0,0,0,0,0,0,0,0,0,0,0,0,0,0,0,0],"id":46,"left_children":[1,3,5,7,-1,-1,9,11,13,-1,15,-1,-1,-1,-1,-1,-1],"loss_changes":[4.286543E0,9.2509997E-1,1.9026632E0,1.1007853E0,0E0,0E0,2.684474E-1,6.840515E-2,6.3804996E-1,0E0,8.6568046E-1,0E0,0E0,0E0,0E0,0E0,0E0],"parents":[2147483647,0,0,1,1,2,2,3,3,6,6,7,7,8,8,10,10],"right_children":[2,4,6,8,-1,-1,10,12,14,-1,16,-1,-1,-1,-1,-1,-1],"split_conditions":[1.3479241E0,3.14E-1,8.177131E-1,1.006039E0,-9.508833E-3,1.8597635E-2,1.17E-1,-3.02E-1,1.2833331E0,-4.851829E-2,1.8456486E0,1.1479716E-2,4.1115485E-2,-9.33125E-3,2.3867248E-2,1.2839E-2,-3.408308E-2],"split_indices":[2,7,1,2,0,0,5,5,2,0,2,0,0,0,0,0,0],"split_type":[0,0,0,0,0,0,0,0,0,0,0,0,0,0,0,0,0],"sum_hessian":[1.8453436E1,1.1690724E1,6.7627125E0,9.799548E0,1.8911757E0,1.14989E0,5.6128225E0,5.571725E0,4.2278233E0,3.3295572E0,2.283265E0,1.2266763E0,4.3450484E0,2.9009159E0,1.3269076E0,1.0213873E0,1.2618778E0],"tree_param":{"num_deleted":"0","num_feature":"8","num_nodes":"17","size_leaf_vector":"1"}},{"base_weights":[1.6461588E-2,4.3512076E-1,-5.012241E-1,6.422762E-1,-7.7711E-2,-4.744027E-2,-1.0717768E-1,8.224499E-1,1.11576684E-1,-2.673927E-2,3.2637596E-2,4.367161E-1,-3.2190464E-2,4.5943603E-2,1.3888872E-2,-2.7554696E-2,3.4837227E-2,-1.0358761E-2,4.074051E-2],"categories":[],"categories_nodes":[],"categories_segments":[],"categories_sizes":[],"default_left":[0,0,0,0,0,0,0,0,0,0,0,0,0,0,0,0,0,0,0],"id":47,"left_children":[1,3,5,7,9,-1,11,13,15,-1,-1,17,-1,-1,-1,-1,-1,-1,-1],"loss_changes":[4.346073E0,1.2254767E0,1.4822156E0,6.7219687E-1,1.7099185E0,0E0,2.004168E0,4.97725E-2,1.6178625E0,0E0,0E0,1.0276208E0,0E0,0E0,0E0,0E0,0E0,0E0,0E0],"parents":[2147483647,0,0,1,1,2,2,3,3,4,4,6,6,7,7,8,8,11,11],"right_children":[2,4,6,8,10,-1,12,14,16,-1,-1,18,-1,-1,-1,-1,-1,-1,-1],"split_conditions":[9.008517E-1,1.2090918E0,-2.2E-2,5.5250514E-1,2.148247E0,-4.744027E-2,1.5532868E0,9.6E-2,7.0525515E-1,-2.673927E-2,3.2637596E-2,1.2663347E0,-3.2190464E-2,4.5943603E-2,1.3888872E-2,-2.7554696E-2,3.4837227E-2,-1.0358761E-2,4.074051E-2],"split_indices":[3,1,5,3,4,0,1,6,1,0,0,3,0,0,0,0,0,0,0],"split_type":[0,0,0,0,0,0,0,0,0,0,0,0,0,0,0,0,0,0,0],"sum_hessian":[1.804631E1,1.0065609E1,7.9807014E0,6.9897346E0,3.0758746E0,3.077379E0,4.903322E0,4.807747E0,2.1819878E0,2.056769E0,1.0191057E0,2.527653E0,2.3756695E0,3.5009618E0,1.3067851E0,1.050539E0,1.1314486E0,1.1023734E0,1.4252796E0],"tree_param":{"num_deleted":"0","num_feature":"8","num_nodes":"19","size_leaf_vector":"1"}},{"base_weights":[4.167388E-2,3.395527E-1,-5.6907827E-1,7.999377E-1,2.1073114E-2,-9.042083E-1,1.0679365E-2,4.4270918E-2,1.12770535E-2,-4.1325808E-1,3.2306597E-1,-1.0929699E-2,-5.169886E-2,-4.3422242E-5,-3.890425E-2,-1.627814E-2,2.8917653E-2],"categories":[],"categories_nodes":[],"categories_segments":[],"categories_sizes":[],"default_left":[0,0,1,0,0,0,0,0,0,0,0,0,0,0,0,0,0],"id":48,"left_children":[1,3,5,7,9,11,-1,-1,-1,13,15,-1,-1,-1,-1,-1,-1],"loss_changes":[3.6247616E0,1.9339046E0,1.9130485E0,6.608987E-2,1.299745E0,1.9947124E-1,0E0,0E0,0E0,6.139797E-1,1.1496764E0,0E0,0E0,0E0,0E0,0E0,0E0],"parents":[2147483647,0,0,1,1,2,2,3,3,4,4,5,5,9,9,10,10],"right_children":[2,4,6,8,10,12,-1,-1,-1,14,16,-1,-1,-1,-1,-1,-1],"split_conditions":[1.5532868E0,5.0145006E-1,2.148247E0,1.226757E0,8.5471284E-1,-1.19E-1,1.0679365E-2,4.4270918E-2,1.12770535E-2,6.3372225E-1,-1.41E-1,-1.0929699E-2,-5.169886E-2,-4.3422242E-5,-3.890425E-2,-1.627814E-2,2.8917653E-2],"split_indices":[1,3,4,2,3,7,0,0,0,3,5,0,0,0,0,0,0],"split_type":[0,0,0,0,0,0,0,0,0,0,0,0,0,0,0,0,0],"sum_hessian":[1.7861797E1,1.2304589E1,5.5572085E0,4.413222E0,7.8913674E0,3.782349E0,1.7748595E0,3.3701997E0,1.0430223E0,3.0854232E0,4.8059444E0,1.029202E0,2.7531471E0,1.9188228E0,1.1666005E0,1.2795657E0,3.5263786E0],"tree_param":{"num_deleted":"0","num_feature":"8","num_nodes":"17","size_leaf_vector":"1"}},{"base_weights":[2.5473999E-2,3.5068077E-1,-4.7569177E-1,6.466517E-1,7.552628E-2,-2.1529846E-2,-7.66811E-1,-5.6711603E-3,4.3476667E-2,-3.6046173E-2,4.0622905E-1,-2.1510972E-2,2.0784942E-2,-1.1468803E-2,-4.2768016E-2,3.6720376E-2,-7.0726373E-3],"categories":[],"categories_nodes":[],"categories_segments":[],"categories_sizes":[],"default_left":[0,0,0,0,0,0,0,0,0,0,0,0,0,0,0,0,0],"id":49,"left_children":[1,3,5,7,9,11,13,-1,-1,-1,15,-1,-1,-1,-1,-1,-1],"loss_changes":[3.2861931E0,9.433143E-1,1.0354444E0,1.0705495E0,2.2539823E0,9.180459E-1,3.3162355E-2,0E0,0E0,0E0,1.1644765E0,0E0,0E0,0E0,0E0,0E0,0E0],"parents":[2147483647,0,0,1,1,2,2,3,3,4,4,5,5,6,6,10,10],"right_children":[2,4,6,8,10,12,14,-1,-1,-1,16,-1,-1,-1,-1,-1,-1],"split_conditions":[1.0111749E0,-2.5E-2,1.5255711E0,-3.46E-1,7E-3,1.2663347E0,1.1884661E0,-5.6711603E-3,4.3476667E-2,-3.6046173E-2,1.45E-1,-2.1510972E-2,2.0784942E-2,-1.1468803E-2,-4.2768016E-2,3.6720376E-2,-7.0726373E-3],"split_indices":[3,5,1,6,5,3,3,0,0,0,6,0,0,0,0,0,0],"split_type":[0,0,0,0,0,0,0,0,0,0,0,0,0,0,0,0,0],"sum_hessian":[1.813934E1,1.1182972E1,6.9563675E0,4.7372212E0,6.44575E0,3.1367784E0,3.8195891E0,1.1855032E0,3.5517182E0,1.5449612E0,4.9007893E0,1.6295885E0,1.5071898E0,1.0481849E0,2.7714043E0,2.8513076E0,2.0494814E0],"tree_param":{"num_deleted":"0","num_feature":"8","num_nodes":"17","size_leaf_vector":"1"}},{"base_weights":[-1.0035309E-1,2.1744028E-1,-5.680924E-1,4.0571693E-2,-3.4014955E-2,-7.9262054E-1,1.3250607E-2,3.1452972E-2,-2.9749858E-1,-6.121412E-3,-4.527317E-2,-2.943091E-2,7.556844E-3],"categories":[],"categories_nodes":[],"categories_segments":[],"categories_sizes":[],"default_left":[0,0,0,0,0,0,0,0,0,0,0,0,0],"id":50,"left_children":[1,3,5,-1,7,9,-1,-1,11,-1,-1,-1,-1],"loss_changes":[2.7784822E0,1.7241318E0,1.6134679E0,0E0,1.7490393E0,3.5503936E-1,0E0,0E0,1.0132182E0,0E0,0E0,0E0,0E0],"parents":[2147483647,0,0,1,1,2,2,4,4,5,5,8,8],"right_children":[2,4,6,-1,8,10,-1,-1,12,-1,-1,-1,-1],"split_conditions":[1.0062165E0,-4.21E-1,4.7180924E0,4.0571693E-2,-1.82E-1,-1.1679087E0,1.3250607E-2,3.1452972E-2,3.03E-1,-6.121412E-3,-4.527317E-2,-2.943091E-2,7.556844E-3],"split_indices":[3,6,0,0,7,4,0,0,6,0,0,0,0],"split_type":[0,0,0,0,0,0,0,0,0,0,0,0,0],"sum_hessian":[1.6861118E1,1.0358458E1,6.5026608E0,2.4184904E0,7.939967E0,5.1604686E0,1.342192E0,1.8633217E0,6.076646E0,1.0441332E0,4.1163354E0,3.496044E0,2.5806017E0],"tree_param":{"num_deleted":"0","num_feature":"8","num_nodes":"13","size_leaf_vector":"1"}},{"base_weights":[8.3710216E-2,6.173296E-1,-2.4011827E-1,4.0158343E-2,9.2698425E-2,2.2654057E-2,-7.1679354E-1,9.856495E-3,-2.9710247E-3,-4.2340636E-1,4.07866E-1,-4.818801E-2,-1.8537941E-3,-2.456187E-3,-3.673718E-2,-1.210432E-3,3.0269433E-2],"categories":[],"categories_nodes":[],"categories_segments":[],"categories_sizes":[],"default_left":[0,1,0,0,0,0,1,0,0,0,0,0,0,0,0,0,0],"id":51,"left_children":[1,3,5,-1,7,9,11,-1,-1,13,15,-1,-1,-1,-1,-1,-1],"loss_changes":[3.378752E0,6.4121675E-1,1.5637281E0,0E0,6.017427E-2,1.7077234E0,7.064059E-1,0E0,0E0,5.034852E-1,4.6724463E-1,0E0,0E0,0E0,0E0,0E0,0E0],"parents":[2147483647,0,0,1,1,2,2,4,4,5,5,6,6,9,9,10,10],"right_children":[2,4,6,-1,8,10,12,-1,-1,14,16,-1,-1,-1,-1,-1,-1],"split_conditions":[5.22241E-1,5.754937E-1,2.44E-1,4.0158343E-2,5.0675906E-2,-1.3E-2,4.835884E-2,9.856495E-3,-2.9710247E-3,1.139109E0,1.4058567E0,-4.818801E-2,-1.8537941E-3,-2.456187E-3,-3.673718E-2,-1.210432E-3,3.0269433E-2],"split_indices":[3,4,7,0,3,5,4,0,0,3,0,0,0,0,0,0,0],"split_type":[0,0,0,0,0,0,0,0,0,0,0,0,0,0,0,0,0],"sum_hessian":[1.7695013E1,6.3405E0,1.1354512E1,4.2899704E0,2.0505297E0,7.9335394E0,3.4209733E0,1.0403937E0,1.010136E0,3.6304584E0,4.303081E0,2.2027497E0,1.2182236E0,2.1743212E0,1.4561371E0,1.6252769E0,2.677804E0],"tree_param":{"num_deleted":"0","num_feature":"8","num_nodes":"17","size_leaf_vector":"1"}},{"base_weights":[3.1936083E-2,4.3675062E-1,-3.3789778E-1,-8.886201E-3,6.0056716E-1,2.2267973E-2,-4.4239063E-2,4.675691E-2,2.0395152E-1,-2.871275E-1,2.9843519E-2,-1.04826465E-2,2.6763847E-2,3.0470425E-3,-2.7208898E-2],"categories":[],"categories_nodes":[],"categories_segments":[],"categories_sizes":[],"default_left":[0,0,0,0,0,0,0,0,0,0,0,0,0,0,0],"id":52,"left_children":[1,3,5,-1,7,9,-1,-1,11,13,-1,-1,-1,-1,-1],"loss_changes":[2.653165E0,9.549291E-1,1.8533987E0,0E0,7.223613E-1,1.3426663E0,0E0,0E0,7.189561E-1,4.7673428E-1,0E0,0E0,0E0,0E0,0E0],"parents":[2147483647,0,0,1,1,2,2,4,4,5,5,8,8,9,9],"right_children":[2,4,6,-1,8,10,-1,-1,12,14,-1,-1,-1,-1,-1],"split_conditions":[1.1531618E0,-4.4506975E-2,3.3982404E-2,-8.886201E-3,5.30742E-1,1.15E-1,-4.4239063E-2,4.675691E-2,1.1E-2,-4.9596715E-1,2.9843519E-2,-1.04826465E-2,2.6763847E-2,3.0470425E-3,-2.7208898E-2],"split_indices":[2,4,4,0,4,5,0,0,6,4,0,0,0,0,0],"split_type":[0,0,0,0,0,0,0,0,0,0,0,0,0,0,0],"sum_hessian":[1.5735818E1,7.4262357E0,8.309583E0,1.5452223E0,5.881014E0,5.5884385E0,2.721144E0,2.4535177E0,3.427496E0,3.9577074E0,1.6307309E0,1.6877952E0,1.7397008E0,2.0052924E0,1.952415E0],"tree_param":{"num_deleted":"0","num_feature":"8","num_nodes":"15","size_leaf_vector":"1"}},{"base_weights":[-1.062818E-2,4.8632923E-1,-3.2958317E-1,4.031713E-2,1.4326003E-1,-4.7595218E-1,1.3265977E-2,2.3657525E-2,-1.8500972E-1,-6.807197E-1,2.1156752E-2,8.456551E-3,-2.211795E-2,6.8366355E-3,-4.409587E-2],"categories":[],"categories_nodes":[],"categories_segments":[],"categories_sizes":[],"default_left":[0,0,0,0,0,0,0,0,0,0,0,0,0,0,0],"id":53,"left_children":[1,3,5,-1,7,9,-1,-1,11,13,-1,-1,-1,-1,-1],"loss_changes":[2.893762E0,6.689514E-1,1.0927942E0,0E0,5.9267247E-1,1.9939349E0,0E0,0E0,3.5341603E-1,1.4249012E0,0E0,0E0,0E0,0E0,0E0],"parents":[2147483647,0,0,1,1,2,2,4,4,5,5,8,8,9,9],"right_children":[2,4,6,-1,8,10,-1,-1,12,14,-1,-1,-1,-1,-1],"split_conditions":[5.720672E-1,6.881441E-1,4.7180924E0,4.031713E-2,8.5105264E-1,4.47E-1,1.3265977E-2,2.3657525E-2,2.0098606E-1,-5.19E-1,2.1156752E-2,8.456551E-3,-2.211795E-2,6.8366355E-3,-4.409587E-2],"split_indices":[3,2,0,0,1,6,0,0,0,6,0,0,0,0,0],"split_type":[0,0,0,0,0,0,0,0,0,0,0,0,0,0,0],"sum_hessian":[1.624514E1,6.145383E0,1.0099756E1,2.4808648E0,3.6645184E0,8.265961E0,1.8337955E0,1.6076174E0,2.056901E0,6.93043E0,1.3355311E0,1.0099269E0,1.0469741E0,1.4321424E0,5.498287E0],"tree_param":{"num_deleted":"0","num_feature":"8","num_nodes":"15","size_leaf_vector":"1"}},{"base_weights":[7.4046545E-2,3.295605E-1,-4.2093244E-1,4.5209506E-1,-1.2260313E-2,-5.82993E-1,1.1317944E-2,9.909234E-2,6.0880643E-1,7.7147745E-3,-4.2548392E-2,2.604492E-2,-3.0260433E-2,4.2856313E-2,7.3782764E-3],"categories":[],"categories_nodes":[],"categories_segments":[],"categories_sizes":[],"default_left":[0,0,0,0,0,0,0,0,0,0,0,0,0,0,0],"id":54,"left_children":[1,3,5,7,-1,9,-1,11,13,-1,-1,-1,-1,-1,-1],"loss_changes":[2.3901997E0,9.77265E-1,8.138164E-1,5.200722E-1,0E0,1.2136425E0,0E0,1.6283687E0,6.834743E-1,0E0,0E0,0E0,0E0,0E0,0E0],"parents":[2147483647,0,0,1,1,2,2,3,3,5,5,7,7,8,8],"right_children":[2,4,6,8,-1,10,-1,12,14,-1,-1,-1,-1,-1,-1],"split_conditions":[1.3846849E0,3.15E-1,3.8313496E0,-3.03E-1,-1.2260313E-2,5.7948035E-1,1.1317944E-2,-4.21E-1,-8E-2,7.7147745E-3,-4.2548392E-2,2.604492E-2,-3.0260433E-2,4.2856313E-2,7.3782764E-3],"split_indices":[2,7,0,6,0,3,0,6,7,0,0,0,0,0,0],"split_type":[0,0,0,0,0,0,0,0,0,0,0,0,0,0,0],"sum_hessian":[1.680189E1,1.1301907E1,5.4999833E0,9.491781E0,1.8101249E0,4.4781384E0,1.0218447E0,3.420101E0,6.0716805E0,1.3068297E0,3.171309E0,2.3018975E0,1.1182035E0,3.3888881E0,2.6827922E0],"tree_param":{"num_deleted":"0","num_feature":"8","num_nodes":"15","size_leaf_vector":"1"}},{"base_weights":[8.970812E-2,3.602842E-1,-3.5793993E-1,5.9261197E-1,8.284329E-3,-4.0445294E-2,2.0317735E-2,7.204132E-1,1.0064335E-2,-2.5502851E-2,2.7472782E-1,4.2171818E-1,-3.2936856E-2,5.9764064E-3,4.2896766E-2,3.0454716E-2,-7.821674E-3,3.5280086E-2,-1.260754E-3],"categories":[],"categories_nodes":[],"categories_segments":[],"categories_sizes":[],"default_left":[0,0,0,0,0,0,0,0,0,0,0,0,0,0,0,0,0,0,0],"id":55,"left_children":[1,3,5,7,9,-1,11,13,-1,-1,15,17,-1,-1,-1,-1,-1,-1,-1],"loss_changes":[2.231003E0,9.2042434E-1,1.2172649E0,1.9517088E-1,9.0152085E-1,0E0,1.5872254E0,2.8911805E-1,0E0,0E0,7.139287E-1,4.78217E-1,0E0,0E0,0E0,0E0,0E0,0E0,0E0],"parents":[2147483647,0,0,1,1,2,2,3,3,4,4,6,6,7,7,10,10,11,11],"right_children":[2,4,6,8,10,-1,12,14,-1,-1,16,18,-1,-1,-1,-1,-1,-1,-1],"split_conditions":[1.3846849E0,6.664048E-1,0E0,1.41E-1,8.634762E-1,-4.0445294E-2,2.63E-1,-3.23E-1,1.0064335E-2,-2.5502851E-2,-1.53E-1,1.927054E0,-3.2936856E-2,5.9764064E-3,4.2896766E-2,3.0454716E-2,-7.821674E-3,3.5280086E-2,-1.260754E-3],"split_indices":[2,3,5,5,3,0,6,6,0,0,6,2,0,0,0,0,0,0,0],"split_type":[0,0,0,0,0,0,0,0,0,0,0,0,0,0,0,0,0,0,0],"sum_hessian":[1.6354635E1,1.0315003E1,6.039632E0,5.8019977E0,4.5130053E0,2.2356923E0,3.8039398E0,3.739706E0,2.0622916E0,1.2217965E0,3.2912087E0,2.6289105E0,1.1750292E0,1.044603E0,2.6951032E0,1.6212461E0,1.6699628E0,1.2537742E0,1.3751365E0],"tree_param":{"num_deleted":"0","num_feature":"8","num_nodes":"19","size_leaf_vector":"1"}},{"base_weights":[1.6123436E-1,4.4782743E-2,-1.5219218E-1,1.9828328E-1,-4.075803E-2,-5.109485E-1,6.7881507E-1,-4.97058E-3,-3.2507952E-2,8.214051E-3,5.23416E-2],"categories":[],"categories_nodes":[],"categories_segments":[],"categories_sizes":[],"default_left":[0,0,0,0,0,0,1,0,0,0,0],"id":56,"left_children":[1,-1,3,5,-1,7,9,-1,-1,-1,-1],"loss_changes":[3.5236452E0,0E0,2.7567246E0,3.111004E0,0E0,1.5572393E-1,8.2485557E-1,0E0,0E0,0E0,0E0],"parents":[2147483647,0,0,2,2,3,3,5,5,6,6],"right_children":[2,-1,4,6,-1,8,10,-1,-1,-1,-1],"split_conditions":[8.885317E-1,4.4782743E-2,1.5532868E0,0E0,-4.075803E-2,6.851933E-1,-3.9545998E-1,-4.97058E-3,-3.2507952E-2,8.214051E-3,5.23416E-2],"split_indices":[2,0,1,5,0,3,4,0,0,0,0],"split_type":[0,0,0,0,0,0,0,0,0,0,0],"sum_hessian":[1.3715581E1,3.5468905E0,1.0168691E1,7.110612E0,3.058079E0,2.8463287E0,4.264283E0,1.1527262E0,1.6936027E0,2.3813088E0,1.8829743E0],"tree_param":{"num_deleted":"0","num_feature":"8","num_nodes":"11","size_leaf_vector":"1"}},{"base_weights":[8.4495574E-2,3.9044932E-1,-4.866989E-1,5.920938E-1,1.7814247E-2,-8.3129875E-2,-4.0659506E-2,4.012129E-2,3.2000574E-1,-2.5348155E-2,3.8211715E-1,1.380226E-2,-2.8394237E-2,-9.6233113E-4,3.8419258E-2,2.2448905E-2,5.859666E-3],"categories":[],"categories_nodes":[],"categories_segments":[],"categories_sizes":[],"default_left":[0,1,0,0,0,0,0,0,0,0,0,0,0,0,0,0,0],"id":57,"left_children":[1,3,5,7,9,11,-1,-1,13,-1,15,-1,-1,-1,-1,-1,-1],"loss_changes":[3.2462575E0,8.868551E-1,7.947955E-1,1.8494296E-1,1.1925391E0,8.603336E-1,0E0,0E0,7.797038E-1,0E0,1.210618E-2,0E0,0E0,0E0,0E0,0E0,0E0],"parents":[2147483647,0,0,1,1,2,2,3,3,4,4,5,5,8,8,10,10],"right_children":[2,4,6,8,10,12,-1,-1,14,-1,16,-1,-1,-1,-1,-1,-1],"split_conditions":[1.3846849E0,4.8974437E-1,2.21E-1,5.720672E-1,7.80996E-1,-2.4800554E-1,-4.0659506E-2,4.012129E-2,3.11E-1,-2.5348155E-2,6.54E-1,1.380226E-2,-2.8394237E-2,-9.6233113E-4,3.8419258E-2,2.2448905E-2,5.859666E-3],"split_indices":[2,4,7,3,4,4,0,0,6,0,6,0,0,0,0,0,0],"split_type":[0,0,0,0,0,0,0,0,0,0,0,0,0,0,0,0,0],"sum_hessian":[1.6488226E1,1.0943109E1,5.5451164E0,6.718552E0,4.224557E0,3.0409176E0,2.504199E0,2.68998E0,4.0285716E0,1.5705649E0,2.6539922E0,1.9940153E0,1.0469022E0,2.8382063E0,1.1903656E0,1.5644224E0,1.0895698E0],"tree_param":{"num_deleted":"0","num_feature":"8","num_nodes":"17","size_leaf_vector":"1"}},{"base_weights":[1.0963854E-1,4.1654978E-2,-2.119285E-1,1.86332E-1,-5.224532E-1,-4.450004E-1,6.334311E-1,-6.419634E-1,3.3225862E-3,-9.7385154E-4,-3.2427132E-2,4.4891365E-2,5.1203836E-3,-6.1190357E-3,-4.989239E-2],"categories":[],"categories_nodes":[],"categories_segments":[],"categories_sizes":[],"default_left":[0,0,0,0,0,0,0,0,0,0,0,0,0,0,0],"id":58,"left_children":[1,-1,3,5,7,9,11,13,-1,-1,-1,-1,-1,-1,-1],"loss_changes":[3.8645232E0,0E0,1.5531614E0,1.9456844E0,5.2668834E-1,2.4989694E-1,4.5046985E-1,9.5239115E-1,0E0,0E0,0E0,0E0,0E0,0E0,0E0],"parents":[2147483647,0,0,2,2,3,3,4,4,5,5,6,6,7,7],"right_children":[2,-1,4,6,8,10,12,14,-1,-1,-1,-1,-1,-1,-1],"split_conditions":[9.6130514E-1,4.1654978E-2,-8E-2,-2.12E-1,2.647408E0,1.1531618E0,7E-3,1.5255711E0,3.3225862E-3,-9.7385154E-4,-3.2427132E-2,4.4891365E-2,5.1203836E-3,-6.1190357E-3,-4.989239E-2],"split_indices":[1,0,7,5,1,2,5,1,0,0,0,0,0,0,0],"split_type":[0,0,0,0,0,0,0,0,0,0,0,0,0,0,0],"sum_hessian":[1.4852591E1,4.08082E0,1.07717705E1,4.8944216E0,5.8773494E0,2.0310886E0,2.863333E0,4.8109384E0,1.0664111E0,1.0117095E0,1.0193791E0,1.4504205E0,1.4129125E0,2.5019817E0,2.3089564E0],"tree_param":{"num_deleted":"0","num_feature":"8","num_nodes":"15","size_leaf_vector":"1"}},{"base_weights":[1.0998553E-1,3.435674E-1,-4.7346362E-1,6.494717E-1,3.5336915E-2,3.3933464E-2,-4.024877E-2,4.323644E-2,1.8796748E-1,-2.4259488E-1,3.3904936E-2,1.7802423E-2,-1.4854446E-2,-8.005095E-3,2.0378064E-2,1.5267967E-2,-2.4841849E-2],"categories":[],"categories_nodes":[],"categories_segments":[],"categories_sizes":[],"default_left":[0,0,0,0,0,0,0,0,0,0,0,0,0,0,0,0,0],"id":59,"left_children":[1,3,5,7,9,11,-1,-1,13,15,-1,-1,-1,-1,-1,-1,-1],"loss_changes":[2.5705726E0,1.2213497E0,9.477078E-1,4.8971748E-1,1.5277133E0,4.3864936E-1,0E0,0E0,3.2253698E-1,9.964849E-1,0E0,0E0,0E0,0E0,0E0,0E0,0E0],"parents":[2147483647,0,0,1,1,2,2,3,3,4,4,5,5,8,8,9,9],"right_children":[2,4,6,8,10,12,-1,-1,14,16,-1,-1,-1,-1,-1,-1,-1],"split_conditions":[1.5532868E0,6.3372225E-1,1.0930543E0,2.65E-1,1.2663347E0,-8.7E-2,-4.024877E-2,4.323644E-2,3.57E-1,-3.57E-1,3.3904936E-2,1.7802423E-2,-1.4854446E-2,-8.005095E-3,2.0378064E-2,1.5267967E-2,-2.4841849E-2],"split_indices":[1,3,3,7,3,7,0,0,7,7,0,0,0,0,0,0,0],"split_type":[0,0,0,0,0,0,0,0,0,0,0,0,0,0,0,0,0],"sum_hessian":[1.6668406E1,1.2196659E1,4.4717464E0,5.5657835E0,6.6308756E0,2.1218216E0,2.3499248E0,3.1996627E0,2.3661206E0,5.063835E0,1.5670406E0,1.0370629E0,1.0847589E0,1.0201073E0,1.3460133E0,1.5411723E0,3.5226629E0],"tree_param":{"num_deleted":"0","num_feature":"8","num_nodes":"17","size_leaf_vector":"1"}},{"base_weights":[1.1908576E-1,3.9810684E-1,-4.6561155E-1,4.970204E-1,-6.444479E-3,1.5428106E-1,-4.2797696E-2,2.1699545E-1,8.2714003E-1,-1.6188426E-2,2.6688674E-2,3.2656353E-2,-6.946351E-3,1.0001942E-2,4.862593E-2],"categories":[],"categories_nodes":[],"categories_segments":[],"categories_sizes":[],"default_left":[0,0,0,0,0,0,0,0,0,0,0,0,0,0,0],"id":60,"left_children":[1,3,5,7,-1,9,-1,11,13,-1,-1,-1,-1,-1,-1],"loss_changes":[2.9664924E0,6.9371617E-1,1.576126E0,7.797141E-1,0E0,7.448655E-1,0E0,1.1726426E0,2.071886E-1,0E0,0E0,0E0,0E0,0E0,0E0],"parents":[2147483647,0,0,1,1,2,2,3,3,5,5,7,7,8,8],"right_children":[2,4,6,8,-1,10,-1,12,14,-1,-1,-1,-1,-1,-1],"split_conditions":[1.5532868E0,2.3964305E0,1.0902976E0,1.15E-1,-6.444479E-3,2.4958613E0,-4.2797696E-2,-2.62E-1,-1.6E-1,-1.6188426E-2,2.6688674E-2,3.2656353E-2,-6.946351E-3,1.0001942E-2,4.862593E-2],"split_indices":[1,2,2,5,0,1,0,7,7,0,0,0,0,0,0],"split_type":[0,0,0,0,0,0,0,0,0,0,0,0,0,0,0],"sum_hessian":[1.6047197E1,1.1079241E1,4.9679575E0,9.376263E0,1.702978E0,2.153227E0,2.8147304E0,5.9697385E0,3.4065242E0,1.0178595E0,1.1353675E0,2.307367E0,3.6623712E0,1.0882524E0,2.3182719E0],"tree_param":{"num_deleted":"0","num_feature":"8","num_nodes":"15","size_leaf_vector":"1"}},{"base_weights":[4.1996136E-2,2.8887284E-1,-5.6338346E-1,4.8208922E-1,-1.2549946E-1,-4.36074E-2,5.176964E-3,3.791805E-2,1.4683166E-1,-2.6467359E-2,2.6441693E-1,-2.2112494E-2,2.973929E-2,3.2499753E-2,-1.20167835E-2],"categories":[],"categories_nodes":[],"categories_segments":[],"categories_sizes":[],"default_left":[0,0,0,0,0,0,0,0,0,0,0,0,0,0,0],"id":61,"left_children":[1,3,5,7,9,-1,-1,-1,11,-1,13,-1,-1,-1,-1],"loss_changes":[2.6648295E0,1.0655357E0,1.158734E0,7.007234E-1,8.935027E-1,0E0,0E0,0E0,1.6355082E0,0E0,7.598459E-1,0E0,0E0,0E0,0E0],"parents":[2147483647,0,0,1,1,2,2,3,3,4,4,8,8,10,10],"right_children":[2,4,6,8,10,-1,-1,-1,12,-1,14,-1,-1,-1,-1],"split_conditions":[1.5532868E0,2.44E-1,4.218441E0,9.5962286E-1,4.03E-1,-4.36074E-2,5.176964E-3,3.791805E-2,1.4058567E0,-2.6467359E-2,9.037218E-1,-2.2112494E-2,2.973929E-2,3.2499753E-2,-1.20167835E-2],"split_indices":[1,7,1,1,7,0,0,0,0,0,0,0,0,0,0],"split_type":[0,0,0,0,0,0,0,0,0,0,0,0,0,0,0],"sum_hessian":[1.5741483E1,1.1552956E1,4.188527E0,7.767603E0,3.7853525E0,2.6526928E0,1.5358342E0,3.5665407E0,4.201062E0,1.6838003E0,2.1015522E0,1.8201761E0,2.3808863E0,1.0282937E0,1.0732585E0],"tree_param":{"num_deleted":"0","num_feature":"8","num_nodes":"15","size_leaf_vector":"1"}},{"base_weights":[-4.5927968E-2,5.0091183E-1,-3.976016E-1,6.507632E-1,4.3074167E-3,-1.6828202E-1,-4.0164653E-2,4.0184338E-2,3.2201596E-3,-3.4170258E-1,2.4062617E-2,1.312705E-2,-2.5610462E-2],"categories":[],"categories_nodes":[],"categories_segments":[],"categories_sizes":[],"default_left":[0,1,0,0,0,0,0,0,0,0,0,0,0],"id":62,"left_children":[1,3,5,7,-1,9,-1,-1,-1,11,-1,-1,-1],"loss_changes":[3.158623E0,3.4580076E-1,7.880199E-1,3.6045456E-1,0E0,1.0210668E0,0E0,0E0,0E0,8.131194E-1,0E0,0E0,0E0],"parents":[2147483647,0,0,1,1,2,2,3,3,5,5,9,9],"right_children":[2,4,6,8,-1,10,-1,-1,-1,12,-1,-1,-1],"split_conditions":[5.720672E-1,7.7898335E-1,1.6255182E0,5.006192E-1,4.3074167E-3,7.07E-1,-4.0164653E-2,4.0184338E-2,3.2201596E-3,-3.6541936E-1,2.4062617E-2,1.312705E-2,-2.5610462E-2],"split_indices":[3,4,2,3,0,5,0,0,0,4,0,0,0],"split_type":[0,0,0,0,0,0,0,0,0,0,0,0,0],"sum_hessian":[1.4389075E1,5.465717E0,8.923358E0,3.597107E0,1.86861E0,6.6047726E0,2.3185852E0,2.559063E0,1.0380441E0,5.5870113E0,1.0177612E0,1.1107942E0,4.4762173E0],"tree_param":{"num_deleted":"0","num_feature":"8","num_nodes":"13","size_leaf_vector":"1"}},{"base_weights":[-5.2014083E-2,4.2580742E-1,-1.9268283E-1,3.608147E-2,-7.650892E-3,1.5899679E-1,-5.226984E-1,4.9521756E-1,-3.0803144E-1,-6.957673E-1,9.033028E-3,4.6392407E-2,-5.0884293E-4,5.8268034E-3,-3.3955567E-2,-4.6286732E-2,8.993343E-3],"categories":[],"categories_nodes":[],"categories_segments":[],"categories_sizes":[],"default_left":[0,1,0,0,0,0,0,1,0,0,0,0,0,0,0,0,0],"id":63,"left_children":[1,3,5,-1,-1,7,9,11,13,15,-1,-1,-1,-1,-1,-1,-1],"loss_changes":[1.1898873E0,8.0565107E-1,1.6408545E0,0E0,0E0,1.2932417E0,9.969747E-1,1.0168054E0,6.553347E-1,1.3646886E0,0E0,0E0,0E0,0E0,0E0,0E0,0E0],"parents":[2147483647,0,0,1,1,2,2,5,5,6,6,7,7,8,8,9,9],"right_children":[2,4,6,-1,-1,8,10,12,14,16,-1,-1,-1,-1,-1,-1,-1],"split_conditions":[3.156254E-1,5.754937E-1,0E0,3.608147E-2,-7.650892E-3,1.5469724E0,4.7180924E0,-3.3963427E-1,1.2136362E0,4.3E-1,9.033028E-3,4.6392407E-2,-5.0884293E-4,5.8268034E-3,-3.3955567E-2,-4.6286732E-2,8.993343E-3],"split_indices":[3,4,7,0,0,0,0,4,3,6,0,0,0,0,0,0,0],"split_type":[0,0,0,0,0,0,0,0,0,0,0,0,0,0,0,0,0],"sum_hessian":[1.5482165E1,3.0602233E0,1.2421942E1,1.8619282E0,1.1982951E0,6.264461E0,6.157481E0,3.6072137E0,2.6572473E0,4.9502206E0,1.2072606E0,1.49315E0,2.1140637E0,1.5592269E0,1.0980204E0,3.8752494E0,1.0749711E0],"tree_param":{"num_deleted":"0","num_feature":"8","num_nodes":"17","size_leaf_vector":"1"}},{"base_weights":[-4.863682E-2,2.143405E-1,-3.9413258E-1,3.6573265E-2,1.0222471E-2,-5.487438E-1,1.3146134E-2,-2.4440579E-1,3.7372145E-1,-6.054043E-2,-4.502195E-2,-8.5710234E-4,-2.7868215E-2,2.8443644E-2,2.1823058E-3,1.889907E-2,-2.6994783E-2],"categories":[],"categories_nodes":[],"categories_segments":[],"categories_sizes":[],"default_left":[0,0,0,0,0,0,0,0,0,0,0,0,0,0,0,0,0],"id":64,"left_children":[1,3,5,-1,7,9,-1,11,13,15,-1,-1,-1,-1,-1,-1,-1],"loss_changes":[1.5063943E0,9.9886876E-1,8.671826E-1,0E0,8.179036E-1,9.901825E-1,0E0,3.617742E-1,2.0893466E-1,9.649933E-1,0E0,0E0,0E0,0E0,0E0,0E0,0E0],"parents":[2147483647,0,0,1,1,2,2,4,4,5,5,7,7,8,8,9,9],"right_children":[2,4,6,-1,8,10,-1,12,14,16,-1,-1,-1,-1,-1,-1,-1],"split_conditions":[9.6E-2,7.6215565E-1,3.729496E0,3.6573265E-2,9.8E-2,9.037218E-1,1.3146134E-2,-1.53E-1,1.538053E0,1.226757E0,-4.502195E-2,-8.5710234E-4,-2.7868215E-2,2.8443644E-2,2.1823058E-3,1.889907E-2,-2.6994783E-2],"split_indices":[7,1,0,0,6,0,0,6,1,2,0,0,0,0,0,0,0],"split_type":[0,0,0,0,0,0,0,0,0,0,0,0,0,0,0,0,0],"sum_hessian":[1.4649945E1,8.533902E0,6.116044E0,1.6840042E0,6.8498974E0,5.084466E0,1.0315781E0,4.2208524E0,2.629045E0,2.6198616E0,2.4646041E0,3.0562463E0,1.1646062E0,1.19755E0,1.431495E0,1.4786493E0,1.1412125E0],"tree_param":{"num_deleted":"0","num_feature":"8","num_nodes":"17","size_leaf_vector":"1"}},{"base_weights":[5.73933E-2,6.7448187E-1,-1.626108E-1,4.0185306E-2,6.6387574E-3,-3.5356057E-1,2.8156498E-2,-4.9467164E-1,1.6136942E-2,1.2083227E-2,-3.329922E-2],"categories":[],"categories_nodes":[],"categories_segments":[],"categories_sizes":[],"default_left":[0,0,0,0,0,0,0,0,0,0,0],"id":65,"left_children":[1,3,5,-1,-1,7,-1,9,-1,-1,-1],"loss_changes":[2.2223678E0,1.9318712E-1,1.9005222E0,0E0,0E0,1.1458955E0,0E0,1.2893229E0,0E0,0E0,0E0],"parents":[2147483647,0,0,1,1,2,2,5,5,7,7],"right_children":[2,4,6,-1,-1,8,-1,10,-1,-1,-1],"split_conditions":[3.156254E-1,7E-3,4.7180924E0,4.0185306E-2,6.6387574E-3,5.73E-1,2.8156498E-2,-5.19E-1,1.6136942E-2,1.2083227E-2,-3.329922E-2],"split_indices":[3,5,0,0,0,6,0,6,0,0,0],"split_type":[0,0,0,0,0,0,0,0,0,0,0],"sum_hessian":[1.4561713E1,3.284175E0,1.1277538E1,2.2611275E0,1.0230474E0,9.334393E0,1.9431458E0,7.9451785E0,1.3892142E0,1.4220897E0,6.523089E0],"tree_param":{"num_deleted":"0","num_feature":"8","num_nodes":"11","size_leaf_vector":"1"}},{"base_weights":[-7.476591E-2,2.1500959E-1,-5.4163975E-1,4.2846718E-1,-1.7013654E-1,6.486495E-3,-3.9169878E-2,5.968419E-1,-5.9412657E-3,-2.5169889E-2,1.1636831E-1,7.489008E-3,3.9063927E-2,1.4451536E-2,-6.2107206E-3],"categories":[],"categories_nodes":[],"categories_segments":[],"categories_sizes":[],"default_left":[0,0,0,0,0,0,0,0,0,0,0,0,0,0,0],"id":66,"left_children":[1,3,5,7,9,-1,-1,11,-1,-1,13,-1,-1,-1,-1],"loss_changes":[2.2159019E0,9.1894907E-1,1.112363E0,7.0726824E-1,4.7731E-1,0E0,0E0,3.321041E-1,0E0,0E0,1.6759919E-1,0E0,0E0,0E0,0E0],"parents":[2147483647,0,0,1,1,2,2,3,3,4,4,7,7,10,10],"right_children":[2,4,6,8,10,-1,-1,12,-1,-1,14,-1,-1,-1,-1],"split_conditions":[1.3479241E0,1.41E-1,5.857714E-1,1.0111749E0,8.0871373E-1,6.486495E-3,-3.9169878E-2,-1.68E-1,-5.9412657E-3,-2.5169889E-2,1.6121739E-1,7.489008E-3,3.9063927E-2,1.4451536E-2,-6.2107206E-3],"split_indices":[2,5,0,3,2,0,0,7,0,0,4,0,0,0,0],"split_type":[0,0,0,0,0,0,0,0,0,0,0,0,0,0,0],"sum_hessian":[1.4518264E1,9.291044E0,5.2272205E0,5.9055567E0,3.3854868E0,1.5066344E0,3.720586E0,4.446924E0,1.4586327E0,1.2150801E0,2.1704068E0,1.8280219E0,2.6189022E0,1.1463279E0,1.024079E0],"tree_param":{"num_deleted":"0","num_feature":"8","num_nodes":"15","size_leaf_vector":"1"}},{"base_weights":[8.720859E-2,4.5849365E-1,-2.6978493E-1,6.791119E-1,-1.4659653E-2,-5.924248E-1,3.1181207E-1,3.6506944E-3,4.4857778E-2,-7.843828E-2,-4.6850752E-2,2.7917271E-2,-7.565631E-3,2.3338476E-2,-2.8432606E-2],"categories":[],"categories_nodes":[],"categories_segments":[],"categories_sizes":[],"default_left":[0,0,0,0,0,0,0,0,0,0,0,0,0,0,0],"id":67,"left_children":[1,3,5,7,-1,9,11,-1,-1,13,-1,-1,-1,-1,-1],"loss_changes":[2.0993342E0,1.4722043E0,1.7287626E0,7.586827E-1,0E0,9.249501E-1,4.945065E-1,0E0,0E0,1.1618183E0,0E0,0E0,0E0,0E0,0E0],"parents":[2147483647,0,0,1,1,2,2,3,3,5,5,6,6,9,9],"right_children":[2,4,6,8,-1,10,12,-1,-1,14,-1,-1,-1,-1,-1],"split_conditions":[1.1531618E0,3.57E-1,1.17E-1,3.1229436E-1,-1.4659653E-2,0E0,-8.244514E-2,3.6506944E-3,4.4857778E-2,-4.838332E-1,-4.6850752E-2,2.7917271E-2,-7.565631E-3,2.3338476E-2,-2.8432606E-2],"split_indices":[2,7,5,0,0,7,4,0,0,4,0,0,0,0,0],"split_type":[0,0,0,0,0,0,0,0,0,0,0,0,0,0,0],"sum_hessian":[1.3905272E1,6.6768293E0,7.2284427E0,5.236483E0,1.4403461E0,4.637295E0,2.591148E0,1.7385836E0,3.4978995E0,2.35389E0,2.2834048E0,1.5568116E0,1.0343364E0,1.1370765E0,1.2168133E0],"tree_param":{"num_deleted":"0","num_feature":"8","num_nodes":"15","size_leaf_vector":"1"}},{"base_weights":[5.9170216E-2,3.61252E-2,-8.337525E-2,4.6162784E-1,-2.5149933E-1,-1.0220845E-3,3.988881E-2,1.556526E-2,-3.6377728E-1,-5.649988E-3,-3.6833387E-2],"categories":[],"categories_nodes":[],"categories_segments":[],"categories_sizes":[],"default_left":[0,0,0,0,0,0,0,0,0,0,0],"id":68,"left_children":[1,-1,3,5,7,-1,-1,-1,9,-1,-1],"loss_changes":[1.5584675E0,0E0,1.3932905E0,6.059708E-1,8.272999E-1,0E0,0E0,0E0,8.408251E-1,0E0,0E0],"parents":[2147483647,0,0,2,2,3,3,4,4,8,8],"right_children":[2,-1,4,6,8,-1,-1,-1,10,-1,-1],"split_conditions":[6.297895E-1,3.61252E-2,-4.21E-1,-6.84E-1,3.156254E-1,-1.0220845E-3,3.988881E-2,1.556526E-2,1.5255711E0,-5.649988E-3,-3.6833387E-2],"split_indices":[2,0,6,6,3,0,0,0,1,0,0],"split_type":[0,0,0,0,0,0,0,0,0,0,0],"sum_hessian":[1.4845011E1,1.9061546E0,1.2938856E1,2.6388412E0,1.03000145E1,1.4699614E0,1.1688796E0,1.4182525E0,8.8817625E0,6.0894814E0,2.7922812E0],"tree_param":{"num_deleted":"0","num_feature":"8","num_nodes":"11","size_leaf_vector":"1"}},{"base_weights":[-2.7865963E-2,4.4904533E-1,-2.9313982E-1,7.152289E-2,3.9428096E-2,-4.711111E-1,2.6245592E-2,3.4839995E-2,-2.4435135E-2,-2.1160135E-2,-4.1705392E-2,1.8827703E-2,-1.728542E-2],"categories":[],"categories_nodes":[],"categories_segments":[],"categories_sizes":[],"default_left":[0,0,0,0,0,0,0,0,0,0,0,0,0],"id":69,"left_children":[1,3,5,7,-1,9,-1,-1,-1,11,-1,-1,-1],"loss_changes":[1.9678288E0,6.5915024E-1,1.6932006E0,1.6517208E0,0E0,1.4006883E0,0E0,0E0,0E0,7.631131E-1,0E0,0E0,0E0],"parents":[2147483647,0,0,1,1,2,2,3,3,5,5,9,9],"right_children":[2,4,6,8,-1,10,-1,-1,-1,12,-1,-1,-1],"split_conditions":[9.5962286E-1,-9.8E-2,4.7180924E0,-4.21E-1,3.9428096E-2,1.1531618E0,2.6245592E-2,3.4839995E-2,-2.4435135E-2,-1.95E-1,-4.1705392E-2,1.8827703E-2,-1.728542E-2],"split_indices":[1,6,0,6,0,2,0,0,0,7,0,0,0],"split_type":[0,0,0,0,0,0,0,0,0,0,0,0,0],"sum_hessian":[1.3513994E1,4.5826E0,8.931394E0,2.743098E0,1.8395023E0,7.683841E0,1.2475526E0,1.181085E0,1.5620129E0,3.9035306E0,3.7803109E0,1.6820455E0,2.2214851E0],"tree_param":{"num_deleted":"0","num_feature":"8","num_nodes":"13","size_leaf_vector":"1"}},{"base_weights":[-5.615671E-2,1.5639298E-1,-5.131829E-1,-2.046744E-2,2.6328772E-1,-7.8599095E-1,1.0465315E-2,-1.5062164E-1,5.5413735E-1,-4.4798322E-2,-1.20381E-2,1.5848033E-2,-2.0179393E-2,1.7714016E-3,4.491501E-2],"categories":[],"categories_nodes":[],"categories_segments":[],"categories_sizes":[],"default_left":[0,1,1,0,0,0,0,0,0,0,0,0,0,0,0],"id":70,"left_children":[1,3,5,-1,7,9,-1,11,13,-1,-1,-1,-1,-1,-1],"loss_changes":[1.5220695E0,7.667905E-1,1.139208E0,0E0,1.2601254E0,1.2140274E-2,0E0,6.9804245E-1,1.0311067E0,0E0,0E0,0E0,0E0,0E0,0E0],"parents":[2147483647,0,0,1,1,2,2,4,4,5,5,7,7,8,8],"right_children":[2,4,6,-1,8,10,-1,12,14,-1,-1,-1,-1,-1,-1],"split_conditions":[1.5532868E0,-1.7847548E0,2.148247E0,-2.046744E-2,0E0,3.48E-1,1.0465315E-2,8.199261E-1,1.2826313E0,-4.4798322E-2,-1.20381E-2,1.5848033E-2,-2.0179393E-2,1.7714016E-3,4.491501E-2],"split_indices":[1,4,4,0,5,5,0,1,2,0,0,0,0,0,0],"split_type":[0,0,0,0,0,0,0,0,0,0,0,0,0,0,0],"sum_hessian":[1.3842491E1,9.897331E0,3.9451602E0,1.1232197E0,8.774112E0,2.8000014E0,1.1451586E0,3.819994E0,4.9541173E0,1.7947139E0,1.0052875E0,1.2522888E0,2.5677052E0,2.4159012E0,2.5382164E0],"tree_param":{"num_deleted":"0","num_feature":"8","num_nodes":"15","size_leaf_vector":"1"}},{"base_weights":[-5.2309334E-2,5.0016576E-1,-3.2488847E-1,4.060651E-2,-9.077471E-3,1.8568434E-1,-6.8526334E-1,-1.611858E-1,3.166055E-2,-6.3302885E-3,-4.5567915E-2,2.6729513E-2,-3.4812514E-2],"categories":[],"categories_nodes":[],"categories_segments":[],"categories_sizes":[],"default_left":[0,0,0,0,0,1,0,0,0,0,0,0,0],"id":71,"left_children":[1,3,5,-1,-1,7,9,11,-1,-1,-1,-1,-1],"loss_changes":[2.2139049E0,1.1883029E0,1.9171603E0,0E0,0E0,8.4904313E-1,6.318617E-1,1.6781605E0,0E0,0E0,0E0,0E0,0E0],"parents":[2147483647,0,0,1,1,2,2,5,5,6,6,7,7],"right_children":[2,4,6,-1,-1,8,10,12,-1,-1,-1,-1,-1],"split_conditions":[8.5105264E-1,5.5250514E-1,1.0902976E0,4.060651E-2,-9.077471E-3,9.792477E-1,-1.53E-1,1.1287946E0,3.166055E-2,-6.3302885E-3,-4.5567915E-2,2.6729513E-2,-3.4812514E-2],"split_indices":[1,3,2,0,0,4,6,1,0,0,0,0,0],"split_type":[0,0,0,0,0,0,0,0,0,0,0,0,0],"sum_hessian":[1.2622175E1,3.894235E0,8.727941E0,2.5404005E0,1.3538343E0,3.8119636E0,4.9159765E0,2.5079358E0,1.3040279E0,1.8657836E0,3.050193E0,1.0906218E0,1.4173139E0],"tree_param":{"num_deleted":"0","num_feature":"8","num_nodes":"13","size_leaf_vector":"1"}},{"base_weights":[5.890741E-2,2.941792E-1,-2.696516E-1,3.440049E-2,7.0867985E-2,-3.349958E-2,-3.997558E-2,-1.6686583E-1,2.7792057E-2,3.2319646E-2,-3.8515836E-1,1.6079193E-2,-2.1397091E-2,-2.8587302E-2,3.7803135E-3],"categories":[],"categories_nodes":[],"categories_segments":[],"categories_sizes":[],"default_left":[0,0,0,0,0,0,0,0,0,0,0,0,0,0,0],"id":72,"left_children":[1,3,5,-1,7,-1,9,11,-1,-1,13,-1,-1,-1,-1],"loss_changes":[1.235318E0,7.597038E-1,5.949603E-1,0E0,8.9763665E-1,0E0,1.518926E0,8.331016E-1,0E0,0E0,4.0372914E-1,0E0,0E0,0E0,0E0],"parents":[2147483647,0,0,1,1,2,2,4,4,6,6,7,7,10,10],"right_children":[2,4,6,-1,8,-1,10,12,-1,-1,14,-1,-1,-1,-1],"split_conditions":[9.540151E-1,-1.82E-1,1.4058567E0,3.440049E-2,1.0877247E0,-3.349958E-2,1.8138078E0,2.6347944E-1,2.7792057E-2,3.2319646E-2,4.7180924E0,1.6079193E-2,-2.1397091E-2,-2.8587302E-2,3.7803135E-3],"split_indices":[3,7,0,0,0,0,0,0,0,0,0,0,0,0,0],"split_type":[0,0,0,0,0,0,0,0,0,0,0,0,0,0,0],"sum_hessian":[1.3954492E1,8.192624E0,5.7618685E0,2.2114959E0,5.9811277E0,1.4016265E0,4.360242E0,4.453802E0,1.5273257E0,1.1670482E0,3.1931934E0,1.4706274E0,2.9831746E0,2.1013737E0,1.0918199E0],"tree_param":{"num_deleted":"0","num_feature":"8","num_nodes":"15","size_leaf_vector":"1"}},{"base_weights":[1.7105655E-1,5.4591894E-1,-5.262953E-2,3.7577845E-2,2.5298257E-4,-1.8756528E-1,2.0843664E-2,4.6171367E-2,-3.171407E-2,-1.667179E-2,2.1604864E-2],"categories":[],"categories_nodes":[],"categories_segments":[],"categories_sizes":[],"default_left":[0,0,0,0,0,0,0,0,0,0,0],"id":73,"left_children":[1,3,5,-1,-1,7,-1,9,-1,-1,-1],"loss_changes":[1.2390523E0,6.059294E-1,7.086735E-1,0E0,0E0,9.0844494E-1,0E0,1.0904424E0,0E0,0E0,0E0],"parents":[2147483647,0,0,1,1,2,2,5,5,7,7],"right_children":[2,4,6,-1,-1,8,-1,10,-1,-1,-1],"split_conditions":[9.6130514E-1,1.3154323E0,7.35E-1,3.7577845E-2,2.5298257E-4,1.44E-1,2.0843664E-2,-2.97E-1,-3.171407E-2,-1.667179E-2,2.1604864E-2],"split_indices":[1,2,5,0,0,5,0,5,0,0,0],"split_type":[0,0,0,0,0,0,0,0,0,0,0],"sum_hessian":[1.3434098E1,4.4821568E0,8.9519415E0,2.9652066E0,1.51695E0,7.4199424E0,1.5319995E0,5.4598246E0,1.960118E0,2.8210118E0,2.6388125E0],"tree_param":{"num_deleted":"0","num_feature":"8","num_nodes":"11","size_leaf_vector":"1"}},{"base_weights":[8.997975E-2,3.1618497E-1,-4.967379E-1,1.2256071E-1,3.5109397E-2,-7.0799214E-1,3.6149241E-3,3.2716367E-2,-6.223345E-2,-4.115009E-2,-1.104528E-2,-3.0746324E-2,1.2746659E-2],"categories":[],"categories_nodes":[],"categories_segments":[],"categories_sizes":[],"default_left":[0,1,0,0,0,0,0,0,0,0,0,0,0],"id":74,"left_children":[1,3,5,7,-1,9,-1,-1,11,-1,-1,-1,-1],"loss_changes":[2.09864E0,7.487482E-1,5.872954E-1,8.9071685E-1,0E0,5.5778027E-3,0E0,0E0,1.4420811E0,0E0,0E0,0E0,0E0],"parents":[2147483647,0,0,1,1,2,2,3,3,5,5,8,8],"right_children":[2,4,6,8,-1,10,-1,-1,12,-1,-1,-1,-1],"split_conditions":[1.5532868E0,1.0491005E-1,4.218441E0,5.720672E-1,3.5109397E-2,2.2740746E0,3.6149241E-3,3.2716367E-2,1.2833331E0,-4.115009E-2,-1.104528E-2,-3.0746324E-2,1.2746659E-2],"split_indices":[1,4,1,1,0,0,0,0,2,0,0,0,0],"split_type":[0,0,0,0,0,0,0,0,0,0,0,0,0],"sum_hessian":[1.3629292E1,1.0169574E1,3.4597185E0,7.6498294E0,2.5197442E0,2.3449595E0,1.1147588E0,1.3175584E0,6.332271E0,1.3391267E0,1.0058329E0,1.9665531E0,4.365718E0],"tree_param":{"num_deleted":"0","num_feature":"8","num_nodes":"13","size_leaf_vector":"1"}},{"base_weights":[3.58839E-3,2.1365228E-1,-4.7885242E-1,-1.9966718E-2,3.3092064E-1,-3.7100967E-2,8.338373E-3,1.541128E-1,3.4929704E-2,-1.7520676E-3,2.4841063E-2],"categories":[],"categories_nodes":[],"categories_segments":[],"categories_sizes":[],"default_left":[0,1,1,0,0,0,0,0,0,0,0],"id":75,"left_children":[1,3,5,-1,7,-1,-1,9,-1,-1,-1],"loss_changes":[1.6134793E0,9.285976E-1,9.4468427E-1,0E0,5.3248465E-1,0E0,0E0,5.316405E-1,0E0,0E0,0E0],"parents":[2147483647,0,0,1,1,2,2,4,4,7,7],"right_children":[2,4,6,-1,8,-1,-1,10,-1,-1,-1],"split_conditions":[1.5532868E0,-1.7847548E0,2.148247E0,-1.9966718E-2,1.506568E0,-3.7100967E-2,8.338373E-3,3.11E-1,3.4929704E-2,-1.7520676E-3,2.4841063E-2],"split_indices":[1,4,4,0,2,0,0,6,0,0,0],"split_type":[0,0,0,0,0,0,0,0,0,0,0],"sum_hessian":[1.3911395E1,1.0079661E1,3.8317335E0,1.2323904E0,8.847271E0,2.616063E0,1.2156703E0,6.93264E0,1.914631E0,5.045554E0,1.8870863E0],"tree_param":{"num_deleted":"0","num_feature":"8","num_nodes":"11","size_leaf_vector":"1"}},{"base_weights":[-4.1109786E-4,5.72321E-1,-1.7248873E-1,7.6544373E-3,3.434523E-2,9.750825E-2,-5.920909E-1,2.730961E-2,-1.5010557E-1,-4.515969E-2,-2.4609182E-3,1.6408814E-2,-1.6191198E-2],"categories":[],"categories_nodes":[],"categories_segments":[],"categories_sizes":[],"default_left":[0,0,0,0,0,0,0,0,0,0,0,0,0],"id":76,"left_children":[1,3,5,-1,-1,7,9,-1,11,-1,-1,-1,-1],"loss_changes":[1.5058255E0,6.4423084E-2,1.3885978E0,0E0,0E0,9.715107E-1,7.562125E-1,0E0,6.001107E-1,0E0,0E0,0E0,0E0],"parents":[2147483647,0,0,1,1,2,2,5,5,6,6,8,8],"right_children":[2,4,6,-1,-1,8,10,-1,12,-1,-1,-1,-1],"split_conditions":[3.156254E-1,3.6890268E-1,2.44E-1,7.6544373E-3,3.434523E-2,9.5962286E-1,4.37E-1,2.730961E-2,1.0111749E0,-4.515969E-2,-2.4609182E-3,1.6408814E-2,-1.6191198E-2],"split_indices":[3,2,7,0,0,1,7,0,2,0,0,0,0],"split_type":[0,0,0,0,0,0,0,0,0,0,0,0,0],"sum_hessian":[1.3277464E1,2.5301917E0,1.07472725E1,1.0445377E0,