{"learner":{"attributes":{"scikit_learn":"{\"_estimator_type\": \"regressor\"}"},"feature_names":[],"feature_types":[],"gradient_booster":{"model":{"cats":{"enc":[],"feature_segments":[],"sorted_idx":[]},"gbtree_model_param":{"num_parallel_tree":"1","num_trees":"300"},"iteration_indptr":[0,1,2,3,4,5,6,7,8,9,10,11,12,13,14,15,16,17,18,19,20,21,22,23,24,25,26,27,28,29,30,31,32,33,34,35,36,37,38,39,40,41,42,43,44,45,46,47,48,49,50,51,52,53,54,55,56,57,58,59,60,61,62,63,64,65,66,67,68,69,70,71,72,73,74,75,76,77,78,79,80,81,82,83,84,85,86,87,88,89,90,91,92,93,94,95,96,97,98,99,100,101,102,103,104,105,106,107,108,109,110,111,112,113,114,115,116,117,118,119,120,121,122,123,124,125,126,127,128,129,130,131,132,133,134,135,136,137,138,139,140,141,142,143,144,145,146,147,148,149,150,151,152,153,154,155,156,157,158,159,160,161,162,163,164,165,166,167,168,169,170,171,172,173,174,175,176,177,178,179,180,181,182,183,184,185,186,187,188,189,190,191,192,193,194,195,196,197,198,199,200,201,202,203,204,205,206,207,208,209,210,211,212,213,214,215,216,217,218,219,220,221,222,223,224,225,226,227,228,229,230,231,232,233,234,235,236,237,238,239,240,241,242,243,244,245,246,247,248,249,250,251,252,253,254,255,256,257,258,259,260,261,262,263,264,265,266,267,268,269,270,271,272,273,274,275,276,277,278,279,280,281,282,283,284,285,286,287,288,289,290,291,292,293,294,295,296,297,298,299,300],"tree_info":[0,0,0,0,0,0,0,0,0,0,0,0,0,0,0,0,0,0,0,0,0,0,0,0,0,0,0,0,0,0,0,0,0,0,0,0,0,0,0,0,0,0,0,0,0,0,0,0,0,0,0,0,0,0,0,0,0,0,0,0,0,0,0,0,0,0,0,0,0,0,0,0,0,0,0,0,0,0,0,0,0,0,0,0,0,0,0,0,0,0,0,0,0,0,0,0,0,0,0,0,0,0,0,0,0,0,0,0,0,0,0,0,0,0,0,0,0,0,0,0,0,0,0,0,0,0,0,0,0,0,0,0,0,0,0,0,0,0,0,0,0,0,0,0,0,0,0,0,0,0,0,0,0,0,0,0,0,0,0,0,0,0,0,0,0,0,0,0,0,0,0,0,0,0,0,0,0,0,0,0,0,0,0,0,0,0,0,0,0,0,0,0,0,0,0,0,0,0,0,0,0,0,0,0,0,0,0,0,0,0,0,0,0,0,0,0,0,0,0,0,0,0,0,0,0,0,0,0,0,0,0,0,0,0,0,0,0,0,0,0,0,0,0,0,0,0,0,0,0,0,0,0,0,0,0,0,0,0,0,0,0,0,0,0,0,0,0,0,0,0,0,0,0,0,0,0,0,0,0,0,0,0,0,0,0,0,0,0,0,0,0,0,0,0,0,0,0,0,0,0],"trees":[{"base_weights":[9.45375E-3,-1.9272487E0,6.829752E-1,-2.7036235E-2,-2.7119625E0,3.790637E-2,9.9919015E-1,-1.0905908E0,1.3415753E0,-3.1786783E0,-1.1808333E-1,4.7130352E-1,-7.5143456E-1,1.1841364E0,3.4431946E-1,-1.6283296E0,-1.2612337E-1,9.228435E-1,2.0740187E-1,-2.4207392E0,-3.9986331E0,-3.259086E0,1.4811369E0,1.7807932E-1,9.1755545E-1,-2.1587569E-1,-1.1074415E0,1.0661743E0,2.189091E0,1.6023017E-1,1.1673958E0,-2.2399387E0,-7.574535E-1,1.4482034E0,-1.0485542E0,1.3041477E0,-2.399581E-2,-1.1459941E0,-2.8327148E0,-4.0626016E0,-1.39153E0,-3.784049E0,-1.4067643E0,5.7595044E-1,2.1897936E-1,4.0470865E-1,-1.2504402E-1,1.3025379E0,5.573499E-1,-2.9969108E-1,1.8730394E0,-1.1937791E0,4.6130653E-2,8.6754423E-1,1.2621243E0,1.9058092E0,2.6697457E0,3.8488725E-1,-3.8019696E-1,1.0782217E0,1.3178045E-1,-7.414024E-2,-1.5900338E-1,-6.71867E-2,-4.5945668E-3,5.2651267E-2,1.0848322E-1,-6.9217863E-3,-7.429158E-2,6.272385E-2,8.886471E-2,8.225544E-2,-3.6078364E-2,3.8970515E-2,-7.7395365E-2,-1.3057342E-1,-2.1977805E-1,-2.2811988E-1,-1.8417746E-1,4.0949907E-2,-1.1152419E-1,-1.9223385E-1,-2.844173E-2,-0E0,-8.194318E-2,1.6545175E-2,1.4403322E-1,5.9698457E-3,2.8107766E-2,-7.606623E-3,4.723045E-2,6.096228E-2,1.2807989E-1,1.9672675E-2,5.1279467E-2,-1.31788105E-2,-5.0885297E-2,3.4461025E-2,1.06805444E-1,-4.4542808E-2,-8.608456E-2,-1.0826788E-2,4.442187E-2,6.723018E-2,4.8564952E-2,1.223327E-2,9.572068E-2,1.04413986E-1,1.436089E-1,-1.0675605E-3,2.3443818E-2,-5.038602E-2,-1.25992345E-2,1.0446855E-2,5.7980943E-2],"categories":[],"categories_nodes":[],"categories_segments":[],"categories_sizes":[],"default_left":[0,0,0,0,0,0,0,0,0,0,0,0,0,0,0,0,0,0,0,0,0,0,0,0,0,0,0,0,0,0,0,0,0,0,0,0,0,0,0,0,0,0,0,0,0,0,0,0,0,0,0,0,0,0,0,0,0,0,0,0,0,0,0,0,0,0,0,0,0,0,0,0,0,0,0,0,0,0,0,0,0,0,0,0,0,0,0,0,0,0,0,0,0,0,0,0,0,0,0,0,0,0,0,0,0,0,0,0,0,0,0,0,0,0,0],"id":0,"left_children":[1,3,5,7,9,11,13,15,17,19,21,23,25,27,29,31,33,35,-1,37,39,41,43,45,47,49,51,53,55,57,59,61,63,65,67,69,71,73,75,77,79,81,83,85,-1,87,89,91,93,95,97,99,-1,101,103,105,107,109,111,113,-1,-1,-1,-1,-1,-1,-1,-1,-1,-1,-1,-1,-1,-1,-1,-1,-1,-1,-1,-1,-1,-1,-1,-1,-1,-1,-1,-1,-1,-1,-1,-1,-1,-1,-1,-1,-1,-1,-1,-1,-1,-1,-1,-1,-1,-1,-1,-1,-1,-1,-1,-1,-1,-1,-1],"loss_changes":[7.6789536E3,2.264668E3,8.9084485E2,6.4917694E2,1.3006948E3,4.9226324E2,3.544297E2,1.2979572E2,2.2482019E2,5.558428E2,8.338255E2,1.2128839E2,9.686658E1,2.6821924E2,9.7713326E1,8.3757965E1,1.3362946E2,6.1896103E1,0E0,2.4633374E2,6.651465E1,4.861206E1,2.8558215E2,3.8686085E1,5.011966E1,3.629606E1,5.476117E1,7.83645E1,2.6996826E1,6.4494514E1,1.2236191E1,6.1727814E1,2.6266975E1,7.086609E0,2.2714378E1,3.3442688E-1,5.9310688E1,9.259706E1,1.1195337E2,6.2885254E1,2.422228E1,5.753784E0,4.524683E0,4.6730484E1,0E0,1.4329414E1,7.047492E0,1.5060699E1,1.418919E1,4.7379684E0,7.366314E-1,4.522046E1,0E0,2.3362427E1,2.3121094E1,1.5169067E0,3.6288452E0,1.2849621E1,1.2171267E1,7.61644E0,0E0,0E0,0E0,0E0,0E0,0E0,0E0,0E0,0E0,0E0,0E0,0E0,0E0,0E0,0E0,0E0,0E0,0E0,0E0,0E0,0E0,0E0,0E0,0E0,0E0,0E0,0E0,0E0,0E0,0E0,0E0,0E0,0E0,0E0,0E0,0E0,0E0,0E0,0E0,0E0,0E0,0E0,0E0,0E0,0E0,0E0,0E0,0E0,0E0,0E0,0E0,0E0,0E0,0E0,0E0],"parents":[2147483647,0,0,1,1,2,2,3,3,4,4,5,5,6,6,7,7,8,8,9,9,10,10,11,11,12,12,13,13,14,14,15,15,16,16,17,17,19,19,20,20,21,21,22,22,23,23,24,24,25,25,26,26,27,27,28,28,29,29,30,30,31,31,32,32,33,33,34,34,35,35,36,36,37,37,38,38,39,39,40,40,41,41,42,42,43,43,45,45,46,46,47,47,48,48,49,49,50,50,51,51,53,53,54,54,55,55,56,56,57,57,58,58,59,59],"right_children":[2,4,6,8,10,12,14,16,18,20,22,24,26,28,30,32,34,36,-1,38,40,42,44,46,48,50,52,54,56,58,60,62,64,66,68,70,72,74,76,78,80,82,84,86,-1,88,90,92,94,96,98,100,-1,102,104,106,108,110,112,114,-1,-1,-1,-1,-1,-1,-1,-1,-1,-1,-1,-1,-1,-1,-1,-1,-1,-1,-1,-1,-1,-1,-1,-1,-1,-1,-1,-1,-1,-1,-1,-1,-1,-1,-1,-1,-1,-1,-1,-1,-1,-1,-1,-1,-1,-1,-1,-1,-1,-1,-1,-1,-1,-1,-1],"split_conditions":[-1.45309E0,6E0,-6.034854E-1,-1.945E-1,3E0,1.4E1,1.8E1,3E0,8.115E-1,1.7E1,2.99E1,-1.3E-2,3.9E1,2.86E-1,1.7E-1,7.8205127E-1,5.3968257E-1,4E0,2.0740187E-1,5.0793654E-1,1.4235E0,2.3E1,3.207547E-1,8E0,7E0,3.255E-1,4E0,-2.65E-2,6.22E-1,2.7E1,1.146E0,4E0,-6.52E-1,5.2E-1,1.1E1,2.02E-1,5.3968257E-1,1.2280702E-1,3.3E1,4E-1,4E1,5.03E-1,7E0,1E0,2.1897936E-1,-3.135E-1,4E0,4.775E-1,2.275E-1,2.6E1,1.0115E0,2.2E1,4.6130653E-2,-1.2035E0,1.2E1,2E-2,3E0,2E0,2E0,2E0,1.3178045E-1,-7.414024E-2,-1.5900338E-1,-6.71867E-2,-4.5945668E-3,5.2651267E-2,1.0848322E-1,-6.9217863E-3,-7.429158E-2,6.272385E-2,8.886471E-2,8.225544E-2,-3.6078364E-2,3.8970515E-2,-7.7395365E-2,-1.3057342E-1,-2.1977805E-1,-2.2811988E-1,-1.8417746E-1,4.0949907E-2,-1.1152419E-1,-1.9223385E-1,-2.844173E-2,-0E0,-8.194318E-2,1.6545175E-2,1.4403322E-1,5.9698457E-3,2.8107766E-2,-7.606623E-3,4.723045E-2,6.096228E-2,1.2807989E-1,1.9672675E-2,5.1279467E-2,-1.31788105E-2,-5.0885297E-2,3.4461025E-2,1.06805444E-1,-4.4542808E-2,-8.608456E-2,-1.0826788E-2,4.442187E-2,6.723018E-2,4.8564952E-2,1.223327E-2,9.572068E-2,1.04413986E-1,1.436089E-1,-1.0675605E-3,2.3443818E-2,-5.038602E-2,-1.25992345E-2,1.0446855E-2,5.7980943E-2],"split_indices":[15,0,15,14,13,0,0,2,14,0,8,14,8,14,14,12,12,0,0,12,14,6,12,0,6,14,13,14,14,0,14,0,14,12,6,14,12,12,6,12,6,14,0,4,0,14,13,14,14,0,14,0,0,14,0,12,0,13,13,13,0,0,0,0,0,0,0,0,0,0,0,0,0,0,0,0,0,0,0,0,0,0,0,0,0,0,0,0,0,0,0,0,0,0,0,0,0,0,0,0,0,0,0,0,0,0,0,0,0,0,0,0,0,0,0],"split_type":[0,0,0,0,0,0,0,0,0,0,0,0,0,0,0,0,0,0,0,0,0,0,0,0,0,0,0,0,0,0,0,0,0,0,0,0,0,0,0,0,0,0,0,0,0,0,0,0,0,0,0,0,0,0,0,0,0,0,0,0,0,0,0,0,0,0,0,0,0,0,0,0,0,0,0,0,0,0,0,0,0,0,0,0,0,0,0,0,0,0,0,0,0,0,0,0,0,0,0,0,0,0,0,0,0,0,0,0,0,0,0,0,0,0,0],"sum_hessian":[5.885E3,1.518E3,4.367E3,4.44E2,1.074E3,1.437E3,2.93E3,2.5E2,1.94E2,9.1E2,1.64E2,9.28E2,5.09E2,2.284E3,6.46E2,1.6E2,9E1,1.7E2,2.4E1,4.75E2,4.35E2,5.5E1,1.09E2,5.61E2,3.67E2,2.04E2,3.05E2,2.046E3,2.38E2,5.29E2,1.17E2,9.3E1,6.7E1,3.3E1,5.7E1,1.21E2,4.9E1,1.17E2,3.58E2,4.24E2,1.1E1,4.2E1,1.3E1,8.4E1,2.5E1,3.21E2,2.4E2,1.76E2,1.91E2,1.97E2,7E0,2.93E2,1.2E1,1.019E3,1.027E3,1.53E2,8.5E1,3.74E2,1.55E2,1.12E2,5E0,5.3E1,4E1,3.5E1,3.2E1,2.3E1,1E1,1.9E1,3.8E1,1.13E2,8E0,1.4E1,3.5E1,2E1,9.7E1,3.16E2,4.2E1,1.78E2,2.46E2,3E0,8E0,4.1E1,1E0,2E0,1.1E1,7.7E1,7E0,1.15E2,2.06E2,2.35E2,5E0,1.67E2,9E0,1.43E2,4.8E1,1.89E2,8E0,2E0,5E0,1.88E2,1.05E2,1.9E1,1E3,7.97E2,2.3E2,1E0,1.52E2,2.5E1,6E1,6.4E1,3.1E2,2.5E1,1.3E2,1E1,1.02E2],"tree_param":{"num_deleted":"0","num_feature":"17","num_nodes":"115","size_leaf_vector":"1"}},{"base_weights":[8.649625E-3,-1.8290325E0,6.525299E-1,2.0573577E-2,-2.629721E0,9.598864E-1,-4.8573297E-2,-1.1994792E0,1.2727991E0,-3.0892284E0,-1.3814929E-1,8.122456E-1,1.6516789E0,2.5515318E-1,-8.8332707E-1,-2.5200222E0,-9.79492E-1,8.6136186E-1,1.8942624E-1,-2.2946854E0,-3.7483704E0,-2.9418309E0,1.289065E0,4.1349873E-1,9.8866296E-1,1.4805099E0,2.4694653E0,1.2577623E-1,1.4880666E0,-5.942732E-1,-1.4556005E0,-1.2974178E0,-3.4612248E0,-1.9703796E0,-7.019855E-1,1.2390782E0,-3.2665372E-2,-1.1964736E0,-2.6990151E0,-4.5130806E0,-3.4500856E0,-3.4885669E0,-1.1717329E0,5.901528E-1,4.116881E0,8.137288E-1,1.9929004E-1,7.591585E-1,1.0837619E0,9.2190135E-1,1.6192503E0,2.6113255E0,1.4097391E0,2.5841638E-1,-3.5656026E-1,1.2749901E0,1.346769E-1,-6.8962425E-1,4.2363876E-1,-1.5128022E0,2.7107505E-2,-8.211969E-3,-8.942386E-2,-1.8090995E-1,-1.7316645E-2,-1.0108533E-1,3.4169876E-3,9.353756E-3,-5.1939335E-2,6.2304866E-2,4.085229E-3,3.618997E-2,-1.6323311E-2,3.414343E-2,-7.572695E-2,-1.5057732E-1,-7.344758E-2,-2.2829263E-1,6.1459523E-2,-1.741127E-1,-2.2805281E-2,-1.7714183E-1,-2.7730687E-2,-3.4375954E-3,-7.167078E-2,1.40916435E-2,1.294053E-1,2.3470853E-1,1.4723581E-1,-1.7876575E-3,4.9478352E-2,3.3416485E-3,2.5732247E-2,-1.17107285E-2,3.9690476E-2,5.965816E-2,4.365023E-2,7.026101E-2,3.580099E-2,6.937149E-2,8.816425E-2,1.0231209E-1,1.4480747E-1,-1.9323712E-2,7.999816E-2,-1.3271897E-2,2.2057809E-2,-4.5948304E-2,-1.2306056E-2,1.8461427E-2,6.83912E-2,-1.1040262E-2,-4.2055584E-2,5.3174865E-2,7.54822E-3,-7.904808E-2,-2.5784547E-2],"categories":[],"categories_nodes":[],"categories_segments":[],"categories_sizes":[],"default_left":[0,0,0,0,0,0,0,0,0,0,0,0,0,0,0,0,0,0,0,0,0,0,0,0,0,0,0,0,0,0,0,0,0,0,0,0,0,0,0,0,0,0,0,0,0,0,0,0,0,0,0,0,0,0,0,0,0,0,0,0,0,0,0,0,0,0,0,0,0,0,0,0,0,0,0,0,0,0,0,0,0,0,0,0,0,0,0,0,0,0,0,0,0,0,0,0,0,0,0,0,0,0,0,0,0,0,0,0,0,0,0,0,0,0,0,0,0],"id":1,"left_children":[1,3,5,7,9,11,13,15,17,19,21,23,25,27,29,31,33,35,-1,37,39,41,43,45,47,49,51,53,55,57,59,61,63,65,67,69,71,73,75,77,79,81,83,85,87,89,91,93,95,97,99,101,103,105,107,109,-1,111,113,115,-1,-1,-1,-1,-1,-1,-1,-1,-1,-1,-1,-1,-1,-1,-1,-1,-1,-1,-1,-1,-1,-1,-1,-1,-1,-1,-1,-1,-1,-1,-1,-1,-1,-1,-1,-1,-1,-1,-1,-1,-1,-1,-1,-1,-1,-1,-1,-1,-1,-1,-1,-1,-1,-1,-1,-1,-1],"loss_changes":[7.004717E3,2.2750664E3,9.448397E2,7.1195233E2,1.2265781E3,3.0972485E2,3.392669E2,6.5740326E1,2.343363E2,4.647578E2,6.762019E2,1.7630054E2,7.083801E1,1.5613132E2,5.798416E1,3.3007202E1,5.4445053E1,6.736116E1,0E0,1.7976978E2,9.60874E1,5.0609497E1,2.1845596E2,6.6007965E1,3.7013306E1,3.2741333E1,9.596985E0,5.695805E1,2.0056671E1,2.3515839E1,1.4515961E1,8.414312E0,7.1516724E0,4.9377136E0,4.8488808E1,9.027405E-1,1.3531562E1,6.8663574E1,1.1084253E2,4.685498E1,3.259375E1,4.472046E0,4.080698E0,5.5040398E1,3.0004883E-1,4.031166E1,2.1001806E1,1.7934479E1,2.708899E1,7.8367996E0,9.091919E0,6.2944946E0,5.18157E0,6.695354E1,1.1582743E1,6.1321716E0,0E0,1.5261505E1,3.3819366E0,6.858673E0,0E0,0E0,0E0,0E0,0E0,0E0,0E0,0E0,0E0,0E0,0E0,0E0,0E0,0E0,0E0,0E0,0E0,0E0,0E0,0E0,0E0,0E0,0E0,0E0,0E0,0E0,0E0,0E0,0E0,0E0,0E0,0E0,0E0,0E0,0E0,0E0,0E0,0E0,0E0,0E0,0E0,0E0,0E0,0E0,0E0,0E0,0E0,0E0,0E0,0E0,0E0,0E0,0E0,0E0,0E0,0E0,0E0],"parents":[2147483647,0,0,1,1,2,2,3,3,4,4,5,5,6,6,7,7,8,8,9,9,10,10,11,11,12,12,13,13,14,14,15,15,16,16,17,17,19,19,20,20,21,21,22,22,23,23,24,24,25,25,26,26,27,27,28,28,29,29,30,30,31,31,32,32,33,33,34,34,35,35,36,36,37,37,38,38,39,39,40,40,41,41,42,42,43,43,44,44,45,45,46,46,47,47,48,48,49,49,50,50,51,51,52,52,53,53,54,54,55,55,57,57,58,58,59,59],"right_children":[2,4,6,8,10,12,14,16,18,20,22,24,26,28,30,32,34,36,-1,38,40,42,44,46,48,50,52,54,56,58,60,62,64,66,68,70,72,74,76,78,80,82,84,86,88,90,92,94,96,98,100,102,104,106,108,110,-1,112,114,116,-1,-1,-1,-1,-1,-1,-1,-1,-1,-1,-1,-1,-1,-1,-1,-1,-1,-1,-1,-1,-1,-1,-1,-1,-1,-1,-1,-1,-1,-1,-1,-1,-1,-1,-1,-1,-1,-1,-1,-1,-1,-1,-1,-1,-1,-1,-1,-1,-1,-1,-1,-1,-1,-1,-1,-1,-1],"split_conditions":[-1.45309E0,6E0,5.397E2,-2.62E-1,3E0,1.53E-1,4.515E1,2.948718E-1,8.115E-1,5.052E2,2.99E1,-6.034854E-1,6.22E-1,3.39E-1,2.1E1,1.5789473E-1,-1.793E0,1.1565E2,1.8942624E-1,5.0793654E-1,3.392857E-1,3.3333334E-1,3.392857E-1,1.548E2,-1.405E-1,-6.034854E-1,1.2E1,2.6E1,1.146E0,1.475E-1,4E0,3E0,1.3545E2,5E0,5.3968257E-1,7.44E-1,4.107143E-1,1.0526316E-1,1E0,5.1255E0,1.4235E0,5.03E-1,7E0,1E0,2.5E1,-5.34E-1,-3E-2,-1.2035E0,1E1,1.95E2,2.345E-1,3E0,5.357143E-2,-6.034854E-1,2E0,2E0,1.346769E-1,1.4E1,1.6E1,2.02E-1,2.7107505E-2,-8.211969E-3,-8.942386E-2,-1.8090995E-1,-1.7316645E-2,-1.0108533E-1,3.4169876E-3,9.353756E-3,-5.1939335E-2,6.2304866E-2,4.085229E-3,3.618997E-2,-1.6323311E-2,3.414343E-2,-7.572695E-2,-1.5057732E-1,-7.344758E-2,-2.2829263E-1,6.1459523E-2,-1.741127E-1,-2.2805281E-2,-1.7714183E-1,-2.7730687E-2,-3.4375954E-3,-7.167078E-2,1.40916435E-2,1.294053E-1,2.3470853E-1,1.4723581E-1,-1.7876575E-3,4.9478352E-2,3.3416485E-3,2.5732247E-2,-1.17107285E-2,3.9690476E-2,5.965816E-2,4.365023E-2,7.026101E-2,3.580099E-2,6.937149E-2,8.816425E-2,1.0231209E-1,1.4480747E-1,-1.9323712E-2,7.999816E-2,-1.3271897E-2,2.2057809E-2,-4.5948304E-2,-1.2306056E-2,1.8461427E-2,6.83912E-2,-1.1040262E-2,-4.2055584E-2,5.3174865E-2,7.54822E-3,-7.904808E-2,-2.5784547E-2],"split_indices":[15,0,7,14,13,14,8,12,14,7,8,15,14,14,0,12,14,7,0,12,12,12,12,7,14,15,0,0,14,14,13,0,7,0,12,14,12,12,4,14,14,14,0,4,0,14,14,14,0,7,14,0,12,15,13,13,0,0,0,14,0,0,0,0,0,0,0,0,0,0,0,0,0,0,0,0,0,0,0,0,0,0,0,0,0,0,0,0,0,0,0,0,0,0,0,0,0,0,0,0,0,0,0,0,0,0,0,0,0,0,0,0,0,0,0,0,0],"split_type":[0,0,0,0,0,0,0,0,0,0,0,0,0,0,0,0,0,0,0,0,0,0,0,0,0,0,0,0,0,0,0,0,0,0,0,0,0,0,0,0,0,0,0,0,0,0,0,0,0,0,0,0,0,0,0,0,0,0,0,0,0,0,0,0,0,0,0,0,0,0,0,0,0,0,0,0,0,0,0,0,0,0,0,0,0,0,0,0,0,0,0,0,0,0,0,0,0,0,0,0,0,0,0,0,0,0,0,0,0,0,0,0,0,0,0,0,0],"sum_hessian":[5.918E3,1.535E3,4.383E3,4.64E2,1.071E3,3.047E3,1.336E3,2.35E2,2.29E2,9.04E2,1.67E2,2.513E3,5.34E2,9.8E2,3.56E2,3.2E1,2.03E2,1.98E2,3.1E1,4.12E2,4.92E2,5.6E1,1.11E2,7.72E2,1.741E3,4.44E2,9E1,8.88E2,9.2E1,2.38E2,1.18E2,1.5E1,1.7E1,4.3E1,1.6E2,1.39E2,5.9E1,1.12E2,3E2,1.34E2,3.58E2,4.2E1,1.4E1,9E1,2.1E1,2.68E2,5.04E2,5.13E2,1.228E3,9E1,3.54E2,7.8E1,1.2E1,6.97E2,1.91E2,8E1,1.2E1,2.18E2,2E1,1.15E2,3E0,5E0,1E1,1.6E1,1E0,4.2E1,1E0,4.4E1,1.16E2,1.38E2,1E0,1.6E1,4.3E1,1.6E1,9.6E1,2.38E2,6.2E1,1.33E2,1E0,3.54E2,4E0,4.1E1,1E0,3E0,1.1E1,7.9E1,1.1E1,1.2E1,9E0,4.6E1,2.22E2,3.56E2,1.48E2,1.7E1,4.96E2,8.05E2,4.23E2,2.5E1,6.5E1,1.4E2,2.14E2,2.9E1,4.9E1,1E0,1.1E1,1.8E2,5.17E2,3E1,1.61E2,8E0,7.2E1,5.4E1,1.64E2,5E0,1.5E1,1.07E2,8E0],"tree_param":{"num_deleted":"0","num_feature":"17","num_nodes":"117","size_leaf_vector":"1"}},{"base_weights":[2.43237E-3,-1.742334E0,6.195451E-1,2.6593456E-1,-2.3897555E0,9.4059837E-1,-7.530911E-3,-9.6548057E-1,1.390784E0,-2.777528E0,-2.4102056E-1,6.394563E-1,1.2189933E0,-5.552583E-1,3.8695425E-1,-1.9632369E0,-4.6604726E-1,1.0353391E0,1.849261E-1,-2.0083597E0,-3.5106075E0,1.2762841E0,-2.8826723E0,2.1975045E-1,8.469371E-1,1.0675856E0,1.721478E0,-3.4505388E-1,-1.4201933E0,2.68557E-1,1.5239874E0,-1.2136997E0,-2.7191665E0,2.9085836E-1,-7.171128E-1,1.1795601E0,3.3343828E-1,-9.661457E-1,-2.4102883E0,-4.188643E0,-3.2573435E0,5.6010044E-1,1.9821547E-1,-3.2828758E0,-9.9085206E-1,3.483345E-1,-2.92235E-2,-3.316692E-1,8.680184E-1,1.1445684E0,6.284903E-1,1.523864E0,2.3280876E0,-3.8758045E-1,1.7717593E0,-1.5573082E0,-1.5359971E-1,5.2535385E-1,-2.1450086E-1,1.3331021E0,1.445918E-1,-8.126539E-2,-3.16095E-2,-1.4296116E-1,-2.5946638E-2,-2.3919237E-3,3.0881329E-2,-6.826102E-2,-1.3715376E-2,-0E0,6.0239803E-2,4.6681337E-2,-4.4751596E-3,-2.0145847E-2,-1.0347132E-1,-1.0439761E-1,-1.9082704E-1,-2.1194553E-1,5.9923034E-2,-1.6438101E-1,-1.7573068E-2,1.3592805E-2,1.0697361E-1,-1.319479E-1,-1.9126754E-1,-6.944617E-2,-1.3914089E-2,1.5820119E-3,2.5458276E-2,-8.160901E-3,4.7868746E-3,1.1667449E-3,-4.282186E-2,5.2741226E-2,4.1129727E-2,4.9225476E-2,6.1745774E-2,1.1581463E-2,4.038107E-2,8.054062E-2,4.3169107E-2,1.1958225E-1,5.4857906E-2,-1.1032412E-2,-3.509418E-2,4.1143786E-2,1.0232922E-1,-8.0965035E-2,2.2490976E-2,3.8800806E-2,-2.011293E-2,2.1358332E-2,4.3924928E-2,-8.230327E-4,-2.6418496E-2,2.0042649E-2,7.2006755E-2],"categories":[],"categories_nodes":[],"categories_segments":[],"categories_sizes":[],"default_left":[0,0,0,0,0,0,0,0,0,0,0,0,0,0,0,0,0,0,0,0,0,0,0,0,0,0,0,0,0,0,0,0,0,0,0,0,0,0,0,0,0,0,0,0,0,0,0,0,0,0,0,0,0,0,0,0,0,0,0,0,0,0,0,0,0,0,0,0,0,0,0,0,0,0,0,0,0,0,0,0,0,0,0,0,0,0,0,0,0,0,0,0,0,0,0,0,0,0,0,0,0,0,0,0,0,0,0,0,0,0,0,0,0,0,0,0,0],"id":2,"left_children":[1,3,5,7,9,11,13,15,17,19,21,23,25,27,29,31,33,35,-1,37,39,41,43,45,47,49,51,53,55,57,59,61,63,65,67,69,71,73,75,77,79,81,-1,83,85,87,89,91,93,95,97,99,101,103,105,107,109,111,113,115,-1,-1,-1,-1,-1,-1,-1,-1,-1,-1,-1,-1,-1,-1,-1,-1,-1,-1,-1,-1,-1,-1,-1,-1,-1,-1,-1,-1,-1,-1,-1,-1,-1,-1,-1,-1,-1,-1,-1,-1,-1,-1,-1,-1,-1,-1,-1,-1,-1,-1,-1,-1,-1,-1,-1,-1,-1],"loss_changes":[6.375135E3,2.0122515E3,8.8069507E2,5.2497455E2,9.738965E2,2.4157349E2,3.204479E2,8.903674E1,1.5811157E2,5.511846E2,7.25314E2,1.2092383E2,1.1215552E2,1.12239395E2,1.1545528E2,3.0302277E1,2.3435215E1,1.6967972E1,0E0,2.0091675E2,7.250244E1,2.187159E2,4.6289246E1,1.4832596E1,2.3473633E1,3.8213013E1,3.75437E1,4.564872E1,2.0603622E1,9.714911E1,1.6871658E1,6.4060783E0,7.115036E0,3.5174608E0,2.586422E1,4.249954E0,8.037156E0,8.405068E1,1.5009082E2,4.16709E1,3.1297363E1,4.1059784E1,0E0,8.121338E0,3.134265E0,1.5464756E1,2.6679401E0,3.2703063E0,6.7088013E0,1.2777344E1,1.2149788E1,1.3522705E1,3.5205994E0,2.5566795E1,6.367378E-1,1.4407867E1,3.2798274E0,1.7212738E1,1.6843987E1,6.5226593E0,0E0,0E0,0E0,0E0,0E0,0E0,0E0,0E0,0E0,0E0,0E0,0E0,0E0,0E0,0E0,0E0,0E0,0E0,0E0,0E0,0E0,0E0,0E0,0E0,0E0,0E0,0E0,0E0,0E0,0E0,0E0,0E0,0E0,0E0,0E0,0E0,0E0,0E0,0E0,0E0,0E0,0E0,0E0,0E0,0E0,0E0,0E0,0E0,0E0,0E0,0E0,0E0,0E0,0E0,0E0,0E0,0E0],"parents":[2147483647,0,0,1,1,2,2,3,3,4,4,5,5,6,6,7,7,8,8,9,9,10,10,11,11,12,12,13,13,14,14,15,15,16,16,17,17,19,19,20,20,21,21,22,22,23,23,24,24,25,25,26,26,27,27,28,28,29,29,30,30,31,31,32,32,33,33,34,34,35,35,36,36,37,37,38,38,39,39,40,40,41,41,43,43,44,44,45,45,46,46,47,47,48,48,49,49,50,50,51,51,52,52,53,53,54,54,55,55,56,56,57,57,58,58,59,59],"right_children":[2,4,6,8,10,12,14,16,18,20,22,24,26,28,30,32,34,36,-1,38,40,42,44,46,48,50,52,54,56,58,60,62,64,66,68,70,72,74,76,78,80,82,-1,84,86,88,90,92,94,96,98,100,102,104,106,108,110,112,114,116,-1,-1,-1,-1,-1,-1,-1,-1,-1,-1,-1,-1,-1,-1,-1,-1,-1,-1,-1,-1,-1,-1,-1,-1,-1,-1,-1,-1,-1,-1,-1,-1,-1,-1,-1,-1,-1,-1,-1,-1,-1,-1,-1,-1,-1,-1,-1,-1,-1,-1,-1,-1,-1,-1,-1,-1,-1],"split_conditions":[-1.45309E0,5E0,4.9665E2,-2.71E-1,3E0,-2.15E-2,-6.034854E-1,-1.644E0,8.115E-1,5.052E2,6.6E1,-6.034854E-1,2.345E-1,9.683E2,3.39E-1,3E0,3E0,1.1565E2,1.849261E-1,5.2E-1,3.392857E-1,3.392857E-1,3E0,8E0,-1.2035E0,3.78E2,6.22E-1,6.22E-1,1.77E-1,8.8665E2,1.146E0,-2.538E0,1.3E1,-1.068E0,-9.695E-1,1.2E-1,4.107143E-1,4E1,3.1E1,5.1255E0,1.4235E0,5.03E-1,1.9821547E-1,1.2E-1,4.6E-1,-3.515E-1,4.107143E-1,3E0,4.4E1,-1.6691129E-1,-6.034854E-1,3.1E0,1.2E1,7.41E2,7.44E-1,4E0,1.0395E3,6.85E-2,3.1E1,2E0,1.445918E-1,-8.126539E-2,-3.16095E-2,-1.4296116E-1,-2.5946638E-2,-2.3919237E-3,3.0881329E-2,-6.826102E-2,-1.3715376E-2,-0E0,6.0239803E-2,4.6681337E-2,-4.4751596E-3,-2.0145847E-2,-1.0347132E-1,-1.0439761E-1,-1.9082704E-1,-2.1194553E-1,5.9923034E-2,-1.6438101E-1,-1.7573068E-2,1.3592805E-2,1.0697361E-1,-1.319479E-1,-1.9126754E-1,-6.944617E-2,-1.3914089E-2,1.5820119E-3,2.5458276E-2,-8.160901E-3,4.7868746E-3,1.1667449E-3,-4.282186E-2,5.2741226E-2,4.1129727E-2,4.9225476E-2,6.1745774E-2,1.1581463E-2,4.038107E-2,8.054062E-2,4.3169107E-2,1.1958225E-1,5.4857906E-2,-1.1032412E-2,-3.509418E-2,4.1143786E-2,1.0232922E-1,-8.0965035E-2,2.2490976E-2,3.8800806E-2,-2.011293E-2,2.1358332E-2,4.3924928E-2,-8.230327E-4,-2.6418496E-2,2.0042649E-2,7.2006755E-2],"split_indices":[15,0,7,14,13,14,15,14,14,7,10,15,14,7,14,0,0,7,0,12,12,12,2,0,14,7,14,14,14,7,14,14,6,14,14,12,12,6,6,14,14,14,0,12,12,14,12,13,10,15,15,11,0,7,14,13,7,14,0,13,0,0,0,0,0,0,0,0,0,0,0,0,0,0,0,0,0,0,0,0,0,0,0,0,0,0,0,0,0,0,0,0,0,0,0,0,0,0,0,0,0,0,0,0,0,0,0,0,0,0,0,0,0,0,0,0,0],"split_type":[0,0,0,0,0,0,0,0,0,0,0,0,0,0,0,0,0,0,0,0,0,0,0,0,0,0,0,0,0,0,0,0,0,0,0,0,0,0,0,0,0,0,0,0,0,0,0,0,0,0,0,0,0,0,0,0,0,0,0,0,0,0,0,0,0,0,0,0,0,0,0,0,0,0,0,0,0,0,0,0,0,0,0,0,0,0,0,0,0,0,0,0,0,0,0,0,0,0,0,0,0,0,0,0,0,0,0,0,0,0,0,0,0,0,0,0,0],"sum_hessian":[5.919E3,1.546E3,4.373E3,3.77E2,1.169E3,2.892E3,1.481E3,1.8E2,1.97E2,9.9E2,1.79E2,1.391E3,1.501E3,6.2E2,8.61E2,5.9E1,1.21E2,1.72E2,2.5E1,4.85E2,5.05E2,1.14E2,6.5E1,4.61E2,9.3E2,1.156E3,3.45E2,5E2,1.2E2,7.81E2,8E1,3.1E1,2.8E1,3E1,9.1E1,1.42E2,3E1,1.36E2,3.49E2,1.33E2,3.72E2,9.1E1,2.3E1,5.3E1,1.2E1,3.04E2,1.57E2,1.6E1,9.14E2,9.82E2,1.74E2,2.63E2,8.2E1,4.91E2,9E0,1.08E2,1.2E1,5.1E2,2.71E2,7.2E1,8E0,1.7E1,1.4E1,2.6E1,2E0,1.5E1,1.5E1,3.6E1,5.5E1,3E0,1.39E2,1.2E1,1.8E1,9.1E1,4.5E1,2.86E2,6.3E1,1.32E2,1E0,3.68E2,4E0,7.8E1,1.3E1,2.7E1,2.6E1,7E0,5E0,1.03E2,2.01E2,7.6E1,8.1E1,1E1,6E0,1.74E2,7.4E2,3.59E2,6.23E2,5.5E1,1.19E2,2.31E2,3.2E1,7.7E1,5E0,3.22E2,1.69E2,3E0,6E0,1.05E2,3E0,2E0,1E1,4.01E2,1.09E2,1.67E2,1.04E2,8E0,6.4E1],"tree_param":{"num_deleted":"0","num_feature":"17","num_nodes":"117","size_leaf_vector":"1"}},{"base_weights":[3.1396926E-3,-1.6573999E0,5.982554E-1,-2.303564E-1,-2.4341757E0,8.8708144E-1,3.2874398E-2,-1.0935061E0,9.5194024E-1,-2.8838334E0,6.4153895E-2,5.8503157E-1,1.1552091E0,-4.935808E-1,4.0672323E-1,-1.3556944E0,-2.3603968E-1,5.4042214E-1,3.1860693E0,-2.1598673E0,-3.4072514E0,-2.723275E0,1.1595353E0,1.9984475E-1,7.777194E-1,1.0399185E0,1.796101E0,-2.7837196E-1,-1.3290074E0,2.3124875E-1,1.2049762E0,-2.5968423E-1,-1.8306653E0,1.1604459E0,-1.998182E0,1.0082663E0,-9.0074223E-1,3.3051686E0,3.7045974E-2,-9.6221274E-1,-2.5942454E0,-2.0873998E-1,-3.1742496E0,-1.6505413E-1,-1.3794415E0,4.886529E-1,1.8649822E-1,3.4350026E-1,-9.2920415E-2,-8.708374E-2,7.945049E-1,7.508732E-1,1.1273478E0,1.6268215E0,1.2583719E-1,-3.2962227E-1,1.7736914E0,-1.4200399E0,-1.3012941E-1,3.8349363E-1,-3.8298059E-1,1.0883995E0,1.311518E-1,-4.856425E-4,-4.4862166E-2,-3.667356E-2,-1.07010506E-1,9.7650446E-2,3.742842E-2,5.1819305E-3,-1.0340222E-1,5.935971E-2,1.7997395E-2,-8.20964E-2,2.0801132E-4,2.781801E-2,1.6842881E-1,-7.951414E-3,-9.512147E-2,-1.1472358E-1,-1.9176923E-1,-1.619024E-1,-7.491314E-2,-7.250362E-2,-7.265226E-3,1.3628001E-2,1.4988372E-1,-3.5208967E-2,1.9457664E-2,-3.2244485E-2,-2.1940242E-3,2.549803E-3,-2.3814522E-2,3.4474682E-2,4.462364E-2,5.498102E-2,2.0169735E-2,5.107817E-2,6.612405E-2,8.648484E-2,3.5589606E-2,-5.8650784E-3,-2.7276024E-2,9.731798E-2,2.8678348E-2,-5.416536E-2,-7.941716E-2,6.8380013E-3,-4.1589573E-2,9.871839E-3,2.6235638E-2,-4.472631E-2,-1.3742219E-2,6.8284534E-2,4.2238962E-2],"categories":[],"categories_nodes":[],"categories_segments":[],"categories_sizes":[],"default_left":[0,0,0,0,0,0,0,0,0,0,0,0,0,0,0,0,0,0,0,0,0,0,0,0,0,0,0,0,0,0,0,0,0,0,0,0,0,0,0,0,0,0,0,0,0,0,0,0,0,0,0,0,0,0,0,0,0,0,0,0,0,0,0,0,0,0,0,0,0,0,0,0,0,0,0,0,0,0,0,0,0,0,0,0,0,0,0,0,0,0,0,0,0,0,0,0,0,0,0,0,0,0,0,0,0,0,0,0,0,0,0,0,0,0,0],"id":3,"left_children":[1,3,5,7,9,11,13,15,17,19,21,23,25,27,29,31,33,35,37,39,41,43,45,47,49,51,53,55,57,59,61,63,65,67,69,71,73,75,-1,77,79,-1,81,-1,83,85,-1,87,89,91,93,95,97,99,-1,101,103,105,107,109,111,113,-1,-1,-1,-1,-1,-1,-1,-1,-1,-1,-1,-1,-1,-1,-1,-1,-1,-1,-1,-1,-1,-1,-1,-1,-1,-1,-1,-1,-1,-1,-1,-1,-1,-1,-1,-1,-1,-1,-1,-1,-1,-1,-1,-1,-1,-1,-1,-1,-1,-1,-1,-1,-1],"loss_changes":[5.843202E3,1.7284214E3,7.107096E2,5.6335004E2,1.1350938E3,2.3247632E2,2.9010004E2,7.123767E1,2.1212215E2,3.164536E2,4.7626245E2,1.0046448E2,1.1052905E2,1.0950151E2,1.2032068E2,1.2633536E2,1.8942386E2,1.3441855E2,7.6302795E0,1.8547327E2,7.453906E1,2.914328E1,1.9089453E2,1.9151005E1,1.3262512E1,3.169165E1,2.367102E1,5.176263E1,1.3302322E1,6.6354324E1,2.239743E1,1.1853454E1,5.5880127E1,1.2304749E1,5.4032745E0,1.6818298E1,3.3034946E1,3.6593933E0,0E0,7.3497734E1,8.918298E1,0E0,3.5734375E1,0E0,9.3728256E-1,4.7652275E1,0E0,1.4830601E1,3.9631057E0,1.0341669E0,8.351685E0,3.6245483E1,1.8891602E1,1.6410126E1,0E0,2.1735245E1,1.1183205E0,4.586258E0,2.0559208E0,1.47482605E1,7.4368496E0,8.4205475E0,0E0,0E0,0E0,0E0,0E0,0E0,0E0,0E0,0E0,0E0,0E0,0E0,0E0,0E0,0E0,0E0,0E0,0E0,0E0,0E0,0E0,0E0,0E0,0E0,0E0,0E0,0E0,0E0,0E0,0E0,0E0,0E0,0E0,0E0,0E0,0E0,0E0,0E0,0E0,0E0,0E0,0E0,0E0,0E0,0E0,0E0,0E0,0E0,0E0,0E0,0E0,0E0,0E0],"parents":[2147483647,0,0,1,1,2,2,3,3,4,4,5,5,6,6,7,7,8,8,9,9,10,10,11,11,12,12,13,13,14,14,15,15,16,16,17,17,18,18,19,19,20,20,21,21,22,22,23,23,24,24,25,25,26,26,27,27,28,28,29,29,30,30,31,31,32,32,33,33,34,34,35,35,36,36,37,37,39,39,40,40,42,42,44,44,45,45,47,47,48,48,49,49,50,50,51,51,52,52,53,53,55,55,56,56,57,57,58,58,59,59,60,60,61,61],"right_children":[2,4,6,8,10,12,14,16,18,20,22,24,26,28,30,32,34,36,38,40,42,44,46,48,50,52,54,56,58,60,62,64,66,68,70,72,74,76,-1,78,80,-1,82,-1,84,86,-1,88,90,92,94,96,98,100,-1,102,104,106,108,110,112,114,-1,-1,-1,-1,-1,-1,-1,-1,-1,-1,-1,-1,-1,-1,-1,-1,-1,-1,-1,-1,-1,-1,-1,-1,-1,-1,-1,-1,-1,-1,-1,-1,-1,-1,-1,-1,-1,-1,-1,-1,-1,-1,-1,-1,-1,-1,-1,-1,-1,-1,-1,-1,-1],"split_conditions":[-1.45309E0,7E0,4.9665E2,-1.88E-1,3E0,-2.85E-2,-6.034854E-1,1.3E1,8.115E-1,5.1975E2,2.99E1,-6.034854E-1,3.39E-1,9.262E2,1.7E-1,2E0,7.6E-1,1.495E2,1.7E1,4.9056605E-1,3.015873E-1,2.1E1,3.392857E-1,8E0,-1.068E0,-6.034854E-1,8.115E-1,6.22E-1,2.02E-1,1.12875E3,1.0115E0,1.1E1,3E0,1.7E1,4E0,1.1565E2,7E0,2.631579E-1,3.7045974E-2,4E1,3.3E1,-2.0873998E-1,6.945E-1,-1.6505413E-1,7.8E-2,1.0115E0,1.8649822E-1,-1.2035E0,1.2698413E-1,4E0,-1.695E-1,5E0,1.08E-1,4.515E1,1.2583719E-1,6.578E2,8.127E2,1.0104E3,4.3E1,2.4E-1,2E0,2.3E1,1.311518E-1,-4.856425E-4,-4.4862166E-2,-3.667356E-2,-1.07010506E-1,9.7650446E-2,3.742842E-2,5.1819305E-3,-1.0340222E-1,5.935971E-2,1.7997395E-2,-8.20964E-2,2.0801132E-4,2.781801E-2,1.6842881E-1,-7.951414E-3,-9.512147E-2,-1.1472358E-1,-1.9176923E-1,-1.619024E-1,-7.491314E-2,-7.250362E-2,-7.265226E-3,1.3628001E-2,1.4988372E-1,-3.5208967E-2,1.9457664E-2,-3.2244485E-2,-2.1940242E-3,2.549803E-3,-2.3814522E-2,3.4474682E-2,4.462364E-2,5.498102E-2,2.0169735E-2,5.107817E-2,6.612405E-2,8.648484E-2,3.5589606E-2,-5.8650784E-3,-2.7276024E-2,9.731798E-2,2.8678348E-2,-5.416536E-2,-7.941716E-2,6.8380013E-3,-4.1589573E-2,9.871839E-3,2.6235638E-2,-4.472631E-2,-1.3742219E-2,6.8284534E-2,4.2238962E-2],"split_indices":[15,0,7,14,13,14,15,6,14,7,8,15,14,7,14,13,12,7,6,12,12,6,12,0,14,15,14,14,14,7,14,6,0,6,0,7,6,12,0,6,6,0,14,0,14,14,0,14,12,13,14,0,14,8,0,7,7,7,6,12,13,0,0,0,0,0,0,0,0,0,0,0,0,0,0,0,0,0,0,0,0,0,0,0,0,0,0,0,0,0,0,0,0,0,0,0,0,0,0,0,0,0,0,0,0,0,0,0,0,0,0,0,0,0,0],"split_type":[0,0,0,0,0,0,0,0,0,0,0,0,0,0,0,0,0,0,0,0,0,0,0,0,0,0,0,0,0,0,0,0,0,0,0,0,0,0,0,0,0,0,0,0,0,0,0,0,0,0,0,0,0,0,0,0,0,0,0,0,0,0,0,0,0,0,0,0,0,0,0,0,0,0,0,0,0,0,0,0,0,0,0,0,0,0,0,0,0,0,0,0,0,0,0,0,0,0,0,0,0,0,0,0,0,0,0,0,0,0,0,0,0,0,0],"sum_hessian":[5.911E3,1.559E3,4.352E3,5.5E2,1.009E3,2.88E3,1.472E3,3.18E2,2.32E2,8.55E2,1.54E2,1.356E3,1.524E3,6.11E2,8.61E2,2.43E2,7.5E1,1.97E2,3.5E1,3.61E2,4.94E2,4.3E1,1.11E2,4.53E2,9.03E2,1.294E3,2.3E2,4.87E2,1.24E2,7.07E2,1.54E2,7.4E1,1.69E2,4.2E1,3.3E1,1.49E2,4.8E1,3.3E1,2E0,9.7E1,2.64E2,1.11E2,3.83E2,2.9E1,1.4E1,8.9E1,2.2E1,3.04E2,1.49E2,1.7E1,8.86E2,3.03E2,9.91E2,1.89E2,4.1E1,4.76E2,1.1E1,1.15E2,9E0,5.67E2,1.4E2,1.44E2,1E1,5.4E1,2E1,3.8E1,1.31E2,1.3E1,2.9E1,1E0,3.2E1,1.16E2,3.3E1,2.6E1,2.2E1,1E0,3.2E1,5.3E1,4.4E1,2.15E2,4.9E1,3.68E2,1.5E1,1.3E1,1E0,8.3E1,6E0,1.2E1,2.92E2,1.1E1,1.38E2,1.3E1,4E0,4.32E2,4.54E2,1.5E2,1.53E2,6.47E2,3.44E2,1.69E2,2E1,2.41E2,2.35E2,9E0,2E0,4.1E1,7.4E1,7E0,2E0,2.46E2,3.21E2,2.3E1,1.17E2,6.5E1,7.9E1],"tree_param":{"num_deleted":"0","num_feature":"17","num_nodes":"115","size_leaf_vector":"1"}},{"base_weights":[1.4421722E-2,-1.5744386E0,5.6611377E-1,8.0783285E-2,-2.2559876E0,8.2602096E-1,-3.145704E-2,-9.7826207E-1,1.1164834E0,-2.3610175E0,7.686634E-1,7.212191E-1,1.6032761E0,2.2246858E-1,-7.23915E-1,-1.3996822E0,-1.033325E-1,7.725771E-1,1.6258089E-1,-1.8681793E0,-2.8361938E0,8.6622584E-1,-8.981531E-3,3.561051E-1,8.749035E-1,1.4011823E0,2.1575918E0,1.0568599E-1,1.3698429E0,-3.0645996E-1,-1.0591996E0,-1.9329343E0,-6.7928046E-1,1.418506E0,-9.7750926E-1,1.077158E0,6.257451E-2,-1.4412776E0,-2.5630214E0,-2.9581313E0,-1.1288067E0,9.9119776E-1,1.696445E-2,4.9418206E-3,-8.564512E-2,6.145889E-1,8.2572006E-2,7.2187954E-1,1.0280291E0,1.4850478E0,7.9519427E-1,2.2771454E0,1.2206264E0,2.1135809E-1,-3.0144253E-1,1.1622585E0,1.1618073E-1,7.733211E-2,-3.6416093E-1,-1.1569794E0,-1.2610924E-1,-6.2196612E-2,-1.3748772E-1,-8.027058E-2,-4.777974E-3,3.8676064E-2,9.7751305E-2,-2.563535E-2,-8.461591E-2,5.0623782E-2,8.5846566E-2,4.7425162E-2,-1.8433651E-2,-8.965739E-2,8.457797E-2,-1.1107146E-1,-1.8095087E-1,-1.6556905E-1,-1.2850305E-1,5.102386E-2,-1.102641E-1,6.7964555E-3,5.2631985E-2,-7.517561E-3,2.1182951E-4,1.6898798E-2,4.9334954E-2,-4.1009444E-3,1.227902E-2,-1.3724128E-2,3.701781E-2,5.438705E-2,3.6997017E-2,-1.1186976E-2,7.468669E-2,1.0526124E-2,5.8509436E-2,8.7875985E-2,1.2285177E-1,-2.3357997E-2,7.042693E-2,-1.148748E-2,1.8678283E-2,-9.8700775E-3,-3.8267195E-2,7.075183E-2,4.7199365E-2,-2.5489291E-2,1.2047631E-2,-4.8089214E-2,-7.4976645E-2,2.5528332E-3,-4.3626852E-2],"categories":[],"categories_nodes":[],"categories_segments":[],"categories_sizes":[],"default_left":[0,0,0,0,0,0,0,0,0,0,0,0,0,0,0,0,0,0,0,0,0,0,0,0,0,0,0,0,0,0,0,0,0,0,0,0,0,0,0,0,0,0,0,0,0,0,0,0,0,0,0,0,0,0,0,0,0,0,0,0,0,0,0,0,0,0,0,0,0,0,0,0,0,0,0,0,0,0,0,0,0,0,0,0,0,0,0,0,0,0,0,0,0,0,0,0,0,0,0,0,0,0,0,0,0,0,0,0,0,0,0,0,0],"id":4,"left_children":[1,3,5,7,9,11,13,15,17,19,21,23,25,27,29,31,33,35,-1,37,39,41,43,45,47,49,51,53,55,57,59,61,63,65,67,69,71,73,75,77,79,81,-1,-1,83,85,87,89,91,93,95,97,99,101,103,105,-1,-1,107,109,111,-1,-1,-1,-1,-1,-1,-1,-1,-1,-1,-1,-1,-1,-1,-1,-1,-1,-1,-1,-1,-1,-1,-1,-1,-1,-1,-1,-1,-1,-1,-1,-1,-1,-1,-1,-1,-1,-1,-1,-1,-1,-1,-1,-1,-1,-1,-1,-1,-1,-1,-1,-1],"loss_changes":[5.190035E3,1.7219033E3,6.8270593E2,4.9030264E2,3.4538428E2,2.4811621E2,2.3459634E2,8.119064E1,1.6303412E2,2.3895459E2,2.9006557E0,1.5112476E2,3.7285522E1,1.3048517E2,4.9646744E1,5.5664978E1,9.845848E1,4.220426E1,0E0,1.4896631E2,1.06595215E2,1.7037754E0,4.847427E-2,5.6584045E1,4.3603516E1,1.2262085E1,7.5123596E0,3.8215332E1,1.4769714E1,1.7660028E1,1.7790817E1,4.4017334E1,3.4815636E1,7.5581665E0,1.452734E1,3.6580505E0,2.3330946E1,3.580006E2,6.171692E1,5.8621582E1,8.7974E1,1.1043415E0,0E0,0E0,3.8512014E-2,4.194142E1,1.0526909E1,1.7812439E1,1.53029175E1,3.9491577E0,7.28928E0,3.0187073E0,4.8751736E0,5.0543667E1,8.585094E0,2.6215515E0,0E0,0E0,1.3984493E1,1.0280441E1,2.7715278E0,0E0,0E0,0E0,0E0,0E0,0E0,0E0,0E0,0E0,0E0,0E0,0E0,0E0,0E0,0E0,0E0,0E0,0E0,0E0,0E0,0E0,0E0,0E0,0E0,0E0,0E0,0E0,0E0,0E0,0E0,0E0,0E0,0E0,0E0,0E0,0E0,0E0,0E0,0E0,0E0,0E0,0E0,0E0,0E0,0E0,0E0,0E0,0E0,0E0,0E0,0E0,0E0],"parents":[2147483647,0,0,1,1,2,2,3,3,4,4,5,5,6,6,7,7,8,8,9,9,10,10,11,11,12,12,13,13,14,14,15,15,16,16,17,17,19,19,20,20,21,21,22,22,23,23,24,24,25,25,26,26,27,27,28,28,29,29,30,30,31,31,32,32,33,33,34,34,35,35,36,36,37,37,38,38,39,39,40,40,41,41,44,44,45,45,46,46,47,47,48,48,49,49,50,50,51,51,52,52,53,53,54,54,55,55,58,58,59,59,60,60],"right_children":[2,4,6,8,10,12,14,16,18,20,22,24,26,28,30,32,34,36,-1,38,40,42,44,46,48,50,52,54,56,58,60,62,64,66,68,70,72,74,76,78,80,82,-1,-1,84,86,88,90,92,94,96,98,100,102,104,106,-1,-1,108,110,112,-1,-1,-1,-1,-1,-1,-1,-1,-1,-1,-1,-1,-1,-1,-1,-1,-1,-1,-1,-1,-1,-1,-1,-1,-1,-1,-1,-1,-1,-1,-1,-1,-1,-1,-1,-1,-1,-1,-1,-1,-1,-1,-1,-1,-1,-1,-1,-1,-1,-1,-1,-1],"split_conditions":[-1.45309E0,6E0,5.397E2,-2.8E-1,1E0,2.345E-1,4.515E1,3E0,8.115E-1,1.6E1,2.2222222E-1,-6.034854E-1,6.22E-1,3.39E-1,1.8E1,7.8205127E-1,5.3968257E-1,1.1565E2,1.6258089E-1,7.3015875E-1,8.115E-1,1.8E1,7E0,2.322E2,-2.65E-2,4.515E1,1.2E1,2.6E1,1.146E0,7.1428575E-2,2.02E-1,4E0,2E0,-1.294E0,1.6E1,1E1,4.107143E-1,3.855E1,3.1E1,3.855E1,4E1,-5.51E-1,1.696445E-2,4.9418206E-3,1E1,-3.45E-2,-9.3E-2,-1.068E0,3.78E2,1.7857144E-2,1E0,3E0,5.357143E-2,-6.034854E-1,4.2E-1,8.841E2,1.1618073E-1,7.733211E-2,6E-2,2.4E1,2.8E1,-6.2196612E-2,-1.3748772E-1,-8.027058E-2,-4.777974E-3,3.8676064E-2,9.7751305E-2,-2.563535E-2,-8.461591E-2,5.0623782E-2,8.5846566E-2,4.7425162E-2,-1.8433651E-2,-8.965739E-2,8.457797E-2,-1.1107146E-1,-1.8095087E-1,-1.6556905E-1,-1.2850305E-1,5.102386E-2,-1.102641E-1,6.7964555E-3,5.2631985E-2,-7.517561E-3,2.1182951E-4,1.6898798E-2,4.9334954E-2,-4.1009444E-3,1.227902E-2,-1.3724128E-2,3.701781E-2,5.438705E-2,3.6997017E-2,-1.1186976E-2,7.468669E-2,1.0526124E-2,5.8509436E-2,8.7875985E-2,1.2285177E-1,-2.3357997E-2,7.042693E-2,-1.148748E-2,1.8678283E-2,-9.8700775E-3,-3.8267195E-2,7.075183E-2,4.7199365E-2,-2.5489291E-2,1.2047631E-2,-4.8089214E-2,-7.4976645E-2,2.5528332E-3,-4.3626852E-2],"split_indices":[15,0,7,14,3,14,8,2,14,0,12,15,14,14,0,12,12,7,0,12,14,0,0,7,14,8,0,0,14,12,14,0,2,14,6,6,12,8,6,8,6,14,0,0,0,14,14,14,7,12,4,0,12,15,12,7,0,0,14,0,0,0,0,0,0,0,0,0,0,0,0,0,0,0,0,0,0,0,0,0,0,0,0,0,0,0,0,0,0,0,0,0,0,0,0,0,0,0,0,0,0,0,0,0,0,0,0,0,0,0,0,0,0],"split_type":[0,0,0,0,0,0,0,0,0,0,0,0,0,0,0,0,0,0,0,0,0,0,0,0,0,0,0,0,0,0,0,0,0,0,0,0,0,0,0,0,0,0,0,0,0,0,0,0,0,0,0,0,0,0,0,0,0,0,0,0,0,0,0,0,0,0,0,0,0,0,0,0,0,0,0,0,0,0,0,0,0,0,0,0,0,0,0,0,0,0,0,0,0,0,0,0,0,0,0,0,0,0,0,0,0,0,0,0,0,0,0,0,0],"sum_hessian":[5.919E3,1.525E3,4.394E3,4.45E2,1.08E3,3.062E3,1.332E3,2.2E2,2.25E2,1.044E3,3.6E1,2.7E3,3.62E2,9.75E2,3.57E2,1.48E2,7.2E1,1.95E2,3E1,5.15E2,5.29E2,3.2E1,4E0,8.01E2,1.899E3,2.68E2,9.4E1,8.86E2,8.9E1,1.6E2,1.97E2,8.4E1,6.4E1,2.6E1,4.6E1,1.36E2,5.9E1,3.21E2,1.94E2,4.93E2,3.6E1,2.5E1,7E0,1E0,3E0,4.11E2,3.9E2,9.53E2,9.46E2,2.34E2,3.4E1,8.2E1,1.2E1,7.04E2,1.82E2,7.5E1,1.4E1,4E0,1.56E2,1.78E2,1.9E1,4.7E1,3.7E1,2.4E1,4E1,1.3E1,1.3E1,2.9E1,1.7E1,1.26E2,1E1,1.9E1,4E1,2.89E2,3.2E1,1.49E2,4.5E1,2.54E2,2.39E2,1.2E1,2.4E1,2E0,2.3E1,2E0,1E0,2.37E2,1.74E2,1.94E2,1.96E2,1.7E1,9.36E2,7.81E2,1.65E2,1E0,2.33E2,1.4E1,2E1,2.4E1,5.8E1,1E0,1.1E1,1.89E2,5.15E2,1.5E2,3.2E1,3.2E1,4.3E1,1.26E2,3E1,1.16E2,6.2E1,1.6E1,3E0],"tree_param":{"num_deleted":"0","num_feature":"17","num_nodes":"113","size_leaf_vector":"1"}},{"base_weights":[2.568643E-3,-1.5157548E0,5.3381395E-1,-8.20678E-3,-2.141718E0,8.022139E-1,2.7672506E-3,-9.3689084E-1,1.0659763E0,-2.5124943E0,-8.569377E-2,6.7292786E-1,1.328823E0,2.3488766E-1,-6.694517E-1,-1.9403589E0,-6.393901E-1,7.432166E-1,3.051365E0,-1.93848E0,-3.1850553E0,-2.42735E0,1.0850066E0,3.4696144E-1,8.0883825E-1,1.2050908E0,1.9973316E0,1.4419714E-1,1.2992436E0,-3.2228318E-1,-1.0848099E0,-1.2768881E0,-2.5774066E0,3.015315E-1,-8.4100515E-1,9.1357845E-1,-3.1024602E-1,7.1321264E-2,1.5900747E-1,6.0346854E-1,-2.0460842E0,-3.7355304E0,-2.9240663E0,-2.8031616E0,-6.260156E-1,3.0873412E-1,3.6369567E0,7.4407077E-1,2.0465058E-1,5.918426E-1,8.883815E-1,6.8413705E-1,1.3479699E0,2.0831606E0,1.0013713E0,3.078926E-1,-1.545904E-1,1.0831327E0,1.874151E0,7.70899E-2,-3.7628418E-1,-1.1703886E0,4.0167674E-2,-7.856463E-2,-3.2159995E-2,-1.348294E-1,1.0532601E-2,-1.0123376E-3,3.3552375E-2,-6.40283E-2,-1.0219023E-2,5.1470626E-2,2.2204923E-2,5.2309472E-2,-4.883917E-2,3.098951E-4,4.4725914E-2,-7.242307E-2,-1.1718924E-1,-1.8919264E-1,6.2367864E-2,-1.4964418E-1,-5.3316522E-2,-1.8243523E-1,-1.1782359E-1,-1.3416438E-4,-4.2346492E-2,4.3970738E-3,9.950217E-2,1.9960111E-1,1.04431644E-1,-2.9524395E-3,4.5823164E-2,-8.964959E-3,1.3775508E-2,-1.045581E-2,3.140607E-2,4.6551414E-2,3.2349173E-2,5.7960626E-2,2.3689387E-2,6.052756E-2,7.581079E-2,8.4681444E-2,1.1347449E-1,-2.2774046E-2,6.2645644E-2,-6.664097E-3,2.3650642E-2,-2.1475328E-3,-2.191769E-2,9.70853E-3,5.6830145E-2,6.287904E-2,1.1374139E-1,-2.621591E-2,1.006413E-2,-6.2238883E-2,-1.9679612E-2],"categories":[],"categories_nodes":[],"categories_segments":[],"categories_sizes":[],"default_left":[0,0,0,0,0,0,0,0,0,0,0,0,0,0,0,0,0,0,0,0,0,0,0,0,0,0,0,0,0,0,0,0,0,0,0,0,0,0,0,0,0,0,0,0,0,0,0,0,0,0,0,0,0,0,0,0,0,0,0,0,0,0,0,0,0,0,0,0,0,0,0,0,0,0,0,0,0,0,0,0,0,0,0,0,0,0,0,0,0,0,0,0,0,0,0,0,0,0,0,0,0,0,0,0,0,0,0,0,0,0,0,0,0,0,0,0,0,0,0],"id":5,"left_children":[1,3,5,7,9,11,13,15,17,19,21,23,25,27,29,31,33,35,37,39,41,43,45,47,49,51,53,55,57,59,61,63,65,67,69,71,73,-1,-1,75,77,79,81,83,85,87,89,91,93,95,97,99,101,103,105,107,109,111,113,-1,115,117,-1,-1,-1,-1,-1,-1,-1,-1,-1,-1,-1,-1,-1,-1,-1,-1,-1,-1,-1,-1,-1,-1,-1,-1,-1,-1,-1,-1,-1,-1,-1,-1,-1,-1,-1,-1,-1,-1,-1,-1,-1,-1,-1,-1,-1,-1,-1,-1,-1,-1,-1,-1,-1,-1,-1,-1,-1],"loss_changes":[4.783055E3,1.4501875E3,6.2606445E2,4.5189038E2,8.2741064E2,1.9757227E2,2.3042253E2,7.104474E1,1.3192143E2,3.4848828E2,4.6057803E2,1.0349255E2,4.475183E1,1.05654945E2,5.4161194E1,1.9569977E1,3.6161575E1,3.3007263E1,1.0718079E0,1.378678E2,4.9038574E1,3.5812134E1,2.2035555E2,3.8859833E1,2.7875122E1,3.5123657E1,5.12796E0,4.9608917E1,8.359283E0,2.140135E1,2.8769836E1,4.17815E0,9.7883E0,4.121341E0,4.324408E1,7.933441E0,2.4521946E1,0E0,0E0,3.5549278E0,8.1446045E1,3.675708E1,3.360547E1,8.175446E0,1.4274983E0,3.19134E1,5.347748E0,2.5338074E1,1.3961552E1,1.3162094E1,1.1676025E1,9.980179E0,6.7006836E0,1.5664978E0,3.9485512E0,4.7811703E1,1.1305901E1,2.7358704E0,2.2209778E0,0E0,1.7494253E1,8.880783E0,0E0,0E0,0E0,0E0,0E0,0E0,0E0,0E0,0E0,0E0,0E0,0E0,0E0,0E0,0E0,0E0,0E0,0E0,0E0,0E0,0E0,0E0,0E0,0E0,0E0,0E0,0E0,0E0,0E0,0E0,0E0,0E0,0E0,0E0,0E0,0E0,0E0,0E0,0E0,0E0,0E0,0E0,0E0,0E0,0E0,0E0,0E0,0E0,0E0,0E0,0E0,0E0,0E0,0E0,0E0,0E0,0E0],"parents":[2147483647,0,0,1,1,2,2,3,3,4,4,5,5,6,6,7,7,8,8,9,9,10,10,11,11,12,12,13,13,14,14,15,15,16,16,17,17,18,18,19,19,20,20,21,21,22,22,23,23,24,24,25,25,26,26,27,27,28,28,29,29,30,30,31,31,32,32,33,33,34,34,35,35,36,36,39,39,40,40,41,41,42,42,43,43,44,44,45,45,46,46,47,47,48,48,49,49,50,50,51,51,52,52,53,53,54,54,55,55,56,56,57,57,58,58,60,60,61,61],"right_children":[2,4,6,8,10,12,14,16,18,20,22,24,26,28,30,32,34,36,38,40,42,44,46,48,50,52,54,56,58,60,62,64,66,68,70,72,74,-1,-1,76,78,80,82,84,86,88,90,92,94,96,98,100,102,104,106,108,110,112,114,-1,116,118,-1,-1,-1,-1,-1,-1,-1,-1,-1,-1,-1,-1,-1,-1,-1,-1,-1,-1,-1,-1,-1,-1,-1,-1,-1,-1,-1,-1,-1,-1,-1,-1,-1,-1,-1,-1,-1,-1,-1,-1,-1,-1,-1,-1,-1,-1,-1,-1,-1,-1,-1,-1,-1,-1,-1,-1,-1],"split_conditions":[-1.45309E0,6E0,4.9665E2,-2.62E-1,3E0,1.355E-1,4.515E1,-1.793E0,8.115E-1,6.168E2,2.99E1,-6.034854E-1,6.22E-1,3.39E-1,1.9E1,3E0,3E0,1.495E2,1.146E0,1.2280702E-1,3.392857E-1,4.0350878E-1,3.392857E-1,1.17E2,-1.64E-1,-6.034854E-1,1.2E1,8.0325E2,2E0,7.1428575E-2,4E0,-2.538E0,1.3E1,-1.068E0,3E0,1.1565E2,2.6984128E-1,7.1321264E-2,1.5900747E-1,2E0,9E0,5.1255E0,6.945E-1,-5.22E-1,7E0,5.03E-1,2.8E1,-5.34E-1,-3.515E-1,-1.068E0,3.855E2,1.95E2,2.75E-1,3E0,5.357143E-2,-6.034854E-1,3.1E1,2E0,6.63E-1,7.70899E-2,3E-2,1.58E-1,4.0167674E-2,-7.856463E-2,-3.2159995E-2,-1.348294E-1,1.0532601E-2,-1.0123376E-3,3.3552375E-2,-6.40283E-2,-1.0219023E-2,5.1470626E-2,2.2204923E-2,5.2309472E-2,-4.883917E-2,3.098951E-4,4.4725914E-2,-7.242307E-2,-1.1718924E-1,-1.8919264E-1,6.2367864E-2,-1.4964418E-1,-5.3316522E-2,-1.8243523E-1,-1.1782359E-1,-1.3416438E-4,-4.2346492E-2,4.3970738E-3,9.950217E-2,1.9960111E-1,1.04431644E-1,-2.9524395E-3,4.5823164E-2,-8.964959E-3,1.3775508E-2,-1.045581E-2,3.140607E-2,4.6551414E-2,3.2349173E-2,5.7960626E-2,2.3689387E-2,6.052756E-2,7.581079E-2,8.4681444E-2,1.1347449E-1,-2.2774046E-2,6.2645644E-2,-6.664097E-3,2.3650642E-2,-2.1475328E-3,-2.191769E-2,9.70853E-3,5.6830145E-2,6.287904E-2,1.1374139E-1,-2.621591E-2,1.006413E-2,-6.2238883E-2,-1.9679612E-2],"split_indices":[15,0,7,14,13,14,8,14,14,7,8,15,14,14,0,0,0,7,14,12,12,12,12,7,14,15,0,7,2,12,13,14,6,14,2,7,12,0,0,2,0,14,14,14,0,14,0,14,14,14,7,7,14,0,12,15,0,13,14,0,14,14,0,0,0,0,0,0,0,0,0,0,0,0,0,0,0,0,0,0,0,0,0,0,0,0,0,0,0,0,0,0,0,0,0,0,0,0,0,0,0,0,0,0,0,0,0,0,0,0,0,0,0,0,0,0,0,0,0],"split_type":[0,0,0,0,0,0,0,0,0,0,0,0,0,0,0,0,0,0,0,0,0,0,0,0,0,0,0,0,0,0,0,0,0,0,0,0,0,0,0,0,0,0,0,0,0,0,0,0,0,0,0,0,0,0,0,0,0,0,0,0,0,0,0,0,0,0,0,0,0,0,0,0,0,0,0,0,0,0,0,0,0,0,0,0,0,0,0,0,0,0,0,0,0,0,0,0,0,0,0,0,0,0,0,0,0,0,0,0,0,0,0,0,0,0,0,0,0,0,0],"sum_hessian":[5.928E3,1.536E3,4.392E3,4.51E2,1.085E3,2.917E3,1.475E3,2.42E2,2.09E2,9.19E2,1.66E2,2.344E3,5.73E2,1.097E3,3.78E2,5.4E1,1.88E2,1.81E2,2.8E1,4.98E2,4.21E2,5.5E1,1.11E2,6.91E2,1.653E3,4.86E2,8.7E1,1.012E3,8.5E1,2.07E2,1.71E2,2.8E1,2.6E1,3.3E1,1.55E2,1.56E2,2.5E1,3E0,2.5E1,2E1,4.78E2,1.31E2,2.9E2,4.5E1,1E1,8.6E1,2.5E1,1.81E2,5.1E2,4.46E2,1.207E3,1.06E2,3.8E2,7.9E1,8E0,6.54E2,3.58E2,6.4E1,2.1E1,5E0,2.02E2,1.64E2,7E0,1.8E1,1E1,2.5E1,1E0,1.8E1,1.5E1,9.1E1,6.4E1,1.24E2,3.2E1,8E0,1.7E1,7E0,1.3E1,1.61E2,3.17E2,1.3E2,1E0,2.79E2,1.1E1,1.3E1,3.2E1,3E0,7E0,7.7E1,9E0,1.9E1,6E0,3.2E1,1.49E2,7.9E1,4.31E2,1.9E1,4.27E2,1.023E3,1.84E2,3.1E1,7.5E1,2.14E2,1.66E2,2.9E1,5E1,1E0,7E0,1.78E2,4.76E2,2.58E2,1E2,4E0,6E1,1E1,1.1E1,1.61E2,4.1E1,1.49E2,1.5E1],"tree_param":{"num_deleted":"0","num_feature":"17","num_nodes":"119","size_leaf_vector":"1"}},{"base_weights":[-2.9299706E-3,-1.4297047E0,5.072915E-1,-4.5432676E-2,-2.016838E0,7.0454735E-1,-1.558579E-1,8.7068874E-1,-4.455184E-1,-2.3613942E0,-3.0016404E-2,3.2401246E-1,8.6701167E-1,1.4586252E-1,-8.1406623E-1,4.995037E-1,1.0274383E0,-8.0998576E-1,3.3984867E-1,-1.8052201E0,-2.9454074E0,-2.345884E0,1.0239056E0,5.998142E-1,1.1032101E-1,9.4353443E-1,6.0470015E-1,2.3196472E-1,-2.675248E-1,-8.737205E-1,4.4702664E-2,4.478158E-2,-1.16882786E-1,2.536504E0,7.6562226E-1,-2.0821052E0,-4.1551402E-1,1.7805498E0,-9.9857545E-1,-7.783447E-1,-2.128119E0,-3.4605691E0,-2.7233863E0,-2.7261467E0,-1.0169513E0,4.3179572E-1,3.5643919E0,8.708717E-1,5.0228214E-1,2.9716524E-3,3.2054633E-1,1.5101742E0,9.198268E-1,5.810773E-1,7.47703E-2,-1.16530746E-1,3.3533415E-1,-3.3348095E-1,1.0025699E0,-6.56892E-1,-1.2813357E0,3.7018645E-3,-5.6474783E-2,2.9386941E-2,1.4019935E-1,4.583287E-2,5.0839293E-3,-6.2243976E-2,-1.1925864E-1,1.0368687E-2,-5.2844584E-2,1.269247E-1,4.2475324E-2,-4.2998303E-2,-8.377919E-2,-7.956411E-3,-8.098701E-2,-9.66001E-2,-1.751893E-1,-7.733103E-2,-1.761478E-1,-1.1197286E-1,-1.4011268E-1,-1.0649756E-1,-1.721903E-1,-6.1808404E-2,-1.9948553E-2,9.754809E-3,1.07396916E-1,1.8897724E-1,8.400526E-2,4.767379E-2,3.5775673E-2,3.0942572E-2,1.6997896E-2,-2.3782406E-2,3.2440436E-3,9.7850874E-2,1.2817629E-2,1.01250485E-1,6.0103316E-2,4.320621E-2,5.494387E-2,2.6562765E-2,3.8264707E-2,9.387946E-3,-9.954489E-3,8.696224E-4,2.1839885E-2,-2.9039899E-2,-8.879601E-3,2.1888157E-2,6.9406115E-2,5.9817906E-2,-3.4584727E-2,-5.202613E-2,-7.194617E-2],"categories":[],"categories_nodes":[],"categories_segments":[],"categories_sizes":[],"default_left":[0,0,0,0,0,0,0,0,0,0,0,0,0,0,0,0,0,0,0,0,0,0,0,0,0,0,0,0,0,0,0,0,0,0,0,0,0,0,0,0,0,0,0,0,0,0,0,0,0,0,0,0,0,0,0,0,0,0,0,0,0,0,0,0,0,0,0,0,0,0,0,0,0,0,0,0,0,0,0,0,0,0,0,0,0,0,0,0,0,0,0,0,0,0,0,0,0,0,0,0,0,0,0,0,0,0,0,0,0,0,0,0,0,0,0,0,0],"id":6,"left_children":[1,3,5,7,9,11,13,15,17,19,21,23,25,27,29,31,33,35,37,39,41,43,45,47,49,51,53,55,57,59,-1,-1,61,63,65,67,69,71,73,75,77,79,81,83,85,87,89,91,93,95,97,99,101,103,-1,105,107,109,111,113,115,-1,-1,-1,-1,-1,-1,-1,-1,-1,-1,-1,-1,-1,-1,-1,-1,-1,-1,-1,-1,-1,-1,-1,-1,-1,-1,-1,-1,-1,-1,-1,-1,-1,-1,-1,-1,-1,-1,-1,-1,-1,-1,-1,-1,-1,-1,-1,-1,-1,-1,-1,-1,-1,-1,-1,-1],"loss_changes":[4.286383E3,1.260281E3,5.6748816E2,1.7004742E2,7.451885E2,2.0627539E2,1.9778749E2,7.537918E0,9.277804E1,2.9563428E2,3.979347E2,5.8917152E1,4.6285156E1,2.43689E1,3.267276E1,1.0925946E1,3.6447334E1,1.09786255E2,2.0046793E2,1.5654675E2,4.154077E1,2.2625854E1,1.6653696E2,1.0978149E1,1.2739933E1,2.269629E1,1.0117233E1,2.0450417E1,1.0152353E1,2.57444E1,0E0,0E0,3.669077E0,5.310463E0,8.328659E0,9.8619995E0,6.822019E1,3.278868E1,3.372841E0,6.0001045E1,9.062158E1,9.805664E0,5.4335938E0,8.79422E0,1.1044207E0,3.671798E1,1.6176147E0,6.138687E-1,5.824463E0,1.113103E1,1.934176E1,8.505463E0,1.621814E1,4.2363586E0,0E0,3.3043551E0,1.404438E1,4.177617E0,5.163188E-1,1.3676628E1,2.2015228E0,0E0,0E0,0E0,0E0,0E0,0E0,0E0,0E0,0E0,0E0,0E0,0E0,0E0,0E0,0E0,0E0,0E0,0E0,0E0,0E0,0E0,0E0,0E0,0E0,0E0,0E0,0E0,0E0,0E0,0E0,0E0,0E0,0E0,0E0,0E0,0E0,0E0,0E0,0E0,0E0,0E0,0E0,0E0,0E0,0E0,0E0,0E0,0E0,0E0,0E0,0E0,0E0,0E0,0E0,0E0,0E0],"parents":[2147483647,0,0,1,1,2,2,3,3,4,4,5,5,6,6,7,7,8,8,9,9,10,10,11,11,12,12,13,13,14,14,15,15,16,16,17,17,18,18,19,19,20,20,21,21,22,22,23,23,24,24,25,25,26,26,27,27,28,28,29,29,32,32,33,33,34,34,35,35,36,36,37,37,38,38,39,39,40,40,41,41,42,42,43,43,44,44,45,45,46,46,47,47,48,48,49,49,50,50,51,51,52,52,53,53,55,55,56,56,57,57,58,58,59,59,60,60],"right_children":[2,4,6,8,10,12,14,16,18,20,22,24,26,28,30,32,34,36,38,40,42,44,46,48,50,52,54,56,58,60,-1,-1,62,64,66,68,70,72,74,76,78,80,82,84,86,88,90,92,94,96,98,100,102,104,-1,106,108,110,112,114,116,-1,-1,-1,-1,-1,-1,-1,-1,-1,-1,-1,-1,-1,-1,-1,-1,-1,-1,-1,-1,-1,-1,-1,-1,-1,-1,-1,-1,-1,-1,-1,-1,-1,-1,-1,-1,-1,-1,-1,-1,-1,-1,-1,-1,-1,-1,-1,-1,-1,-1,-1,-1,-1,-1,-1,-1],"split_conditions":[-1.45309E0,6E0,6.321E2,5.98E1,3E0,-6.034854E-1,4.515E1,3.859649E-1,1.1E1,1.7E1,2.99E1,2.322E2,1.3E1,3.1E1,4E0,2E0,5.6E-1,2.99E1,7.719298E-1,5.0793654E-1,3.392857E-1,2.3E1,3.392857E-1,3E0,1E0,1.3207547E-1,4.6E1,-6.034854E-1,5E1,2.2E1,4.4702664E-2,4.478158E-2,3.508772E-1,2E0,2E0,1.5789473E-1,1E0,1.1565E2,8.730159E-1,1.1E1,3.3E1,2E0,2E0,1.0526316E-1,4.6E-1,1E0,2.8E1,2E0,7.936508E-1,2E0,1.7857143E-1,-1.3239264E-1,2.2E0,5.2E-1,7.47703E-2,7.1428575E-2,2E0,8.77193E-2,5.2E1,3.773585E-2,2.8E1,3.7018645E-3,-5.6474783E-2,2.9386941E-2,1.4019935E-1,4.583287E-2,5.0839293E-3,-6.2243976E-2,-1.1925864E-1,1.0368687E-2,-5.2844584E-2,1.269247E-1,4.2475324E-2,-4.2998303E-2,-8.377919E-2,-7.956411E-3,-8.098701E-2,-9.66001E-2,-1.751893E-1,-7.733103E-2,-1.761478E-1,-1.1197286E-1,-1.4011268E-1,-1.0649756E-1,-1.721903E-1,-6.1808404E-2,-1.9948553E-2,9.754809E-3,1.07396916E-1,1.8897724E-1,8.400526E-2,4.767379E-2,3.5775673E-2,3.0942572E-2,1.6997896E-2,-2.3782406E-2,3.2440436E-3,9.7850874E-2,1.2817629E-2,1.01250485E-1,6.0103316E-2,4.320621E-2,5.494387E-2,2.6562765E-2,3.8264707E-2,9.387946E-3,-9.954489E-3,8.696224E-4,2.1839885E-2,-2.9039899E-2,-8.879601E-3,2.1888157E-2,6.9406115E-2,5.9817906E-2,-3.4584727E-2,-5.202613E-2,-7.194617E-2],"split_indices":[15,0,7,7,13,15,8,12,6,0,8,7,0,0,13,0,12,8,12,12,12,6,12,6,4,12,6,15,0,0,0,0,12,0,0,12,5,7,12,0,6,13,13,12,12,4,0,0,12,13,12,15,11,12,0,12,13,12,0,12,6,0,0,0,0,0,0,0,0,0,0,0,0,0,0,0,0,0,0,0,0,0,0,0,0,0,0,0,0,0,0,0,0,0,0,0,0,0,0,0,0,0,0,0,0,0,0,0,0,0,0,0,0,0,0,0,0],"split_type":[0,0,0,0,0,0,0,0,0,0,0,0,0,0,0,0,0,0,0,0,0,0,0,0,0,0,0,0,0,0,0,0,0,0,0,0,0,0,0,0,0,0,0,0,0,0,0,0,0,0,0,0,0,0,0,0,0,0,0,0,0,0,0,0,0,0,0,0,0,0,0,0,0,0,0,0,0,0,0,0,0,0,0,0,0,0,0,0,0,0,0,0,0,0,0,0,0,0,0,0,0,0,0,0,0,0,0,0,0,0,0,0,0,0,0,0,0],"sum_hessian":[5.886E3,1.55E3,4.336E3,4.62E2,1.088E3,3.342E3,9.94E2,1.4E2,3.22E2,9.27E2,1.61E2,1.001E3,2.341E3,6.82E2,3.12E2,4.3E1,9.7E1,2.2E2,1.02E2,4.77E2,4.5E2,5E1,1.11E2,4.36E2,5.65E2,1.81E3,5.31E2,5.65E2,1.17E2,3.02E2,1E1,2.6E1,1.7E1,1.3E1,8.4E1,5.1E1,1.69E2,4.9E1,5.3E1,1.15E2,3.62E2,1.31E2,3.19E2,3.8E1,1.2E1,9.1E1,2E1,1.13E2,3.23E2,3.75E2,1.9E2,7E1,1.74E3,5.19E2,1.2E1,1.29E2,4.36E2,1.12E2,5E0,1.99E2,1.03E2,1.5E1,2E0,2E0,1.1E1,6.8E1,1.6E1,1.5E1,3.6E1,8.6E1,8.3E1,2.6E1,2.3E1,4.6E1,7E0,6.7E1,4.8E1,3.19E2,4.3E1,5E0,1.26E2,4.9E1,2.7E2,2.3E1,1.5E1,8E0,4E0,8.1E1,1E1,1.7E1,3E0,7E1,4.3E1,1.86E2,1.37E2,4.2E1,3.33E2,6E0,1.84E2,2.4E1,4.6E1,1.332E3,4.08E2,4.12E2,1.07E2,2.7E1,1.02E2,1.06E2,3.3E2,4.2E1,7E1,3E0,2E0,3E0,1.96E2,4.4E1,5.9E1],"tree_param":{"num_deleted":"0","num_feature":"17","num_nodes":"117","size_leaf_vector":"1"}},{"base_weights":[5.6254426E-5,-1.3580824E0,4.8002037E-1,1.2603088E-1,-1.8307773E0,7.138389E-1,-3.7486352E-2,-8.282519E-1,1.0601923E0,-1.9252293E0,8.399683E-1,5.9510803E-1,1.2711476E0,1.8950233E-1,-6.3953483E-1,-1.7900652E0,-5.1909214E-1,7.491087E-1,2.7686906E0,-1.3398817E0,-2.189935E0,6.73316E-1,7.694743E-2,2.8657353E-1,7.253143E-1,1.1175234E0,1.8237562E0,8.410806E-2,1.22426E0,-3.9398202E-1,-1.0896932E0,-1.2538764E0,-1.169191E-1,1.5118143E-1,-7.1458703E-1,9.1757965E-1,2.7631413E-2,8.1166774E-2,1.4677504E-1,-1.474465E0,6.801127E-1,-1.8250217E0,-2.4708557E0,9.60495E-1,4.313636E-1,1.10050306E-1,6.249513E-1,6.1847067E-1,8.508855E-1,7.689121E-1,1.2049458E0,1.6831894E0,1.2604602E-1,1.6012843E-1,-4.3413517E-1,1.0345348E0,2.200262E0,6.8427525E-2,-4.2189997E-1,-1.1696804E0,-1.8401594E-1,-7.412894E-2,-2.850308E-2,-6.214689E-3,2.483523E-2,-7.5356446E-2,-2.327547E-2,-2.5658112E-3,4.7064256E-2,-3.7786733E-2,2.1130197E-2,-5.5074185E-2,-9.877849E-2,1.3242894E-1,-1.7018875E-2,-5.45504E-3,-1.06098525E-1,-1.0929749E-1,-1.5700006E-1,6.4250245E-3,5.3545862E-2,2.6686087E-2,-0E0,1.3841485E-2,-7.2009526E-3,4.7124516E-2,1.9786203E-2,-7.2584055E-2,3.1222168E-2,4.483964E-2,3.107223E-2,5.3110283E-2,2.3467233E-2,5.489701E-2,6.622429E-2,8.912639E-2,6.4922884E-2,-1.0460977E-2,1.415716E-2,-3.1683054E-2,-1.4379675E-2,5.3168904E-2,-8.644227E-4,1.1699026E-1,4.376678E-2,-2.605207E-2,5.24699E-3,-5.0270427E-2,-7.160165E-2,4.312214E-3,-3.8554873E-2],"categories":[],"categories_nodes":[],"categories_segments":[],"categories_sizes":[],"default_left":[0,0,0,0,0,0,0,0,0,0,0,0,0,0,0,0,0,0,0,0,0,0,0,0,0,0,0,0,0,0,0,0,0,0,0,0,0,0,0,0,0,0,0,0,0,0,0,0,0,0,0,0,0,0,0,0,0,0,0,0,0,0,0,0,0,0,0,0,0,0,0,0,0,0,0,0,0,0,0,0,0,0,0,0,0,0,0,0,0,0,0,0,0,0,0,0,0,0,0,0,0,0,0,0,0,0,0,0,0,0,0],"id":7,"left_children":[1,3,5,7,9,11,13,15,17,19,21,23,25,27,29,31,33,35,37,39,41,43,-1,45,47,49,51,53,55,57,59,61,-1,63,65,67,69,-1,-1,71,73,75,77,79,81,83,85,87,89,91,93,95,-1,97,99,101,103,-1,105,107,109,-1,-1,-1,-1,-1,-1,-1,-1,-1,-1,-1,-1,-1,-1,-1,-1,-1,-1,-1,-1,-1,-1,-1,-1,-1,-1,-1,-1,-1,-1,-1,-1,-1,-1,-1,-1,-1,-1,-1,-1,-1,-1,-1,-1,-1,-1,-1,-1,-1,-1],"loss_changes":[3.8869404E3,1.092688E3,5.33232E2,3.3697955E2,2.996416E2,1.998822E2,1.8766125E2,5.444507E1,9.908798E1,1.7350488E2,3.518526E0,1.00284485E2,4.283142E1,1.0849654E2,4.098448E1,9.938797E0,1.8902386E1,1.9692444E1,3.19458E-1,9.840723E1,7.542993E1,1.878418E0,0E0,4.435772E1,2.293982E1,1.1645752E1,6.5081787E0,3.5735832E1,1.4436127E1,1.2538273E1,9.211777E0,2.8593216E0,0E0,3.2400198E0,2.101305E1,3.1690903E0,1.0187122E1,0E0,0E0,6.0315613E1,4.733475E1,1.7533667E2,7.648682E1,1.1205044E0,9.35035E-1,2.0858553E1,1.8054306E1,1.2631805E1,7.7804565E0,6.9922256E0,2.5631104E0,1.1227722E0,0E0,3.6005917E1,3.1173458E0,2.519699E0,2.1875E-1,0E0,1.2736343E1,3.53125E0,2.0389652E0,0E0,0E0,0E0,0E0,0E0,0E0,0E0,0E0,0E0,0E0,0E0,0E0,0E0,0E0,0E0,0E0,0E0,0E0,0E0,0E0,0E0,0E0,0E0,0E0,0E0,0E0,0E0,0E0,0E0,0E0,0E0,0E0,0E0,0E0,0E0,0E0,0E0,0E0,0E0,0E0,0E0,0E0,0E0,0E0,0E0,0E0,0E0,0E0,0E0,0E0],"parents":[2147483647,0,0,1,1,2,2,3,3,4,4,5,5,6,6,7,7,8,8,9,9,10,10,11,11,12,12,13,13,14,14,15,15,16,16,17,17,18,18,19,19,20,20,21,21,23,23,24,24,25,25,26,26,27,27,28,28,29,29,30,30,31,31,33,33,34,34,35,35,36,36,39,39,40,40,41,41,42,42,43,43,44,44,45,45,46,46,47,47,48,48,49,49,50,50,51,51,53,53,54,54,55,55,56,56,58,58,59,59,60,60],"right_children":[2,4,6,8,10,12,14,16,18,20,22,24,26,28,30,32,34,36,38,40,42,44,-1,46,48,50,52,54,56,58,60,62,-1,64,66,68,70,-1,-1,72,74,76,78,80,82,84,86,88,90,92,94,96,-1,98,100,102,104,-1,106,108,110,-1,-1,-1,-1,-1,-1,-1,-1,-1,-1,-1,-1,-1,-1,-1,-1,-1,-1,-1,-1,-1,-1,-1,-1,-1,-1,-1,-1,-1,-1,-1,-1,-1,-1,-1,-1,-1,-1,-1,-1,-1,-1,-1,-1,-1,-1,-1,-1,-1,-1],"split_conditions":[-1.45309E0,5E0,5.397E2,-2.71E-1,1E0,1.53E-1,2.55E1,-1.793E0,5.355E-1,1E1,1.89E-1,-6.034854E-1,5.355E-1,3.255E-1,2.1E1,3E0,3E0,1.1565E2,1.146E0,5.8E-1,1.1E0,2.526E2,7.694743E-2,-2.85E-2,-2.65E-2,-6.034854E-1,1.146E0,3E1,1.146E0,7.1428575E-2,2.02E-1,-2.538E0,-1.169191E-1,-1.2035E0,3.5897437E-1,1.2E-1,2E0,8.1166774E-2,1.4677504E-1,7.6785713E-1,1.1E0,2.631579E-1,2.5E1,4.761905E-2,1.6981132E-1,8E0,4E0,-1.793E0,3.78E2,2.709E2,2.75E-1,7.4E-1,1.2604602E-1,-6.034854E-1,8.77193E-2,5.9E1,2.2E0,6.8427525E-2,6E-2,2.5E1,2.8E1,-7.412894E-2,-2.850308E-2,-6.214689E-3,2.483523E-2,-7.5356446E-2,-2.327547E-2,-2.5658112E-3,4.7064256E-2,-3.7786733E-2,2.1130197E-2,-5.5074185E-2,-9.877849E-2,1.3242894E-1,-1.7018875E-2,-5.45504E-3,-1.06098525E-1,-1.0929749E-1,-1.5700006E-1,6.4250245E-3,5.3545862E-2,2.6686087E-2,-0E0,1.3841485E-2,-7.2009526E-3,4.7124516E-2,1.9786203E-2,-7.2584055E-2,3.1222168E-2,4.483964E-2,3.107223E-2,5.3110283E-2,2.3467233E-2,5.489701E-2,6.622429E-2,8.912639E-2,6.4922884E-2,-1.0460977E-2,1.415716E-2,-3.1683054E-2,-1.4379675E-2,5.3168904E-2,-8.644227E-4,1.1699026E-1,4.376678E-2,-2.605207E-2,5.24699E-3,-5.0270427E-2,-7.160165E-2,4.312214E-3,-3.8554873E-2],"split_indices":[15,0,7,14,3,14,9,14,14,0,14,15,14,14,0,0,0,7,14,14,11,7,0,14,14,15,14,0,14,12,14,14,0,14,12,12,2,0,0,12,11,12,0,12,12,0,0,14,7,7,14,12,0,15,12,6,11,0,14,0,0,0,0,0,0,0,0,0,0,0,0,0,0,0,0,0,0,0,0,0,0,0,0,0,0,0,0,0,0,0,0,0,0,0,0,0,0,0,0,0,0,0,0,0,0,0,0,0,0,0,0],"split_type":[0,0,0,0,0,0,0,0,0,0,0,0,0,0,0,0,0,0,0,0,0,0,0,0,0,0,0,0,0,0,0,0,0,0,0,0,0,0,0,0,0,0,0,0,0,0,0,0,0,0,0,0,0,0,0,0,0,0,0,0,0,0,0,0,0,0,0,0,0,0,0,0,0,0,0,0,0,0,0,0,0,0,0,0,0,0,0,0,0,0,0,0,0,0,0,0,0,0,0,0,0,0,0,0,0,0,0,0,0,0,0],"sum_hessian":[5.961E3,1.556E3,4.405E3,3.76E2,1.18E3,3.034E3,1.371E3,1.86E2,1.9E2,1.14E3,4E1,2.503E3,5.31E2,9.96E2,3.75E2,4.4E1,1.42E2,1.62E2,2.8E1,3.57E2,7.83E2,3.4E1,6E0,7.44E2,1.759E3,4.18E2,1.13E2,9.05E2,9.1E1,2.44E2,1.31E2,2.4E1,2E1,3.2E1,1.1E2,1.31E2,3.1E1,5E0,2.3E1,3.35E2,2.2E1,3.44E2,4.39E2,1.4E1,2E1,4.9E2,2.54E2,9.54E2,8.05E2,8.6E1,3.32E2,9.7E1,1.6E1,7.9E2,1.15E2,7.8E1,1.3E1,3E0,2.41E2,1.2E2,1.1E1,1.7E1,7E0,1.8E1,1.4E1,2.5E1,8.5E1,3E0,1.28E2,1E1,2.1E1,1.94E2,1.41E2,7E0,1.5E1,5.1E1,2.93E2,3.11E2,1.28E2,2E0,1.2E1,1.6E1,4E0,2.96E2,1.94E2,1.05E2,1.49E2,2E0,9.52E2,6.68E2,1.37E2,4.2E1,4.4E1,1.81E2,1.51E2,7.4E1,2.3E1,1.97E2,5.93E2,4.7E1,6.8E1,7.6E1,2E0,1.1E1,2E0,2.03E2,3.8E1,7.7E1,4.3E1,8E0,3E0],"tree_param":{"num_deleted":"0","num_feature":"17","num_nodes":"111","size_leaf_vector":"1"}},{"base_weights":[-5.845993E-3,-1.2791549E0,4.486157E-1,1.0787083E-1,-1.7660524E0,6.652305E-1,-4.043609E-2,-9.828734E-1,8.869408E-1,-2.0532384E0,-1.9530863E-1,5.4364854E-1,1.1274167E0,-4.7599542E-1,2.8432012E-1,-1.6915812E0,-6.3751304E-1,6.385078E-1,2.723813E0,-1.4616333E0,-2.6110916E0,1.0529633E0,-2.0837297E0,2.5438884E-1,6.717449E-1,1.0034562E0,1.7109389E0,-3.1837445E-1,-1.0960785E0,1.00228705E-1,8.541343E-1,-1.1218979E0,-1.16316274E-1,9.417206E-2,-8.7252843E-1,8.5942245E-1,-1.4850132E-1,7.026342E-2,1.4404255E-1,-6.1457866E-1,-1.8078642E0,-3.1779792E0,-2.4062483E0,3.618003E-1,3.2416062E0,-2.4890084E0,-6.2023956E-1,6.843731E-1,1.1273739E-1,4.825207E-1,7.533167E-1,5.704002E-1,1.1171749E0,1.5714417E0,1.2368464E-1,-4.3650037E-1,1.2140197E-1,-1.2006955E0,-1.671372E-1,2.4055313E-1,-2.7900395E-1,7.579555E-1,2.193261E0,-6.631207E-2,-2.7507616E-2,-6.396971E-3,1.9253692E-2,-6.798246E-2,-3.586197E-2,4.0282354E-2,7.649731E-2,4.2648986E-2,-2.4049055E-2,-2.1847777E-2,-1.7391203E-1,-1.0624851E-1,-2.8100787E-2,-1.612414E-1,6.913736E-2,-1.22278474E-1,-0E0,7.243757E-3,9.712796E-2,1.6833656E-1,5.6337018E-2,-1.5205222E-1,-1.0045364E-1,4.660409E-3,-5.1347863E-2,9.6641965E-3,4.1428745E-2,-1.197486E-2,8.970502E-3,-8.713122E-3,2.5508502E-2,4.1290883E-2,3.0904064E-2,4.5720845E-2,1.6023668E-2,4.9985524E-2,6.1958518E-2,8.204191E-2,4.0374376E-2,-1.3676147E-2,-2.991573E-2,8.289159E-4,5.725191E-2,-6.286361E-2,2.5152002E-2,3.3735227E-2,-2.4858011E-2,1.8298756E-3,1.7412752E-2,-4.1425817E-2,-8.1866225E-3,5.3492844E-2,2.612566E-2,1.22684896E-1,5.1698137E-2],"categories":[],"categories_nodes":[],"categories_segments":[],"categories_sizes":[],"default_left":[0,0,0,0,0,0,0,0,0,0,0,0,0,0,0,0,0,0,0,0,0,0,0,0,0,0,0,0,0,0,0,0,0,0,0,0,0,0,0,0,0,0,0,0,0,0,0,0,0,0,0,0,0,0,0,0,0,0,0,0,0,0,0,0,0,0,0,0,0,0,0,0,0,0,0,0,0,0,0,0,0,0,0,0,0,0,0,0,0,0,0,0,0,0,0,0,0,0,0,0,0,0,0,0,0,0,0,0,0,0,0,0,0,0,0,0,0,0,0],"id":8,"left_children":[1,3,5,7,9,11,13,15,17,19,21,23,25,27,29,31,33,35,37,39,41,43,45,47,49,51,53,55,57,59,61,63,-1,65,67,69,71,-1,-1,73,75,77,79,81,83,85,87,89,91,93,95,97,99,101,-1,103,105,107,109,111,113,115,117,-1,-1,-1,-1,-1,-1,-1,-1,-1,-1,-1,-1,-1,-1,-1,-1,-1,-1,-1,-1,-1,-1,-1,-1,-1,-1,-1,-1,-1,-1,-1,-1,-1,-1,-1,-1,-1,-1,-1,-1,-1,-1,-1,-1,-1,-1,-1,-1,-1,-1,-1,-1,-1,-1,-1,-1],"loss_changes":[3.4385361E3,1.0559116E3,4.6398267E2,3.4671695E2,5.212915E2,1.6976733E2,1.9040556E2,4.0297806E1,1.0653343E2,3.1854443E2,4.2660452E2,8.8849304E1,4.3654236E1,5.5709E1,8.069524E1,1.6933472E1,2.0107037E1,3.6883575E1,1.320755E0,1.3853949E2,5.008838E1,1.6335211E2,4.0850037E1,4.4914974E1,2.522821E1,2.4949951E1,7.3060303E0,2.3981045E1,1.09357605E1,3.1141184E1,2.2256073E1,2.7045326E0,0E0,1.9487454E0,5.473839E0,4.4833527E0,1.602276E1,0E0,0E0,6.93E1,1.3206946E2,3.2419678E1,3.5275635E1,2.8313965E1,2.6373901E0,8.222046E0,5.122016E0,1.2696983E1,1.314126E1,9.293106E0,1.0738281E1,9.127132E0,4.4556274E0,3.4667206E0,0E0,9.32222E0,1.0380383E1,1.073262E1,3.9294343E0,9.328428E0,9.773333E0,1.2279701E1,7.3729324E-1,0E0,0E0,0E0,0E0,0E0,0E0,0E0,0E0,0E0,0E0,0E0,0E0,0E0,0E0,0E0,0E0,0E0,0E0,0E0,0E0,0E0,0E0,0E0,0E0,0E0,0E0,0E0,0E0,0E0,0E0,0E0,0E0,0E0,0E0,0E0,0E0,0E0,0E0,0E0,0E0,0E0,0E0,0E0,0E0,0E0,0E0,0E0,0E0,0E0,0E0,0E0,0E0,0E0,0E0,0E0,0E0],"parents":[2147483647,0,0,1,1,2,2,3,3,4,4,5,5,6,6,7,7,8,8,9,9,10,10,11,11,12,12,13,13,14,14,15,15,16,16,17,17,18,18,19,19,20,20,21,21,22,22,23,23,24,24,25,25,26,26,27,27,28,28,29,29,30,30,31,31,33,33,34,34,35,35,36,36,39,39,40,40,41,41,42,42,43,43,44,44,45,45,46,46,47,47,48,48,49,49,50,50,51,51,52,52,53,53,55,55,56,56,57,57,58,58,59,59,60,60,61,61,62,62],"right_children":[2,4,6,8,10,12,14,16,18,20,22,24,26,28,30,32,34,36,38,40,42,44,46,48,50,52,54,56,58,60,62,64,-1,66,68,70,72,-1,-1,74,76,78,80,82,84,86,88,90,92,94,96,98,100,102,-1,104,106,108,110,112,114,116,118,-1,-1,-1,-1,-1,-1,-1,-1,-1,-1,-1,-1,-1,-1,-1,-1,-1,-1,-1,-1,-1,-1,-1,-1,-1,-1,-1,-1,-1,-1,-1,-1,-1,-1,-1,-1,-1,-1,-1,-1,-1,-1,-1,-1,-1,-1,-1,-1,-1,-1,-1,-1,-1,-1,-1,-1],"split_conditions":[-1.45309E0,2.5E1,5.397E2,-5.22E-1,3E0,1.235E-1,-6.034854E-1,-1.793E0,8.115E-1,5.052E2,6.6E1,-6.034854E-1,5.355E-1,9.683E2,9.95E-2,9E0,9E0,1.1565E2,1.146E0,5.2E-1,3.207547E-1,2.8301886E-1,3E0,1.17E2,-1.535E-1,-6.034854E-1,1.146E0,6E-2,1.355E-1,6.76E2,1.0115E0,-2.538E0,-1.16316274E-1,-1.294E0,3.508772E-1,1.3E1,4E-1,7.026342E-2,1.4404255E-1,1E0,1E0,5.1255E0,1.4235E0,1E0,1.156E3,-5.22E-1,4.9E1,-3.77E-1,-3.515E-1,-1.2035E0,1E2,2.709E2,2.345E-1,1.44E2,1.2368464E-1,7.02E2,6.22E-1,4E0,1.0395E3,1.904762E-1,2E0,4.84E2,4E0,-6.631207E-2,-2.7507616E-2,-6.396971E-3,1.9253692E-2,-6.798246E-2,-3.586197E-2,4.0282354E-2,7.649731E-2,4.2648986E-2,-2.4049055E-2,-2.1847777E-2,-1.7391203E-1,-1.0624851E-1,-2.8100787E-2,-1.612414E-1,6.913736E-2,-1.22278474E-1,-0E0,7.243757E-3,9.712796E-2,1.6833656E-1,5.6337018E-2,-1.5205222E-1,-1.0045364E-1,4.660409E-3,-5.1347863E-2,9.6641965E-3,4.1428745E-2,-1.197486E-2,8.970502E-3,-8.713122E-3,2.5508502E-2,4.1290883E-2,3.0904064E-2,4.5720845E-2,1.6023668E-2,4.9985524E-2,6.1958518E-2,8.204191E-2,4.0374376E-2,-1.3676147E-2,-2.991573E-2,8.289159E-4,5.725191E-2,-6.286361E-2,2.5152002E-2,3.3735227E-2,-2.4858011E-2,1.8298756E-3,1.7412752E-2,-4.1425817E-2,-8.1866225E-3,5.3492844E-2,2.612566E-2,1.22684896E-1,5.1698137E-2],"split_indices":[15,1,7,14,13,14,15,14,14,7,10,15,14,7,14,1,1,7,14,12,12,12,2,7,14,15,14,14,14,1,14,14,0,14,12,6,12,0,0,4,4,14,14,4,1,14,1,14,14,14,1,7,14,1,0,7,14,13,7,12,13,1,13,0,0,0,0,0,0,0,0,0,0,0,0,0,0,0,0,0,0,0,0,0,0,0,0,0,0,0,0,0,0,0,0,0,0,0,0,0,0,0,0,0,0,0,0,0,0,0,0,0,0,0,0,0,0,0,0],"split_type":[0,0,0,0,0,0,0,0,0,0,0,0,0,0,0,0,0,0,0,0,0,0,0,0,0,0,0,0,0,0,0,0,0,0,0,0,0,0,0,0,0,0,0,0,0,0,0,0,0,0,0,0,0,0,0,0,0,0,0,0,0,0,0,0,0,0,0,0,0,0,0,0,0,0,0,0,0,0,0,0,0,0,0,0,0,0,0,0,0,0,0,0,0,0,0,0,0,0,0,0,0,0,0,0,0,0,0,0,0,0,0,0,0,0,0,0,0,0,0],"sum_hessian":[5.94E3,1.562E3,4.378E3,4.06E2,1.156E3,3.034E3,1.344E3,1.69E2,2.37E2,9.77E2,1.79E2,2.404E3,6.3E2,5.74E2,7.7E2,5.4E1,1.15E2,2.1E2,2.7E1,4.76E2,5.01E2,1.08E2,7.1E1,7.39E2,1.665E3,5.22E2,1.08E2,4.59E2,1.15E2,5.83E2,1.87E2,3E1,2.4E1,2.8E1,8.7E1,1.64E2,4.6E1,4E0,2.3E1,1.39E2,3.37E2,1.29E2,3.72E2,8.3E1,2.5E1,5.5E1,1.6E1,1.82E2,5.57E2,5.04E2,1.161E3,1.1E2,4.12E2,9.4E1,1.4E1,3.62E2,9.7E1,1.03E2,1.2E1,4.26E2,1.57E2,1.76E2,1.1E1,2.1E1,9E0,1.6E1,1.2E1,1.9E1,6.8E1,1.54E2,1E1,1.1E1,3.5E1,1.32E2,7E0,2.68E2,6.9E1,1.28E2,1E0,3.66E2,6E0,7.4E1,9E0,2.3E1,2E0,2.3E1,3.2E1,6E0,1E1,4.2E1,1.4E2,8.8E1,4.69E2,2E1,4.84E2,7.52E2,4.09E2,4.5E1,6.5E1,2.15E2,1.97E2,8.5E1,9E0,1.82E2,1.8E2,8.9E1,8E0,1E2,3E0,3E0,9E0,1.48E2,2.78E2,2.6E1,1.31E2,7.4E1,1.02E2,8E0,3E0],"tree_param":{"num_deleted":"0","num_feature":"17","num_nodes":"119","size_leaf_vector":"1"}},{"base_weights":[1.1663943E-3,-1.2304417E0,4.4191566E-1,-1.3215089E-1,-1.8138156E0,6.2627614E-1,-5.4992586E-2,-8.229651E-1,8.111004E-1,-2.1168067E0,2.220489E-1,5.115482E-1,1.1103693E0,1.672132E-1,-6.6216993E-1,-1.7269682E0,-6.489156E-1,5.4454523E-1,2.501421E0,-1.5605116E0,-2.4381046E0,-2.0766E0,9.419971E-1,2.329216E-1,6.359605E-1,9.87078E-1,1.6419218E0,7.236939E-2,1.1508218E0,-7.0925754E-1,4.221719E-2,-2.0685742E0,3.1253555E-1,1.0977191E-1,-9.3303615E-1,8.130507E-1,-5.1412356E-1,2.6299024E0,4.7584817E-2,-6.357184E-1,-1.907132E0,-2.0105262E0,-2.6445553E0,-2.5976357E0,-9.834041E-1,3.5733446E-1,1.5876733E-1,5.0855976E-1,3.6842063E-2,4.3123862E-1,7.1775335E-1,5.8513826E-1,1.0982282E0,1.4312389E0,2.0174472E0,1.4536251E-1,-4.049511E-1,9.488997E-1,9.510224E-2,-5.136101E-1,-1.0983728E0,-6.345242E-2,-1.3521451E-1,-0E0,2.5331145E-2,-4.2225204E-2,5.318919E-2,-7.2724655E-2,-2.9785294E-2,4.3495044E-2,2.613999E-2,7.646809E-3,-6.1359156E-2,6.7452885E-2,1.3914995E-1,-4.9593467E-2,3.8042326E-2,-7.8230105E-2,-1.4590596E-1,-8.453248E-2,-1.328877E-1,-1.3417874E-1,-9.7801825E-3,-1.501727E-1,-9.2044525E-2,-5.3508926E-2,-0E0,6.8666353E-3,1.0577115E-1,-1.8933275E-3,3.416344E-2,-7.7404664E-3,7.421022E-3,5.049914E-2,2.0453772E-2,3.9839853E-2,2.9333396E-2,5.1010072E-2,2.0011874E-2,5.68494E-2,3.835419E-2,-2.5523314E-2,7.326339E-2,7.4320264E-2,1.11506656E-1,-8.516936E-3,1.2086203E-2,2.4821011E-2,-2.1412198E-2,7.46724E-2,3.859542E-2,-2.9970229E-2,-1.9786938E-4,-5.945758E-2,-1.5505105E-2],"categories":[],"categories_nodes":[],"categories_segments":[],"categories_sizes":[],"default_left":[0,0,0,0,0,0,0,0,0,0,0,0,0,0,0,0,0,0,0,0,0,0,0,0,0,0,0,0,0,0,0,0,0,0,0,0,0,0,0,0,0,0,0,0,0,0,0,0,0,0,0,0,0,0,0,0,0,0,0,0,0,0,0,0,0,0,0,0,0,0,0,0,0,0,0,0,0,0,0,0,0,0,0,0,0,0,0,0,0,0,0,0,0,0,0,0,0,0,0,0,0,0,0,0,0,0,0,0,0,0,0,0,0,0,0],"id":9,"left_children":[1,3,5,7,9,11,13,15,17,19,21,23,25,27,29,31,33,35,37,39,41,43,45,47,49,51,53,55,57,59,-1,61,63,65,67,69,71,73,-1,75,77,79,81,83,85,87,-1,89,91,93,95,97,99,101,103,105,107,109,-1,111,113,-1,-1,-1,-1,-1,-1,-1,-1,-1,-1,-1,-1,-1,-1,-1,-1,-1,-1,-1,-1,-1,-1,-1,-1,-1,-1,-1,-1,-1,-1,-1,-1,-1,-1,-1,-1,-1,-1,-1,-1,-1,-1,-1,-1,-1,-1,-1,-1,-1,-1,-1,-1,-1,-1],"loss_changes":[3.2172776E3,1.0003616E3,3.9997034E2,3.5449365E2,6.298452E2,1.7610583E2,1.5963368E2,4.8046936E1,1.0196292E2,1.5451343E2,2.2194548E2,8.9060974E1,3.802765E1,8.058284E1,2.3072708E1,3.5657455E1,5.7307793E1,5.7299564E1,3.3114166E0,1.0367444E2,4.3739258E1,1.5314392E1,1.3169919E2,4.300218E1,2.9381287E1,2.1392883E1,5.707855E0,2.7592228E1,9.438377E0,2.2722519E1,0E0,1.8026459E1,5.0190616E-1,6.7378815E1,3.2877853E1,2.0460815E0,1.979689E1,1.3229675E0,0E0,4.6040054E1,7.740387E1,3.3786987E1,3.5020752E1,4.356537E-1,9.930973E-1,3.1200378E1,0E0,3.1689522E1,1.0008736E1,5.9994583E0,1.2553223E1,8.298424E0,3.9174194E0,5.865097E0,6.053772E-1,2.0947855E1,2.4102993E0,4.596237E0,0E0,8.988453E0,6.7802734E0,0E0,0E0,0E0,0E0,0E0,0E0,0E0,0E0,0E0,0E0,0E0,0E0,0E0,0E0,0E0,0E0,0E0,0E0,0E0,0E0,0E0,0E0,0E0,0E0,0E0,0E0,0E0,0E0,0E0,0E0,0E0,0E0,0E0,0E0,0E0,0E0,0E0,0E0,0E0,0E0,0E0,0E0,0E0,0E0,0E0,0E0,0E0,0E0,0E0,0E0,0E0,0E0,0E0,0E0],"parents":[2147483647,0,0,1,1,2,2,3,3,4,4,5,5,6,6,7,7,8,8,9,9,10,10,11,11,12,12,13,13,14,14,15,15,16,16,17,17,18,18,19,19,20,20,21,21,22,22,23,23,24,24,25,25,26,26,27,27,28,28,29,29,31,31,32,32,33,33,34,34,35,35,36,36,37,37,39,39,40,40,41,41,42,42,43,43,44,44,45,45,47,47,48,48,49,49,50,50,51,51,52,52,53,53,54,54,55,55,56,56,57,57,59,59,60,60],"right_children":[2,4,6,8,10,12,14,16,18,20,22,24,26,28,30,32,34,36,38,40,42,44,46,48,50,52,54,56,58,60,-1,62,64,66,68,70,72,74,-1,76,78,80,82,84,86,88,-1,90,92,94,96,98,100,102,104,106,108,110,-1,112,114,-1,-1,-1,-1,-1,-1,-1,-1,-1,-1,-1,-1,-1,-1,-1,-1,-1,-1,-1,-1,-1,-1,-1,-1,-1,-1,-1,-1,-1,-1,-1,-1,-1,-1,-1,-1,-1,-1,-1,-1,-1,-1,-1,-1,-1,-1,-1,-1,-1,-1,-1,-1,-1,-1],"split_conditions":[-1.45309E0,7E0,5.67E2,-1.88E-1,3E0,1.405E-1,2.55E1,2.948718E-1,8.115E-1,4.465E2,1.82E1,-6.034854E-1,5.355E-1,3.515E-1,4E0,1.82E1,5.3968257E-1,1.495E2,6E0,4.9056605E-1,1E0,2.1E1,3.392857E-1,1.95E2,-1.535E-1,-6.034854E-1,9E-1,3.1E1,1.146E0,2.2E1,4.221719E-2,1.5789473E-1,-7.62E-1,9E0,8.5897434E-1,1.1565E2,1E0,1.146E0,4.7584817E-2,1.82E1,2.9E1,5.9E1,1.4235E0,-3.135E-1,6.55E-2,7.44E-1,1.5876733E-1,-3.325E-1,3.392857E-1,4.761905E-2,1E1,1.95E2,1.4E1,5.357143E-2,3E0,-6.034854E-1,-1.068E0,1E0,9.510224E-2,6E-2,1.355E-1,-6.345242E-2,-1.3521451E-1,-0E0,2.5331145E-2,-4.2225204E-2,5.318919E-2,-7.2724655E-2,-2.9785294E-2,4.3495044E-2,2.613999E-2,7.646809E-3,-6.1359156E-2,6.7452885E-2,1.3914995E-1,-4.9593467E-2,3.8042326E-2,-7.8230105E-2,-1.4590596E-1,-8.453248E-2,-1.328877E-1,-1.3417874E-1,-9.7801825E-3,-1.501727E-1,-9.2044525E-2,-5.3508926E-2,-0E0,6.8666353E-3,1.0577115E-1,-1.8933275E-3,3.416344E-2,-7.7404664E-3,7.421022E-3,5.049914E-2,2.0453772E-2,3.9839853E-2,2.9333396E-2,5.1010072E-2,2.0011874E-2,5.68494E-2,3.835419E-2,-2.5523314E-2,7.326339E-2,7.4320264E-2,1.11506656E-1,-8.516936E-3,1.2086203E-2,2.4821011E-2,-2.1412198E-2,7.46724E-2,3.859542E-2,-2.9970229E-2,-1.9786938E-4,-5.945758E-2,-1.5505105E-2],"split_indices":[15,0,7,14,13,14,9,12,14,7,9,15,14,14,13,9,12,7,0,12,5,6,12,7,14,15,14,0,14,0,0,12,14,6,12,7,5,14,0,9,6,6,14,14,14,14,0,14,12,12,0,7,0,12,0,15,14,5,0,14,14,0,0,0,0,0,0,0,0,0,0,0,0,0,0,0,0,0,0,0,0,0,0,0,0,0,0,0,0,0,0,0,0,0,0,0,0,0,0,0,0,0,0,0,0,0,0,0,0,0,0,0,0,0,0],"split_type":[0,0,0,0,0,0,0,0,0,0,0,0,0,0,0,0,0,0,0,0,0,0,0,0,0,0,0,0,0,0,0,0,0,0,0,0,0,0,0,0,0,0,0,0,0,0,0,0,0,0,0,0,0,0,0,0,0,0,0,0,0,0,0,0,0,0,0,0,0,0,0,0,0,0,0,0,0,0,0,0,0,0,0,0,0,0,0,0,0,0,0,0,0,0,0,0,0,0,0,0,0,0,0,0,0,0,0,0,0,0,0,0,0,0,0],"sum_hessian":[5.925E3,1.561E3,4.364E3,5.42E2,1.019E3,3.183E3,1.181E3,3.13E2,2.29E2,8.87E2,1.32E2,2.575E3,6.08E2,8.65E2,3.16E2,4.9E1,2.64E2,1.99E2,3E1,3.27E2,5.6E2,3.1E1,1.01E2,7.96E2,1.779E3,4.96E2,1.12E2,7.9E2,7.5E1,3.07E2,9E0,4.2E1,7E0,7.2E1,1.92E2,1.59E2,4E1,2.7E1,3E0,9E1,2.37E2,1.86E2,3.74E2,2E1,1.1E1,8.1E1,2E1,3.3E2,4.66E2,5.1E2,1.269E3,1.09E2,3.87E2,7.5E1,3.7E1,6.86E2,1.04E2,6.1E1,1.4E1,2.06E2,1.01E2,2E1,2.2E1,3E0,4E0,3.6E1,3.6E1,7.4E1,1.18E2,1.31E2,2.8E1,2.1E1,1.9E1,4E0,2.3E1,7.2E1,1.8E1,1.79E2,5.8E1,1.27E2,5.9E1,3.68E2,6E0,1.1E1,9E0,1E1,1E0,7.3E1,8E0,8E1,2.5E2,1.71E2,2.95E2,1.7E1,4.93E2,7.88E2,4.81E2,3.1E1,7.8E1,3.44E2,4.3E1,1E0,7.4E1,1.3E1,2.4E1,1.6E2,5.26E2,2E0,1.02E2,1.3E1,4.8E1,1.76E2,3E1,9E1,1.1E1],"tree_param":{"num_deleted":"0","num_feature":"17","num_nodes":"115","size_leaf_vector":"1"}},{"base_weights":[6.506926E-3,-1.1344115E0,4.1401824E-1,-8.248217E-2,-1.6935896E0,6.267439E-1,4.892658E-3,-7.340253E-1,7.768053E-1,-1.7691461E0,7.41501E-1,3.8964933E-1,8.344067E-1,-3.5987285E-1,2.6839787E-1,-4.4793734E-1,-1.4039263E0,5.2026045E-1,2.4835317E0,-1.4811906E0,-2.1901507E0,4.4848529E-1,7.5768024E-2,1.1748033E-1,5.281129E-1,7.479216E-1,1.3369576E0,-2.1004553E-1,-8.919037E-1,1.3973565E-1,8.429826E-1,-1.137955E0,-1.9278662E-1,-9.09804E-1,-1.8068513E0,7.7393E-1,-4.1172558E-1,1.759525E-2,1.2707266E-1,-1.103901E0,-2.1326954E0,-2.5876467E0,-1.812411E0,5.0667816E-1,-9.4424136E-2,2.2620368E-1,-6.751914E-2,-2.7237555E-1,5.4618907E-1,8.29672E-1,6.2067705E-1,1.2361155E0,1.9585294E0,-2.9666916E-1,4.8658538E-1,-9.883446E-1,1.19629735E-2,3.1837803E-1,-1.2058577E-1,7.825952E-1,1.8573725E0,-7.089897E-2,3.884728E-2,5.093925E-2,-3.0471956E-2,-6.5216176E-2,1.7368648E-2,-1.5919432E-1,-6.847816E-2,4.251575E-2,2.0562563E-2,2.6103107E-2,-4.5808483E-2,-7.074584E-2,4.176644E-2,-1.2936197E-1,-6.21288E-2,-1.3958429E-1,-8.007126E-2,-7.588767E-2,-1.41534E-1,1.1322725E-3,2.883247E-2,-9.081787E-3,-0E0,-3.802186E-2,1.3644765E-2,-5.1869135E-3,1.3726628E-2,-4.1408148E-2,-3.770927E-3,2.8833268E-2,1.8307017E-2,3.8386267E-2,5.10885E-2,1.2511777E-2,3.6248636E-2,3.963145E-2,6.695411E-2,1.0067312E-1,3.889778E-2,-5.4085017E-3,-2.0886058E-2,1.5863415E-2,5.5526387E-2,-5.6331534E-2,-3.51271E-2,2.0050703E-2,-8.687942E-3,7.0582754E-3,2.2188125E-2,-2.4637414E-2,1.6379257E-3,5.255569E-2,3.2247405E-2,1.6517797E-2,1.0070192E-1],"categories":[],"categories_nodes":[],"categories_segments":[],"categories_sizes":[],"default_left":[0,0,0,0,0,0,0,0,0,0,0,0,0,0,0,0,0,0,0,0,0,0,0,0,0,0,0,0,0,0,0,0,0,0,0,0,0,0,0,0,0,0,0,0,0,0,0,0,0,0,0,0,0,0,0,0,0,0,0,0,0,0,0,0,0,0,0,0,0,0,0,0,0,0,0,0,0,0,0,0,0,0,0,0,0,0,0,0,0,0,0,0,0,0,0,0,0,0,0,0,0,0,0,0,0,0,0,0,0,0,0,0,0,0,0,0,0],"id":10,"left_children":[1,3,5,7,9,11,13,15,17,19,21,23,25,27,29,31,33,35,37,39,41,43,-1,45,47,49,51,53,55,57,59,61,63,65,67,69,71,-1,-1,73,75,77,79,81,83,85,87,89,91,93,95,97,99,101,103,105,107,109,111,113,115,-1,-1,-1,-1,-1,-1,-1,-1,-1,-1,-1,-1,-1,-1,-1,-1,-1,-1,-1,-1,-1,-1,-1,-1,-1,-1,-1,-1,-1,-1,-1,-1,-1,-1,-1,-1,-1,-1,-1,-1,-1,-1,-1,-1,-1,-1,-1,-1,-1,-1,-1,-1,-1,-1,-1,-1],"loss_changes":[2.727719E3,9.0788794E2,3.7617102E2,3.0121228E2,1.8687329E2,1.3957886E2,1.423415E2,5.7831024E1,9.998915E1,1.1495215E2,6.1533394E0,4.9995102E1,6.4638306E1,4.9204086E1,6.336144E1,3.7676178E1,1.6202042E1,4.8347416E1,2.5203247E0,1.4087268E2,5.4179443E1,8.4731054E-1,0E0,9.0823345E0,1.2923996E1,1.2810974E1,1.1111969E1,2.945288E1,1.1964539E1,3.27973E1,7.8996735E0,3.2266495E1,8.084384E1,2.1875954E1,2.4690018E1,3.9566574E0,2.124363E1,0E0,0E0,2.2560458E2,8.2581604E1,3.3323364E1,5.707721E1,6.721158E-1,3.923533E-2,1.3242043E1,2.0803323E0,2.0365076E0,4.424591E0,8.377991E0,1.946376E1,7.538666E0,3.5194397E-2,9.782501E0,5.209667E0,3.886856E0,1.103979E0,9.166698E0,1.644094E1,4.696602E0,1.014061E0,0E0,0E0,0E0,0E0,0E0,0E0,0E0,0E0,0E0,0E0,0E0,0E0,0E0,0E0,0E0,0E0,0E0,0E0,0E0,0E0,0E0,0E0,0E0,0E0,0E0,0E0,0E0,0E0,0E0,0E0,0E0,0E0,0E0,0E0,0E0,0E0,0E0,0E0,0E0,0E0,0E0,0E0,0E0,0E0,0E0,0E0,0E0,0E0,0E0,0E0,0E0,0E0,0E0,0E0,0E0,0E0],"parents":[2147483647,0,0,1,1,2,2,3,3,4,4,5,5,6,6,7,7,8,8,9,9,10,10,11,11,12,12,13,13,14,14,15,15,16,16,17,17,18,18,19,19,20,20,21,21,23,23,24,24,25,25,26,26,27,27,28,28,29,29,30,30,31,31,32,32,33,33,34,34,35,35,36,36,39,39,40,40,41,41,42,42,43,43,44,44,45,45,46,46,47,47,48,48,49,49,50,50,51,51,52,52,53,53,54,54,55,55,56,56,57,57,58,58,59,59,60,60],"right_children":[2,4,6,8,10,12,14,16,18,20,22,24,26,28,30,32,34,36,38,40,42,44,-1,46,48,50,52,54,56,58,60,62,64,66,68,70,72,-1,-1,74,76,78,80,82,84,86,88,90,92,94,96,98,100,102,104,106,108,110,112,114,116,-1,-1,-1,-1,-1,-1,-1,-1,-1,-1,-1,-1,-1,-1,-1,-1,-1,-1,-1,-1,-1,-1,-1,-1,-1,-1,-1,-1,-1,-1,-1,-1,-1,-1,-1,-1,-1,-1,-1,-1,-1,-1,-1,-1,-1,-1,-1,-1,-1,-1,-1,-1,-1,-1,-1,-1],"split_conditions":[-1.45309E0,7E0,4.9665E2,-1.88E-1,1E0,-2.85E-2,-6.034854E-1,1E0,8.115E-1,2.1E1,1.89E-1,-6.034854E-1,3.39E-1,9.135E2,1.475E-1,3.773585E-1,4E0,1.495E2,2.631579E-1,7.1428573E-1,3.855E1,1.5789473E-1,7.5768024E-2,2.73E2,-1.2035E0,2.52E2,9E-1,1.475E-1,2.02E-1,8.0325E2,1.146E0,1E0,7.6E-1,-1.294E0,-7.815E-1,1.1565E2,2.6984128E-1,1.759525E-2,1.2707266E-1,3.855E1,1E0,1E0,5.9E1,3.1746034E-2,1E1,-1.2035E0,-5.7E-2,-1.793E0,1.3E1,1.355E-1,-6.034854E-1,-6.034854E-1,4.0635E2,6.24E2,6.63E-1,-5.25E-2,1.0395E3,2.2807017E-1,1E-1,2.3E1,4.21E1,-7.089897E-2,3.884728E-2,5.093925E-2,-3.0471956E-2,-6.5216176E-2,1.7368648E-2,-1.5919432E-1,-6.847816E-2,4.251575E-2,2.0562563E-2,2.6103107E-2,-4.5808483E-2,-7.074584E-2,4.176644E-2,-1.2936197E-1,-6.21288E-2,-1.3958429E-1,-8.007126E-2,-7.588767E-2,-1.41534E-1,1.1322725E-3,2.883247E-2,-9.081787E-3,-0E0,-3.802186E-2,1.3644765E-2,-5.1869135E-3,1.3726628E-2,-4.1408148E-2,-3.770927E-3,2.8833268E-2,1.8307017E-2,3.8386267E-2,5.10885E-2,1.2511777E-2,3.6248636E-2,3.963145E-2,6.695411E-2,1.0067312E-1,3.889778E-2,-5.4085017E-3,-2.0886058E-2,1.5863415E-2,5.5526387E-2,-5.6331534E-2,-3.51271E-2,2.0050703E-2,-8.687942E-3,7.0582754E-3,2.2188125E-2,-2.4637414E-2,1.6379257E-3,5.255569E-2,3.2247405E-2,1.6517797E-2,1.0070192E-1],"split_indices":[15,0,7,14,3,14,15,5,14,0,14,15,14,7,14,12,0,7,12,12,8,12,0,7,14,7,14,14,14,7,14,3,12,14,14,7,12,0,0,8,4,4,6,12,0,14,14,14,0,14,15,15,7,7,14,14,7,12,12,6,8,0,0,0,0,0,0,0,0,0,0,0,0,0,0,0,0,0,0,0,0,0,0,0,0,0,0,0,0,0,0,0,0,0,0,0,0,0,0,0,0,0,0,0,0,0,0,0,0,0,0,0,0,0,0,0,0],"split_type":[0,0,0,0,0,0,0,0,0,0,0,0,0,0,0,0,0,0,0,0,0,0,0,0,0,0,0,0,0,0,0,0,0,0,0,0,0,0,0,0,0,0,0,0,0,0,0,0,0,0,0,0,0,0,0,0,0,0,0,0,0,0,0,0,0,0,0,0,0,0,0,0,0,0,0,0,0,0,0,0,0,0,0,0,0,0,0,0,0,0,0,0,0,0,0,0,0,0,0,0,0,0,0,0,0,0,0,0,0,0,0,0,0,0,0,0,0],"sum_hessian":[5.865E3,1.543E3,4.322E3,5.36E2,1.007E3,2.843E3,1.479E3,3.05E2,2.31E2,9.77E2,3E1,1.329E3,1.514E3,6.2E2,8.59E2,2.15E2,9E1,2.02E2,2.9E1,5.83E2,3.94E2,2.3E1,7E0,4.49E2,8.8E2,1.294E3,2.2E2,4.85E2,1.35E2,7.03E2,1.56E2,5.7E1,1.58E2,4.2E1,4.8E1,1.59E2,4.3E1,1E0,2.8E1,3.71E2,2.12E2,1.89E2,2.05E2,2.1E1,2E0,2.83E2,1.66E2,1.9E1,8.61E2,7.84E2,5.1E2,1.92E2,2.8E1,4.32E2,5.3E1,1.22E2,1.3E1,4.17E2,2.86E2,1.49E2,7E0,5E1,7E0,4E1,1.18E2,3.2E1,1E1,1E1,3.8E1,1.3E2,2.9E1,1.5E1,2.8E1,3.2E2,5.1E1,1.39E2,7.3E1,1.55E2,3.4E1,1.61E2,4.4E1,3E0,1.8E1,1E0,1E0,1.2E1,2.71E2,1.51E2,1.5E1,4E0,1.5E1,7.34E2,1.27E2,5.97E2,1.87E2,1.13E2,3.97E2,3.8E1,1.54E2,2.6E1,2E0,1.7E2,2.62E2,4.3E1,1E1,8E1,4.2E1,4E0,9E0,1.74E2,2.43E2,8.3E1,2.03E2,4.8E1,1.01E2,1E0,6E0],"tree_param":{"num_deleted":"0","num_feature":"17","num_nodes":"117","size_leaf_vector":"1"}},{"base_weights":[1.2449516E-3,-1.1282431E0,4.0695292E-1,-2.452166E-1,-1.6874396E0,6.021928E-1,2.8206587E-2,-8.089798E-1,5.53653E-1,-1.774462E0,7.0629627E-1,3.765112E-1,7.98389E-1,-3.3757627E-1,2.7926698E-1,-1.7328494E0,-6.365738E-1,3.2683825E-1,2.3367257E0,-1.4981536E0,-2.02821E0,4.8702985E-1,1.1738327E0,1.8740048E-1,5.407126E-1,7.167809E-1,1.2659096E0,-1.992616E-1,-9.233952E-1,1.2533182E-1,7.67246E-1,-1.9841479E0,-0E0,8.50402E-2,-9.134356E-1,7.148008E-1,-5.299198E-1,1.6580336E0,1.3080542E-1,-1.147211E0,-2.1486418E0,-2.1295223E0,-6.4855224E-1,5.4564947E-1,-9.139685E-2,6.191638E-2,1.2334439E-2,-6.33059E-2,2.4990086E-1,4.191382E-1,6.7756796E-1,5.387476E-1,7.7117914E-1,1.1907805E0,1.1158325E-1,-2.5113058E-1,1.0168421E0,-9.7829944E-1,-3.6685094E-1,2.8295562E-1,-1.5455599E-1,6.20486E-1,1.3336374E0,-6.759386E-2,-1.253881E-1,-3.557648E-2,9.681711E-3,-4.969958E-2,4.3905176E-2,-7.2137326E-2,-2.4818946E-2,3.985593E-2,1.6452368E-2,3.3200674E-2,-3.8273346E-2,1.7155368E-2,8.7260775E-2,-7.0144266E-2,3.1813104E-2,-1.2653841E-1,-8.198896E-2,-1.1820101E-1,-9.397452E-2,-8.612374E-2,-6.257405E-3,3.1720202E-2,1.1893342E-2,-8.854742E-3,-0E0,-4.995708E-2,-1.5509775E-3,1.757849E-2,2.7258208E-4,1.7138787E-2,4.6824828E-2,2.1403126E-2,4.063391E-2,4.0092703E-2,1.7947124E-2,3.4580126E-2,4.6186656E-2,3.935789E-2,6.414532E-2,-4.9128E-3,-1.974492E-2,2.2401942E-2,6.404819E-2,-3.3859774E-2,-5.27576E-2,1.21218E-2,-2.2668561E-2,6.2637897E-3,2.075434E-2,-3.1239424E-2,-1.5062861E-3,3.8772326E-2,1.5968258E-2,3.8673814E-2,8.5868165E-2],"categories":[],"categories_nodes":[],"categories_segments":[],"categories_sizes":[],"default_left":[0,0,0,0,0,0,0,0,0,0,0,0,0,0,0,0,0,0,0,0,0,0,0,0,0,0,0,0,0,0,0,0,0,0,0,0,0,0,0,0,0,0,0,0,0,0,0,0,0,0,0,0,0,0,0,0,0,0,0,0,0,0,0,0,0,0,0,0,0,0,0,0,0,0,0,0,0,0,0,0,0,0,0,0,0,0,0,0,0,0,0,0,0,0,0,0,0,0,0,0,0,0,0,0,0,0,0,0,0,0,0,0,0,0,0,0,0,0,0],"id":11,"left_children":[1,3,5,7,9,11,13,15,17,19,21,23,25,27,29,31,33,35,37,39,41,43,45,47,49,51,53,55,57,59,61,63,65,67,69,71,73,75,-1,77,79,81,83,85,87,-1,-1,89,91,93,95,97,99,101,-1,103,105,107,109,111,113,115,117,-1,-1,-1,-1,-1,-1,-1,-1,-1,-1,-1,-1,-1,-1,-1,-1,-1,-1,-1,-1,-1,-1,-1,-1,-1,-1,-1,-1,-1,-1,-1,-1,-1,-1,-1,-1,-1,-1,-1,-1,-1,-1,-1,-1,-1,-1,-1,-1,-1,-1,-1,-1,-1,-1,-1,-1],"loss_changes":[2.6911858E3,7.657478E2,3.1944226E2,2.7204855E2,1.9925317E2,1.25818115E2,1.3517566E2,5.5045334E1,1.0007671E2,6.09021E1,2.747734E0,4.1063248E1,5.704016E1,4.8239136E1,6.5391846E1,2.3816254E1,6.0096718E1,7.452024E1,5.442047E-1,9.8335266E1,6.4734985E1,9.429736E-1,1.4397907E-1,9.73374E0,1.1419388E1,1.2043701E1,1.33255005E1,3.0834723E1,2.9900436E0,2.939437E1,1.6349915E1,1.2115021E1,1.2750082E0,7.274343E1,4.6993256E1,4.515274E0,2.0204353E1,4.533882E-1,0E0,1.3320593E2,2.5378357E1,2.104773E1,1.871092E1,3.9016294E-1,3.7665002E-2,0E0,0E0,3.6126168E0,1.2289419E1,1.4524132E1,1.0720001E1,1.4166931E1,1.12543335E1,6.6289673E0,0E0,1.0175819E1,2.257845E0,1.495697E0,7.635951E-1,8.769421E0,1.3958363E1,7.4820557E0,7.4504013E0,0E0,0E0,0E0,0E0,0E0,0E0,0E0,0E0,0E0,0E0,0E0,0E0,0E0,0E0,0E0,0E0,0E0,0E0,0E0,0E0,0E0,0E0,0E0,0E0,0E0,0E0,0E0,0E0,0E0,0E0,0E0,0E0,0E0,0E0,0E0,0E0,0E0,0E0,0E0,0E0,0E0,0E0,0E0,0E0,0E0,0E0,0E0,0E0,0E0,0E0,0E0,0E0,0E0,0E0,0E0,0E0],"parents":[2147483647,0,0,1,1,2,2,3,3,4,4,5,5,6,6,7,7,8,8,9,9,10,10,11,11,12,12,13,13,14,14,15,15,16,16,17,17,18,18,19,19,20,20,21,21,22,22,23,23,24,24,25,25,26,26,27,27,28,28,29,29,30,30,31,31,32,32,33,33,34,34,35,35,36,36,37,37,39,39,40,40,41,41,42,42,43,43,44,44,47,47,48,48,49,49,50,50,51,51,52,52,53,53,55,55,56,56,57,57,58,58,59,59,60,60,61,61,62,62],"right_children":[2,4,6,8,10,12,14,16,18,20,22,24,26,28,30,32,34,36,38,40,42,44,46,48,50,52,54,56,58,60,62,64,66,68,70,72,74,76,-1,78,80,82,84,86,88,-1,-1,90,92,94,96,98,100,102,-1,104,106,108,110,112,114,116,118,-1,-1,-1,-1,-1,-1,-1,-1,-1,-1,-1,-1,-1,-1,-1,-1,-1,-1,-1,-1,-1,-1,-1,-1,-1,-1,-1,-1,-1,-1,-1,-1,-1,-1,-1,-1,-1,-1,-1,-1,-1,-1,-1,-1,-1,-1,-1,-1,-1,-1,-1,-1,-1,-1,-1,-1],"split_conditions":[-1.45309E0,8E0,4.725E2,-1.765E-1,1E0,-2.85E-2,-6.034854E-1,2.948718E-1,8.115E-1,1.8E1,1.355E-1,-1.6691129E-1,3.39E-1,9.683E2,1.035E-1,2.99E1,5.3968257E-1,1.495E2,1.4235E0,7.5E-1,8.115E-1,1.8E-1,2.0634921E-1,-4.47E-1,5.471698E-1,-6.034854E-1,1.146E0,3.69E-1,1.355E-1,8.841E2,6.22E-1,1.509434E-1,-1.793E0,3E0,8.5897434E-1,1.1565E2,-1.44E-1,2.631579E-1,1.3080542E-1,3.855E1,-2.015E-1,3.855E1,3.855E1,1.8E1,1E1,6.191638E-2,1.2334439E-2,-1.793E0,3.465E2,3E0,5E0,4E0,1.08E-1,-6.034854E-1,1.1158325E-1,6.578E2,6.63E-1,1.0104E3,1.0104E3,2.4E-1,7.936508E-2,9.03E2,1.1320755E-1,-6.759386E-2,-1.253881E-1,-3.557648E-2,9.681711E-3,-4.969958E-2,4.3905176E-2,-7.2137326E-2,-2.4818946E-2,3.985593E-2,1.6452368E-2,3.3200674E-2,-3.8273346E-2,1.7155368E-2,8.7260775E-2,-7.0144266E-2,3.1813104E-2,-1.2653841E-1,-8.198896E-2,-1.1820101E-1,-9.397452E-2,-8.612374E-2,-6.257405E-3,3.1720202E-2,1.1893342E-2,-8.854742E-3,-0E0,-4.995708E-2,-1.5509775E-3,1.757849E-2,2.7258208E-4,1.7138787E-2,4.6824828E-2,2.1403126E-2,4.063391E-2,4.0092703E-2,1.7947124E-2,3.4580126E-2,4.6186656E-2,3.935789E-2,6.414532E-2,-4.9128E-3,-1.974492E-2,2.2401942E-2,6.404819E-2,-3.3859774E-2,-5.27576E-2,1.21218E-2,-2.2668561E-2,6.2637897E-3,2.075434E-2,-3.1239424E-2,-1.5062861E-3,3.8772326E-2,1.5968258E-2,3.8673814E-2,8.5868165E-2],"split_indices":[15,0,7,14,3,14,15,12,14,0,14,15,14,7,14,8,12,7,14,12,14,12,12,14,12,15,14,14,14,7,14,12,14,2,12,7,14,12,0,8,14,8,8,0,0,0,0,14,7,2,0,0,14,15,0,7,14,7,7,12,12,7,12,0,0,0,0,0,0,0,0,0,0,0,0,0,0,0,0,0,0,0,0,0,0,0,0,0,0,0,0,0,0,0,0,0,0,0,0,0,0,0,0,0,0,0,0,0,0,0,0,0,0,0,0,0,0,0,0],"split_type":[0,0,0,0,0,0,0,0,0,0,0,0,0,0,0,0,0,0,0,0,0,0,0,0,0,0,0,0,0,0,0,0,0,0,0,0,0,0,0,0,0,0,0,0,0,0,0,0,0,0,0,0,0,0,0,0,0,0,0,0,0,0,0,0,0,0,0,0,0,0,0,0,0,0,0,0,0,0,0,0,0,0,0,0,0,0,0,0,0,0,0,0,0,0,0,0,0,0,0,0,0,0,0,0,0,0,0,0,0,0,0,0,0,0,0,0,0,0,0],"sum_hessian":[5.871E3,1.551E3,4.32E3,6.02E2,9.49E2,2.85E3,1.47E3,3.53E2,2.49E2,9.16E2,3.3E1,1.327E3,1.523E3,5.98E2,8.72E2,5.4E1,2.99E2,2.22E2,2.7E1,4.42E2,4.74E2,2.4E1,9E0,6.18E2,7.09E2,1.299E3,2.24E2,4.85E2,1.13E2,6.64E2,2.08E2,4.7E1,7E0,8.3E1,2.16E2,1.53E2,6.9E1,1E1,1.7E1,2.89E2,1.53E2,4.41E2,3.3E1,2.2E1,2E0,8E0,1E0,1.23E2,4.95E2,3.78E2,3.31E2,3.07E2,9.92E2,2.1E2,1.4E1,4.66E2,1.9E1,1.02E2,1.1E1,4.25E2,2.39E2,1.67E2,4.1E1,2.3E1,2.4E1,1E0,6E0,3.5E1,4.8E1,9.4E1,1.22E2,1.25E2,2.8E1,1.1E1,5.8E1,1E0,9E0,2.53E2,3.6E1,8.5E1,6.8E1,2.23E2,2.18E2,1E1,2.3E1,1.6E1,6E0,1E0,1E0,3E0,1.2E2,3.49E2,1.46E2,3.31E2,4.7E1,1.18E2,2.13E2,1.23E2,1.84E2,6.56E2,3.36E2,4.1E1,1.69E2,2.27E2,2.39E2,7E0,1.2E1,2.3E1,7.9E1,1E0,1E1,1.95E2,2.3E2,4.9E1,1.9E2,1.09E2,5.8E1,1.8E1,2.3E1],"tree_param":{"num_deleted":"0","num_feature":"17","num_nodes":"119","size_leaf_vector":"1"}},{"base_weights":[-7.6419854E-4,-1.0448112E0,3.73729E-1,4.6838377E-2,-1.5026052E0,1.8645693E-2,5.471689E-1,-7.898266E-1,7.03503E-1,-1.7614715E0,5.45548E-2,3.4464127E-1,-2.667073E-1,4.2189914E-1,9.2380774E-1,-1.0802115E0,-2.4106237E-1,5.0307286E-1,2.1646461E0,-1.2945443E0,-2.1958797E0,-2.005554E0,9.726528E-1,1.5550461E-1,5.641678E-1,-3.4987706E-1,3.287567E-1,5.281836E-1,4.675858E-2,8.198573E-1,1.3404404E0,-6.53197E-1,-1.8206915E0,9.6735847E-1,-7.941147E-1,7.2191066E-1,1.200918E-1,5.618143E-2,1.13677576E-1,-3.4935734E-1,-1.581398E0,-2.2359805E0,-2.4460144E-1,-2.3958495E0,-7.3274744E-1,4.317534E-1,1.497772E-1,-5.502915E-1,1.8585457E-1,7.427365E-1,3.7174004E-1,-2.224736E-1,-7.6149416E-1,2.0912312E-1,7.880887E-2,3.4653282E-1,6.102333E-1,1.3626745E-1,-3.7699243E-1,9.345312E-1,4.6639353E-1,1.487333E0,6.451156E-1,-6.1102908E-2,-4.007319E-3,-6.822624E-4,-9.9119276E-2,1.1486946E-2,6.347292E-2,-1.8486224E-2,-6.789048E-2,3.474787E-2,4.902157E-2,4.5186408E-2,-1.099094E-2,-3.2323122E-2,3.8619947E-2,-9.18743E-2,-3.448407E-2,-7.277026E-2,-1.1721518E-1,-2.8612304E-2,7.329613E-2,-1.4920914E-1,-9.5181935E-2,-4.6549376E-2,-1.4480161E-3,1.2483076E-2,1.2444325E-1,-3.0634997E-2,5.5856714E-3,-1.117563E-2,1.1140032E-2,3.563989E-2,6.0311526E-2,1.0393686E-2,4.0938612E-2,-1.2249418E-2,4.6338428E-2,-1.7497523E-2,-4.632518E-2,2.4897454E-2,-5.490414E-3,-3.9095458E-2,1.7833753E-2,3.315296E-2,2.3177529E-2,-9.472769E-3,1.016242E-2,-2.5389163E-2,-8.146514E-3,4.240441E-2,5.4048073E-2,-1.4995754E-3,2.6640816E-2,6.798996E-2,1.0375102E-1,4.3139715E-2,1.4639221E-2],"categories":[],"categories_nodes":[],"categories_segments":[],"categories_sizes":[],"default_left":[0,0,0,0,0,0,0,0,0,0,0,0,0,0,0,0,0,0,0,0,0,0,0,0,0,0,0,0,0,0,0,0,0,0,0,0,0,0,0,0,0,0,0,0,0,0,0,0,0,0,0,0,0,0,0,0,0,0,0,0,0,0,0,0,0,0,0,0,0,0,0,0,0,0,0,0,0,0,0,0,0,0,0,0,0,0,0,0,0,0,0,0,0,0,0,0,0,0,0,0,0,0,0,0,0,0,0,0,0,0,0,0,0,0,0,0,0,0,0],"id":12,"left_children":[1,3,5,7,9,11,13,15,17,19,21,23,25,27,29,31,33,35,37,39,41,43,45,47,49,51,53,55,57,59,61,63,65,67,69,71,73,-1,-1,75,77,79,81,83,85,87,-1,89,91,93,95,97,99,101,-1,103,105,107,109,111,113,115,117,-1,-1,-1,-1,-1,-1,-1,-1,-1,-1,-1,-1,-1,-1,-1,-1,-1,-1,-1,-1,-1,-1,-1,-1,-1,-1,-1,-1,-1,-1,-1,-1,-1,-1,-1,-1,-1,-1,-1,-1,-1,-1,-1,-1,-1,-1,-1,-1,-1,-1,-1,-1,-1,-1,-1,-1],"loss_changes":[2.3162825E3,7.818257E2,2.684466E2,2.5492303E2,4.44479E2,1.3330981E2,1.3767017E2,3.2115456E1,7.478714E1,1.8848926E2,3.0068573E2,2.7617523E1,3.795393E1,8.7635376E1,3.030066E1,4.0617355E1,4.8869904E1,1.9105568E1,6.2020874E-1,1.2343213E2,3.7389893E1,2.2273361E1,1.1872379E2,7.798771E0,1.0230171E1,3.4920403E1,1.3519794E1,2.5238953E1,1.8498955E1,2.321698E1,1.3535126E1,2.7806652E1,1.3798401E1,4.6836376E0,1.1286562E1,1.6842651E-1,2.2908182E1,0E0,0E0,3.648092E1,7.863373E1,3.6625244E1,6.914385E0,4.5450287E0,1.6907887E0,3.20681E1,0E0,7.3826504E-1,5.2979307E0,1.1546555E0,1.0788418E1,1.3458567E1,1.0277679E1,8.107556E0,0E0,6.3708496E0,8.715637E0,8.832224E0,2.22997E0,4.4851074E0,4.880064E0,5.679016E0,1.7025938E0,0E0,0E0,0E0,0E0,0E0,0E0,0E0,0E0,0E0,0E0,0E0,0E0,0E0,0E0,0E0,0E0,0E0,0E0,0E0,0E0,0E0,0E0,0E0,0E0,0E0,0E0,0E0,0E0,0E0,0E0,0E0,0E0,0E0,0E0,0E0,0E0,0E0,0E0,0E0,0E0,0E0,0E0,0E0,0E0,0E0,0E0,0E0,0E0,0E0,0E0,0E0,0E0,0E0,0E0,0E0,0E0],"parents":[2147483647,0,0,1,1,2,2,3,3,4,4,5,5,6,6,7,7,8,8,9,9,10,10,11,11,12,12,13,13,14,14,15,15,16,16,17,17,18,18,19,19,20,20,21,21,22,22,23,23,24,24,25,25,26,26,27,27,28,28,29,29,30,30,31,31,32,32,33,33,34,34,35,35,36,36,39,39,40,40,41,41,42,42,43,43,44,44,45,45,47,47,48,48,49,49,50,50,51,51,52,52,53,53,55,55,56,56,57,57,58,58,59,59,60,60,61,61,62,62],"right_children":[2,4,6,8,10,12,14,16,18,20,22,24,26,28,30,32,34,36,38,40,42,44,46,48,50,52,54,56,58,60,62,64,66,68,70,72,74,-1,-1,76,78,80,82,84,86,88,-1,90,92,94,96,98,100,102,-1,104,106,108,110,112,114,116,118,-1,-1,-1,-1,-1,-1,-1,-1,-1,-1,-1,-1,-1,-1,-1,-1,-1,-1,-1,-1,-1,-1,-1,-1,-1,-1,-1,-1,-1,-1,-1,-1,-1,-1,-1,-1,-1,-1,-1,-1,-1,-1,-1,-1,-1,-1,-1,-1,-1,-1,-1,-1,-1,-1,-1,-1],"split_conditions":[-1.45309E0,6E0,-6.034854E-1,-4.86E-1,3E0,1E1,1.08E-1,3E0,8.115E-1,1.6E1,2.99E1,-5.7E-2,1.405E-1,1.8E1,5.355E-1,4E0,5.3968257E-1,4E0,1.146E0,5.0793654E-1,1.4235E0,3E0,3.207547E-1,-1.2035E0,5E0,2.1E1,1.146E0,-1.535E-1,3.1E1,1.6E1,2.4E1,-1.644E0,2.631579E-1,-1.644E0,4E0,9.55E-2,5.3968257E-1,5.618143E-2,1.13677576E-1,2.99E1,1E0,2E0,2.21E1,-4.62E-1,-3.515E-1,1.0115E0,1.497772E-1,4E0,1.9642857E-1,3.88E-1,3E0,4E0,3.9E1,1.7E1,7.880887E-2,-1.793E0,1.2E1,2E0,1.509434E-1,2.63E-1,2E0,1.146E0,8.115E-1,-6.1102908E-2,-4.007319E-3,-6.822624E-4,-9.9119276E-2,1.1486946E-2,6.347292E-2,-1.8486224E-2,-6.789048E-2,3.474787E-2,4.902157E-2,4.5186408E-2,-1.099094E-2,-3.2323122E-2,3.8619947E-2,-9.18743E-2,-3.448407E-2,-7.277026E-2,-1.1721518E-1,-2.8612304E-2,7.329613E-2,-1.4920914E-1,-9.5181935E-2,-4.6549376E-2,-1.4480161E-3,1.2483076E-2,1.2444325E-1,-3.0634997E-2,5.5856714E-3,-1.117563E-2,1.1140032E-2,3.563989E-2,6.0311526E-2,1.0393686E-2,4.0938612E-2,-1.2249418E-2,4.6338428E-2,-1.7497523E-2,-4.632518E-2,2.4897454E-2,-5.490414E-3,-3.9095458E-2,1.7833753E-2,3.315296E-2,2.3177529E-2,-9.472769E-3,1.016242E-2,-2.5389163E-2,-8.146514E-3,4.240441E-2,5.4048073E-2,-1.4995754E-3,2.6640816E-2,6.798996E-2,1.0375102E-1,4.3139715E-2,1.4639221E-2],"split_indices":[15,0,15,14,13,0,14,2,14,0,8,14,14,0,14,0,12,0,14,12,14,2,12,14,0,0,14,14,0,0,0,14,12,14,0,14,12,0,0,8,4,13,9,14,14,14,0,0,12,14,13,13,8,0,0,14,0,13,12,14,13,14,14,0,0,0,0,0,0,0,0,0,0,0,0,0,0,0,0,0,0,0,0,0,0,0,0,0,0,0,0,0,0,0,0,0,0,0,0,0,0,0,0,0,0,0,0,0,0,0,0,0,0,0,0,0,0,0,0],"split_type":[0,0,0,0,0,0,0,0,0,0,0,0,0,0,0,0,0,0,0,0,0,0,0,0,0,0,0,0,0,0,0,0,0,0,0,0,0,0,0,0,0,0,0,0,0,0,0,0,0,0,0,0,0,0,0,0,0,0,0,0,0,0,0,0,0,0,0,0,0,0,0,0,0,0,0,0,0,0,0,0,0,0,0,0,0,0,0,0,0,0,0,0,0,0,0,0,0,0,0,0,0,0,0,0,0,0,0,0,0,0,0,0,0,0,0,0,0,0,0],"sum_hessian":[5.922E3,1.563E3,4.359E3,4.62E2,1.101E3,1.431E3,2.928E3,2.03E2,2.59E2,9.44E2,1.57E2,6.68E2,7.63E2,2.199E3,7.29E2,1.32E2,7.1E1,2.29E2,3E1,4.57E2,4.87E2,4.8E1,1.09E2,3.6E2,3.08E2,6.7E2,9.3E1,1.713E3,4.86E2,5.86E2,1.43E2,8.5E1,4.7E1,2.2E1,4.9E1,1.45E2,8.4E1,4E0,2.6E1,1.07E2,3.5E2,4.77E2,1E1,3.6E1,1.2E1,8.7E1,2.2E1,1.4E1,3.46E2,1.58E2,1.5E2,5.13E2,1.57E2,8.6E1,7E0,5.35E2,1.178E3,4.02E2,8.4E1,4.41E2,1.45E2,1.17E2,2.6E1,4.2E1,4.3E1,4E0,4.3E1,7E0,1.5E1,2.9E1,2E1,1.35E2,1E1,2.5E1,5.9E1,8.5E1,2.2E1,2.71E2,7.9E1,6E1,4.17E2,9E0,1E0,1.4E1,2.2E1,9E0,3E0,8.1E1,6E0,1.3E1,1E0,2.8E1,3.18E2,1.51E2,7E0,1.11E2,3.9E1,5.04E2,9E0,4.6E1,1.11E2,4.5E1,4.1E1,4E0,5.31E2,8.63E2,3.15E2,6.8E1,3.34E2,5.1E1,3.3E1,2.82E2,1.59E2,1.7E1,1.28E2,9.9E1,1.8E1,1.5E1,1.1E1],"tree_param":{"num_deleted":"0","num_feature":"17","num_nodes":"119","size_leaf_vector":"1"}},{"base_weights":[3.4637414E-3,-9.8880523E-1,3.583385E-1,-1.0157264E-4,-1.4017967E0,5.2200323E-1,-1.1045572E-2,-6.892841E-1,7.9811037E-1,-1.4795346E0,6.4166236E-1,4.5270398E-1,1.0318658E0,1.6256219E-1,-4.777416E-1,-3.9615285E-1,-1.266037E0,5.647097E-1,1.1320623E-1,-1.186095E0,-1.840216E0,4.5061257E-1,1.2597712E0,2.3226543E-1,5.481E-1,9.019444E-1,1.4549527E0,2.942101E-2,6.2070584E-1,-1.4076445E-1,-6.8484855E-1,-6.708518E-1,1.841645E-1,-1.0832623E0,-1.9574523E0,7.3248476E-1,1.7040335E-1,-8.63944E-1,-1.7205843E0,-2.1576312E0,-1.5213295E0,5.0691116E-1,-5.9280016E-2,6.730863E-2,1.1714E-2,5.4437375E-1,1.235141E-1,3.83002E-1,6.1151373E-1,9.5182186E-1,5.1159734E-1,1.1876206E0,1.752511E0,8.965697E-2,-3.0781043E-1,5.5478024E-1,1.9396654E0,6.581392E-2,-1.8300828E-1,-7.557399E-1,-1.3328421E-1,-5.718724E-2,-2.0733472E-2,3.320406E-2,-1.9755106E-2,-6.223E-2,-2.6007762E-2,6.9601783E-3,-1.0565881E-1,3.162806E-2,5.8274806E-2,2.5220646E-2,-1.5285519E-2,-5.624972E-2,4.7316864E-2,-1.00525044E-1,-4.983875E-2,-1.168192E-1,-6.262002E-2,-8.2345665E-2,1.0412333E-3,1.50476815E-2,3.204113E-2,-8.945451E-3,3.4496625E-4,-1.2456566E-2,3.1532314E-2,-1.4210236E-2,9.124573E-3,-5.580141E-2,1.97037E-2,3.3791468E-2,2.4100702E-2,4.86411E-2,3.564351E-2,4.0158484E-2,4.103053E-3,-2.74824E-2,6.197551E-2,9.054313E-2,2.2711936E-2,-7.129635E-3,8.402832E-3,-1.1463063E-2,-3.7062753E-2,4.093859E-3,3.271474E-2,1.1364374E-2,1.0467821E-1,-1.341294E-2,1.6206011E-2,-3.2521453E-2,-5.6017317E-2,-1.5866229E-3,-3.421369E-2],"categories":[],"categories_nodes":[],"categories_segments":[],"categories_sizes":[],"default_left":[0,0,0,0,0,0,0,0,0,0,0,0,0,0,0,0,0,0,0,0,0,0,0,0,0,0,0,0,0,0,0,0,0,0,0,0,0,0,0,0,0,0,0,0,0,0,0,0,0,0,0,0,0,0,0,0,0,0,0,0,0,0,0,0,0,0,0,0,0,0,0,0,0,0,0,0,0,0,0,0,0,0,0,0,0,0,0,0,0,0,0,0,0,0,0,0,0,0,0,0,0,0,0,0,0,0,0,0,0,0,0,0,0,0,0],"id":13,"left_children":[1,3,5,7,9,11,13,15,17,19,21,23,25,27,29,31,33,35,-1,37,39,41,43,45,47,49,51,53,55,57,59,61,63,65,67,69,71,73,75,77,79,81,83,-1,-1,85,87,89,91,93,95,97,99,101,103,105,107,-1,109,111,113,-1,-1,-1,-1,-1,-1,-1,-1,-1,-1,-1,-1,-1,-1,-1,-1,-1,-1,-1,-1,-1,-1,-1,-1,-1,-1,-1,-1,-1,-1,-1,-1,-1,-1,-1,-1,-1,-1,-1,-1,-1,-1,-1,-1,-1,-1,-1,-1,-1,-1,-1,-1,-1,-1],"loss_changes":[2.0866687E3,6.372567E2,2.6394354E2,2.5414166E2,1.7593188E2,1.0626691E2,1.0875976E2,4.126017E1,7.166261E1,1.0980908E2,4.1029663E0,5.5836853E1,1.8295502E1,5.957257E1,2.5224709E1,2.6634703E1,8.064484E0,1.2089676E1,0E0,9.950055E1,4.4327637E1,1.022119E0,3.2400894E-1,2.7257328E1,1.912909E1,4.798691E0,4.227051E0,1.5423699E1,1.7804161E1,8.744715E0,8.608131E0,1.3059479E1,1.5301263E1,5.353958E0,5.7155533E0,4.707794E0,9.238586E0,1.7546252E2,4.3861023E1,3.4740967E1,4.667755E1,5.403662E-1,5.0103195E-2,0E0,0E0,1.44344635E1,1.4469403E1,8.981537E0,1.0727478E1,3.723755E-1,4.103758E0,4.9871445E0,1.7539062E0,1.1770863E1,3.6483793E0,9.802628E0,1.9274063E0,0E0,6.004279E0,6.7352295E0,1.4174426E0,0E0,0E0,0E0,0E0,0E0,0E0,0E0,0E0,0E0,0E0,0E0,0E0,0E0,0E0,0E0,0E0,0E0,0E0,0E0,0E0,0E0,0E0,0E0,0E0,0E0,0E0,0E0,0E0,0E0,0E0,0E0,0E0,0E0,0E0,0E0,0E0,0E0,0E0,0E0,0E0,0E0,0E0,0E0,0E0,0E0,0E0,0E0,0E0,0E0,0E0,0E0,0E0,0E0,0E0],"parents":[2147483647,0,0,1,1,2,2,3,3,4,4,5,5,6,6,7,7,8,8,9,9,10,10,11,11,12,12,13,13,14,14,15,15,16,16,17,17,19,19,20,20,21,21,22,22,23,23,24,24,25,25,26,26,27,27,28,28,29,29,30,30,31,31,32,32,33,33,34,34,35,35,36,36,37,37,38,38,39,39,40,40,41,41,42,42,45,45,46,46,47,47,48,48,49,49,50,50,51,51,52,52,53,53,54,54,55,55,56,56,58,58,59,59,60,60],"right_children":[2,4,6,8,10,12,14,16,18,20,22,24,26,28,30,32,34,36,-1,38,40,42,44,46,48,50,52,54,56,58,60,62,64,66,68,70,72,74,76,78,80,82,84,-1,-1,86,88,90,92,94,96,98,100,102,104,106,108,-1,110,112,114,-1,-1,-1,-1,-1,-1,-1,-1,-1,-1,-1,-1,-1,-1,-1,-1,-1,-1,-1,-1,-1,-1,-1,-1,-1,-1,-1,-1,-1,-1,-1,-1,-1,-1,-1,-1,-1,-1,-1,-1,-1,-1,-1,-1,-1,-1,-1,-1,-1,-1,-1,-1,-1,-1],"split_conditions":[-1.45309E0,6E0,5.1975E2,-2.62E-1,1E0,2.345E-1,4.515E1,1E0,1.146E0,1.8E1,1.89E-1,-6.034854E-1,6.22E-1,1.035E-1,1.7E1,-7.335E-1,5E0,1.1565E2,1.1320623E-1,7.5E-1,3.855E1,1.8E-1,2.0634921E-1,1.17E2,-1.405E-1,4.515E1,3.9E1,2.9E1,1.146E0,7.1428575E-2,1.355E-1,3.773585E-1,1.1565E2,1.263E2,2.631579E-1,9E-3,1E0,3.855E1,1E0,1E0,1.0115E0,7.936508E-2,-1.64E-1,6.730863E-2,1.1714E-2,-9.695E-1,-3.965E-1,-1.793E0,1E1,4.23E2,1E0,5.357143E-2,7.777778E-1,-6.034854E-1,4E-1,-6.034854E-1,4.4E1,6.581392E-2,6E-2,2.5E1,2.7E1,-5.718724E-2,-2.0733472E-2,3.320406E-2,-1.9755106E-2,-6.223E-2,-2.6007762E-2,6.9601783E-3,-1.0565881E-1,3.162806E-2,5.8274806E-2,2.5220646E-2,-1.5285519E-2,-5.624972E-2,4.7316864E-2,-1.00525044E-1,-4.983875E-2,-1.168192E-1,-6.262002E-2,-8.2345665E-2,1.0412333E-3,1.50476815E-2,3.204113E-2,-8.945451E-3,3.4496625E-4,-1.2456566E-2,3.1532314E-2,-1.4210236E-2,9.124573E-3,-5.580141E-2,1.97037E-2,3.3791468E-2,2.4100702E-2,4.86411E-2,3.564351E-2,4.0158484E-2,4.103053E-3,-2.74824E-2,6.197551E-2,9.054313E-2,2.2711936E-2,-7.129635E-3,8.402832E-3,-1.1463063E-2,-3.7062753E-2,4.093859E-3,3.271474E-2,1.1364374E-2,1.0467821E-1,-1.341294E-2,1.6206011E-2,-3.2521453E-2,-5.6017317E-2,-1.5866229E-3,-3.421369E-2],"split_indices":[15,0,7,14,3,14,8,5,14,0,14,15,14,14,0,14,0,7,0,12,8,12,12,7,14,8,8,0,14,12,14,12,7,7,12,14,5,8,4,4,14,12,14,0,0,14,14,14,0,7,5,12,12,15,12,15,10,0,14,0,0,0,0,0,0,0,0,0,0,0,0,0,0,0,0,0,0,0,0,0,0,0,0,0,0,0,0,0,0,0,0,0,0,0,0,0,0,0,0,0,0,0,0,0,0,0,0,0,0,0,0,0,0,0,0],"split_type":[0,0,0,0,0,0,0,0,0,0,0,0,0,0,0,0,0,0,0,0,0,0,0,0,0,0,0,0,0,0,0,0,0,0,0,0,0,0,0,0,0,0,0,0,0,0,0,0,0,0,0,0,0,0,0,0,0,0,0,0,0,0,0,0,0,0,0,0,0,0,0,0,0,0,0,0,0,0,0,0,0,0,0,0,0,0,0,0,0,0,0,0,0,0,0,0,0,0,0,0,0,0,0,0,0,0,0,0,0,0,0,0,0,0,0],"sum_hessian":[5.924E3,1.56E3,4.364E3,4.6E2,1.1E3,3.024E3,1.34E3,2.47E2,2.13E2,1.06E3,4E1,2.664E3,3.6E2,9.77E2,3.63E2,1.65E2,8.2E1,1.85E2,2.8E1,5.87E2,4.73E2,3.2E1,8E0,8.06E2,1.858E3,2.78E2,8.2E1,7.58E2,2.19E2,1.39E2,2.24E2,1.12E2,5.3E1,6.7E1,1.5E1,1.29E2,5.6E1,3.68E2,2.19E2,2.34E2,2.39E2,2.9E1,3E0,7E0,1E0,2.07E2,5.99E2,5.18E2,1.34E3,2.45E2,3.3E1,4.6E1,3.6E1,6.44E2,1.14E2,2.1E2,9E0,3E0,1.36E2,1.98E2,2.6E1,3.8E1,7.4E1,2.9E1,2.4E1,5.1E1,1.6E1,1E0,1.4E1,1.07E2,2.2E1,3.3E1,2.3E1,3.22E2,4.6E1,1.55E2,6.4E1,1.94E2,4E1,2.21E2,1.8E1,1.3E1,1.6E1,1E0,2E0,2E1,1.87E2,7.5E1,5.24E2,3E0,5.15E2,8.92E2,4.48E2,2.22E2,2.3E1,1.9E1,1.4E1,1E0,4.5E1,3.4E1,2E0,1.62E2,4.82E2,9.8E1,1.6E1,3.7E1,1.73E2,1E0,8E0,1.17E2,1.9E1,1.56E2,4.2E1,2.3E1,3E0],"tree_param":{"num_deleted":"0","num_feature":"17","num_nodes":"115","size_leaf_vector":"1"}},{"base_weights":[1.2291376E-2,-9.425123E-1,3.453118E-1,-7.796753E-2,-1.3843857E0,1.3869134E-2,5.0185907E-1,-6.08829E-1,6.337165E-1,-1.6559708E0,2.08177E-1,3.1406903E-1,-2.6494586E-1,4.3774736E-1,1.0651199E0,-8.750269E-1,-1.5566805E-1,4.010058E-1,2.0070522E0,-1.2351569E0,-2.0054576E0,-1.9358542E0,9.6051073E-1,1.16070926E-1,5.2962506E-1,-1.1288768E-1,-5.3645355E-1,5.15462E-1,3.253546E-2,1.0010583E0,2.0253763E0,1.7767318E-2,-1.072902E0,8.6628723E-1,-8.311434E-1,6.078863E-1,-3.4994552E-1,1.2432484E-2,1.02626406E-1,-4.6391764E-1,-1.4758979E0,-1.8958131E0,-1.3634567E-1,-2.3130279E0,-7.5640994E-1,3.7372932E-1,2.860614E0,-5.616011E-1,1.4360389E-1,7.300748E-1,3.7807107E-1,-2.3423246E-1,1.3855302E-1,-5.767709E-1,4.0413003E-2,3.3760756E-1,5.7905453E-1,-5.1217115E-1,1.284095E-1,1.0914655E0,5.3577703E-1,1.0412117E-1,2.3889447E-2,-1.0308421E-2,1.6837977E-2,-3.1822022E-2,-7.235778E-2,2.4545817E-3,4.940934E-2,-1.0192473E-2,-7.247502E-2,2.6989946E-2,4.890221E-2,-5.5668246E-2,1.6238231E-2,5.9554246E-3,-5.7896417E-2,-8.744057E-2,-3.3422187E-2,-6.371324E-2,-9.9660814E-2,-9.3980394E-2,-1.421148E-1,-4.6875715E-2,-9.004938E-3,8.687971E-3,9.3306236E-2,7.660983E-2,1.5139769E-1,-3.151718E-2,5.801285E-3,2.4298886E-2,4.2374325E-3,3.4772467E-2,5.9881795E-2,1.4108419E-2,3.3716794E-2,-2.0148847E-2,-3.9784703E-3,2.0045952E-3,2.7042797E-2,-9.751552E-3,-3.8074337E-2,-9.779119E-3,1.7974364E-2,3.316123E-2,2.2861708E-2,-4.57051E-2,-1.2608019E-2,-4.709938E-4,2.9241964E-2,4.985569E-2,7.230079E-2,3.131888E-2,-1.00628175E-2],"categories":[],"categories_nodes":[],"categories_segments":[],"categories_sizes":[],"default_left":[0,0,0,0,0,0,0,0,0,0,0,0,0,0,0,0,0,0,0,0,0,0,0,0,0,0,0,0,0,0,0,0,0,0,0,0,0,0,0,0,0,0,0,0,0,0,0,0,0,0,0,0,0,0,0,0,0,0,0,0,0,0,0,0,0,0,0,0,0,0,0,0,0,0,0,0,0,0,0,0,0,0,0,0,0,0,0,0,0,0,0,0,0,0,0,0,0,0,0,0,0,0,0,0,0,0,0,0,0,0,0,0,0,0,0],"id":14,"left_children":[1,3,5,7,9,11,13,15,17,19,21,23,25,27,29,31,33,35,37,39,41,43,45,47,49,51,53,55,57,59,61,63,65,67,69,71,73,-1,-1,75,77,79,-1,81,83,85,87,89,91,93,95,97,99,101,-1,103,105,107,109,111,113,-1,-1,-1,-1,-1,-1,-1,-1,-1,-1,-1,-1,-1,-1,-1,-1,-1,-1,-1,-1,-1,-1,-1,-1,-1,-1,-1,-1,-1,-1,-1,-1,-1,-1,-1,-1,-1,-1,-1,-1,-1,-1,-1,-1,-1,-1,-1,-1,-1,-1,-1,-1,-1,-1],"loss_changes":[1.8899562E3,5.8690955E2,2.286051E2,1.9722008E2,4.4035852E2,1.18523964E2,1.07465454E2,3.582923E1,7.022291E1,1.2500171E2,2.421029E2,2.8981499E1,3.0177666E1,8.460742E1,1.6432068E1,3.333699E1,7.8030716E1,3.00671E1,1.8184052E0,7.283185E1,3.1784058E1,1.5292816E1,1.2236639E2,6.6998677E0,9.516701E0,1.4443221E1,1.4701668E1,2.5228699E1,2.2692268E1,1.1367157E1,3.3815002E-1,2.5826697E0,2.4026093E1,4.330471E0,2.5915817E1,3.125927E0,2.207409E1,0E0,0E0,3.9085938E1,6.513965E1,2.2197266E1,0E0,8.378601E-1,8.674903E-1,2.513709E1,6.8429565E-1,7.767124E-1,6.8335114E0,1.2281418E0,5.055643E0,8.245111E0,6.020345E0,1.7807266E1,0E0,7.0513306E0,1.6605713E1,6.4457855E0,2.333954E1,6.342407E0,3.4405804E0,0E0,0E0,0E0,0E0,0E0,0E0,0E0,0E0,0E0,0E0,0E0,0E0,0E0,0E0,0E0,0E0,0E0,0E0,0E0,0E0,0E0,0E0,0E0,0E0,0E0,0E0,0E0,0E0,0E0,0E0,0E0,0E0,0E0,0E0,0E0,0E0,0E0,0E0,0E0,0E0,0E0,0E0,0E0,0E0,0E0,0E0,0E0,0E0,0E0,0E0,0E0,0E0,0E0,0E0],"parents":[2147483647,0,0,1,1,2,2,3,3,4,4,5,5,6,6,7,7,8,8,9,9,10,10,11,11,12,12,13,13,14,14,15,15,16,16,17,17,18,18,19,19,20,20,21,21,22,22,23,23,24,24,25,25,26,26,27,27,28,28,29,29,30,30,31,31,32,32,33,33,34,34,35,35,36,36,39,39,40,40,41,41,43,43,44,44,45,45,46,46,47,47,48,48,49,49,50,50,51,51,52,52,53,53,55,55,56,56,57,57,58,58,59,59,60,60],"right_children":[2,4,6,8,10,12,14,16,18,20,22,24,26,28,30,32,34,36,38,40,42,44,46,48,50,52,54,56,58,60,62,64,66,68,70,72,74,-1,-1,76,78,80,-1,82,84,86,88,90,92,94,96,98,100,102,-1,104,106,108,110,112,114,-1,-1,-1,-1,-1,-1,-1,-1,-1,-1,-1,-1,-1,-1,-1,-1,-1,-1,-1,-1,-1,-1,-1,-1,-1,-1,-1,-1,-1,-1,-1,-1,-1,-1,-1,-1,-1,-1,-1,-1,-1,-1,-1,-1,-1,-1,-1,-1,-1,-1,-1,-1,-1,-1],"split_conditions":[-1.45309E0,4.9E1,-6.034854E-1,-1.88E-1,3E0,1E2,2.86E-1,3E0,8.115E-1,2.56E2,2.99E1,-5.25E-2,3.61E2,4E2,1.146E0,2E0,7.4358976E-1,2.5E1,2.631579E-1,4.9056605E-1,1.6E3,2.3E1,2.6984128E-1,-1.2035E0,1.6E1,2E-2,4E0,-1.535E-1,2E0,4.41E2,5E0,-5.51E-1,1.6E1,-1.644E0,1.6E1,6.55E-2,2E0,1.2432484E-2,1.02626406E-1,4E1,1E0,2E0,-1.3634567E-1,8.77193E-2,4.6E-1,1E0,-9.695E-1,1.6E1,9E0,3.515E-1,3E0,4.107143E-1,2.42E-1,3.9E1,4.0413003E-2,-1.068E0,1E2,2E0,2.631579E-1,6.945E-1,4.2E-1,1.0412117E-1,2.3889447E-2,-1.0308421E-2,1.6837977E-2,-3.1822022E-2,-7.235778E-2,2.4545817E-3,4.940934E-2,-1.0192473E-2,-7.247502E-2,2.6989946E-2,4.890221E-2,-5.5668246E-2,1.6238231E-2,5.9554246E-3,-5.7896417E-2,-8.744057E-2,-3.3422187E-2,-6.371324E-2,-9.9660814E-2,-9.3980394E-2,-1.421148E-1,-4.6875715E-2,-9.004938E-3,8.687971E-3,9.3306236E-2,7.660983E-2,1.5139769E-1,-3.151718E-2,5.801285E-3,2.4298886E-2,4.2374325E-3,3.4772467E-2,5.9881795E-2,1.4108419E-2,3.3716794E-2,-2.0148847E-2,-3.9784703E-3,2.0045952E-3,2.7042797E-2,-9.751552E-3,-3.8074337E-2,-9.779119E-3,1.7974364E-2,3.316123E-2,2.2861708E-2,-4.57051E-2,-1.2608019E-2,-4.709938E-4,2.9241964E-2,4.985569E-2,7.230079E-2,3.131888E-2,-1.00628175E-2],"split_indices":[15,1,15,14,13,1,14,2,14,1,8,14,1,1,14,13,12,1,12,12,1,6,12,14,1,14,13,14,13,1,13,14,1,14,6,14,2,0,0,6,4,13,0,12,12,4,14,1,1,14,13,12,14,8,0,14,1,2,12,14,12,0,0,0,0,0,0,0,0,0,0,0,0,0,0,0,0,0,0,0,0,0,0,0,0,0,0,0,0,0,0,0,0,0,0,0,0,0,0,0,0,0,0,0,0,0,0,0,0,0,0,0,0,0,0],"split_type":[0,0,0,0,0,0,0,0,0,0,0,0,0,0,0,0,0,0,0,0,0,0,0,0,0,0,0,0,0,0,0,0,0,0,0,0,0,0,0,0,0,0,0,0,0,0,0,0,0,0,0,0,0,0,0,0,0,0,0,0,0,0,0,0,0,0,0,0,0,0,0,0,0,0,0,0,0,0,0,0,0,0,0,0,0,0,0,0,0,0,0,0,0,0,0,0,0,0,0,0,0,0,0,0,0,0,0,0,0,0,0,0,0,0,0],"sum_hessian":[5.942E3,1.536E3,4.406E3,5.2E2,1.016E3,1.414E3,2.992E3,2.98E2,2.22E2,8.68E2,1.48E2,6.81E2,7.33E2,2.688E3,3.04E2,1.87E2,1.11E2,1.91E2,3.1E1,3.96E2,4.72E2,3.8E1,1.1E2,3.56E2,3.25E2,4.71E2,2.62E2,2.255E3,4.33E2,2.87E2,1.7E1,3.4E1,1.53E2,4.4E1,6.7E1,1.5E2,4.1E1,1E0,3E1,9.5E1,3.01E2,4.13E2,5.9E1,2.8E1,1E1,8.5E1,2.5E1,1.3E1,3.43E2,1.38E2,1.87E2,3.18E2,1.53E2,2.55E2,7E0,5.96E2,1.659E3,6.4E1,3.69E2,2.39E2,4.8E1,1.6E1,1E0,2E1,1.4E1,7.2E1,8.1E1,6E0,3.8E1,3.4E1,3.3E1,1.29E2,2.1E1,1.9E1,2.2E1,5.2E1,4.3E1,2.24E2,7.7E1,5.8E1,3.55E2,1.8E1,1E1,7E0,3E0,7.6E1,9E0,4E0,2.1E1,1.2E1,1E0,4.9E1,2.94E2,1.31E2,7E0,1.43E2,4.4E1,1.51E2,1.67E2,1.24E2,2.9E1,8.4E1,1.71E2,2.3E1,5.73E2,9.78E2,6.81E2,2.4E1,4E1,2.84E2,8.5E1,1.92E2,4.7E1,4.3E1,5E0],"tree_param":{"num_deleted":"0","num_feature":"17","num_nodes":"115","size_leaf_vector":"1"}},{"base_weights":[2.6715589E-3,-9.095118E-1,3.2251236E-1,9.781468E-2,-1.2266909E0,4.6059215E-1,-3.860137E-2,-5.236315E-1,3.265335E-1,-1.293935E0,6.4262164E-1,2.3989156E-1,5.493493E-1,1.21808484E-1,-4.7645232E-1,2.7463108E-2,-8.208114E-1,6.603171E-1,6.066074E-2,-1.0508662E0,-1.6700355E0,8.1225175E-1,4.8445645E-1,4.3933815E-1,1.0271961E-1,6.007496E-1,3.8774574E-1,1.8675518E-1,-1.3810155E-1,-2.7403545E-1,-7.087623E-1,-1.0758109E0,-3.2346174E-1,-1.807363E-1,1.317265E0,2.923921E-1,-7.737845E-1,-8.1146806E-1,-1.466393E0,-1.9184239E0,-1.4248198E0,-8.0771203E-4,8.678141E-1,5.705659E-1,-6.3732125E-2,3.0510748E-2,3.9109552E-1,2.1541316E-2,2.6128614E-1,6.567042E-1,4.5690522E-1,3.3857623E-1,9.987758E-1,-6.1672878E-2,2.6677626E-1,-1.7328155E-1,8.767423E-1,5.4976523E-2,-3.0496702E-1,-6.407657E-1,-1.0045627E0,-9.958932E-3,-6.0423788E-2,3.9424263E-2,-4.952852E-2,2.4081454E-2,-4.7292534E-2,2.7482567E-2,7.9299375E-2,2.509183E-2,4.8333122E-3,-2.5482679E-2,